0.08066248836087676 0.06714102441894594 -0.043697384318505006 -0.11105332185137166 0.07837359822005412 0.07063776450902619 0.01937924676564312 -0.11903664880371141 -0.05235957309505625 -0.10994673372908208 -0.06666257650583417 0.03591968684495027 0.060792290092412764 0.03940755191030727 0.025627487039334894 0.033112421635731595 -0.07608324954926933 -0.03163694693251224 0.05252990335533721 0.0728200704191831 -0.02986468453726574 0.07945455892648502 -0.04554271345980378 -0.10635104070079755 0.02421110045768063 0.04504012204160236 -0.03239882171874365 0.04875851452520383 0.08043794890197635 0.01929150526704867 0.016002048770244113 -0.09018044162741497 -0.11091922853685286 0.03917562603965857 -0.03543392576064408 -0.105682719892967 -0.043792839376782855 -0.08673882514239957 -0.07375219560256484 0.04481815845023138 -0.07242924297520732 0.008317510747706853 -0.014437037514854126 -0.07192190895377155 -0.0507230210062799 -0.038944367293658994 0.025790994952497336 0.06737672532116103 0.07628224238796648 0.06599390976643198 0.02867236251237259 -0.026779167478389557 -0.06565207482626238 -0.07968591195234796 0.05310071304177749 -0.10443269196818468 0.03189078220171882 0.04270576763933741 -0.10674440446471102 -0.11502568268920342 -0.03475823695164157 0.025580594868411397 -0.03318345517374621 0.020596787941777002 0.06414546791705537 -0.07133006255357292 -0.10965533408190827 -0.06029966967574395 -0.016097114150015523 0.0769028859755785 0.0616133341152276 -0.11362445913343357 -0.033619711081586845 -0.013405951995454987 -0.012385314197729808 -0.01360776904703716 -0.0358225291208735 0.011353542141478145 0.07216408684056878 -0.049358700288217386 -0.04943106609258584 0.07276432023137007 -0.10618049775212209 -0.10237962380300426 -0.11596832376455421 -0.11321513760077209 -0.003926035183330292 -0.010238848304271705 -0.07143180983809133 -0.06065847831839826 -0.05547474262179597 0.006698060985455412 0.08408635845561287 -0.070210168348103 -0.0732116297551814 -0.03143697356898941 -0.005753662006717191 0.0638492492617266 -0.027235516919580344 -0.035126400616334263 -0.1120622440045672 -0.008529440364181415 0.04813626410287561 0.06513980310348831 -0.05859570746481339 0.08233153264047255 0.06420806895033665 0.03348374576987058 -0.01511418140117103 0.033352880426735565 0.0677120795205043 0.16559488581197698 0.1265382664626472 0.05062543937225691 0.1524906155452912 0.003918871911794392 0.11143245253424762 0.07562327511630128 0.04858273336438711 0.027517108575908323 0.02618760995158121 0.03391775826052672 -0.0686842577897737 -0.025045339071371985 0.013181664361628992 -0.09282886020077492 0.06649996331627218 -0.0695269024991894 0.011773076209343059 -0.05231360845955237 0.11975940760815296 0.03530961320146518 0.046289284881258795 0.09200282156098064 0.03213131767387374 -0.06989436570233762 0.1423199688069406 -0.004295062682429466 -0.011399193245694947 0.1801401573436382 0.17629335212748953 0.0988758665313287 0.19676186658471162 -0.04352418282294806 0.06899401671064022 -0.07040893030952808 0.039614036978291925 -0.07921053226576048 -0.1120083789868158 0.034935880121856125 0.06375103921579688 -0.08885818661609639 0.04415052723672826 -0.05959124651615497 -0.0802706381977278 0.055278070597153325 0.009254963062947388 0.06802711877833821 0.08990344651370594 -0.12938980037153242 0.016508109348073063 -0.03382929486966512 0.19184421572917298 0.404250585946014 0.18340450002936565 0.056322868425850325 -0.13288221213451773 -0.008438797541459965 0.15390995864666865 0.024841003641537966 0.07125142625356685 -0.043332367322433174 0.059694460031279525 0.05633953696752175 -0.07889214266560639 -0.02699144634811411 -0.11337274324230238 -0.011293977590986994 0.08676086091736081 -0.06270371969692648 0.029223816960825107 0.11207199563304 0.18322027174637912 0.4368641280526911 0.2765199702397639 -0.07373471721768864 -0.018437842639196213 0.19773417475270708 0.30602319327919897 0.374692305105198 0.12306523222694409 0.25183823719206927 -0.1476658046425119 -0.07591214941219818 0.02518485815876962 0.09410443087011112 0.05371357694894727 0.07185472391756047 0.05129929694915776 0.07688695831667743 0.02304444137008506 0.044568629158951434 0.01585387822087755 -0.010076495765996892 -0.07478835432298614 -0.0219648063961445 0.04932548927070278 -0.27391839692348013 -0.07456001955052374 0.1442942524253266 -0.12931554624765565 -0.10005693535069657 0.24434724348073497 0.2607719396970201 0.07395217017631753 0.21754133041155452 0.02298540764262479 -0.2008785915837309 -0.08841431158980695 0.12868317855819675 0.1030078705858701 0.04872451802327657 0.06827506824358213 -0.044096345401354015 -0.015586779108238023 -0.06974823944080098 -0.1100213284139571 -0.06951990398803327 0.03870242828117492 0.008258116628034457 -0.01098538661245001 -0.17100985271016383 -0.14453518270428112 -0.2409423107558608 -0.27829183576044164 -0.052214366670245295 0.16692868276548026 0.3534766891635997 0.2896173133115285 0.1524265581534287 -0.048405769857144565 0.16422137375263673 -0.06170462767820336 -0.0053350839342586305 -0.08062017206859899 0.01359020661944301 -0.018127993927510917 0.06527302158750965 -0.06566784322837148 -0.09911910255696417 0.07169482635461412 -0.07642620374783969 -0.047319600494773406 -0.09438231480233313 0.010145506231431452 -0.0841021506549582 -0.08970857623301791 0.06425258073000069 -0.2639391304885434 -0.022171620726716405 -0.26715182673676174 -0.16694703518484927 0.08496389089916354 0.07795454858542915 0.1465392805625111 0.4814418544628559 0.2916174648028766 -0.062219548958980964 -0.07794208522611558 0.0893738861688911 0.04343850339506269 -0.06045263045630239 -0.095082301990271 0.030478119486016524 0.06745648497741831 0.05176714566101667 0.012911459256186452 0.07840201723187003 -0.06186331206982835 -0.09245442295534753 -0.014719860368085695 -0.0068496918148181676 0.09993004773101484 -0.012715595259704124 0.20479628397516006 -0.1904254134604029 -0.3537356527391701 0.09672153366588723 0.021677861708193625 0.13097691545100232 0.16350253388348032 0.1809738319351177 -0.027125436426570646 -8.951763501189526E-4 0.05558086681785129 0.01919549470109676 -0.10050981225160492 0.024416915139134986 -0.0960447990181557 -0.035462731970975506 -0.05220729871136347 -0.040461244807600896 0.02128267986718002 0.03252706952892169 0.00595613745405571 0.07409718861450025 0.09558691009357768 0.03226793067705697 0.010141434702792683 0.2134198565692534 -0.13911728313604135 -0.06859362714185883 -0.060866755759847097 0.14789847095480557 0.007881807439668414 -0.1431282419160086 0.07478673457753265 -0.19743521685125925 -0.013066589544742897 0.028595490202660123 0.05595767177088459 -0.0382630414451226 -0.11216118830376574 -0.08635963139838339 0.039257177574476804 0.06311016890843878 -0.0743692036073152 0.08017563325200251 -0.06460818984248663 -0.0288529100516278 -0.0866728612245053 0.07797005130940346 0.3263661029785815 0.17721172347764844 0.33655642116259704 0.09506726398579274 -0.18152277656644872 -0.11142439177998388 0.14209691428251797 0.05872247086394331 -0.02097811885576222 0.10834238814106169 -0.05741160828819856 0.12354845620153881 0.016817604740293344 -0.12956732710570648 0.0489036202202201 -0.04895070598628262 0.015370700526471054 0.07757159717255215 -0.09336711807086008 0.06024859311268161 -0.07890312960618397 0.04079116786532594 0.04429609217733468 0.031154857259916256 0.2805149314387391 0.2596727588894865 0.03154370639124498 0.04624212118405515 0.20723640267468865 0.16263007603504492 0.007286665971461499 0.04218158958039647 -0.31326062893370216 -0.09071391778423894 -0.32620873329343886 -0.03783997139319554 0.08303244499336483 -0.009010236793858642 0.002328651235760538 -0.017470404199492265 -0.06874870934400985 -0.09571933520232671 -0.026915276145467577 -0.01062519917058232 -0.025407959232942312 -0.07878807617484697 0.07717708517339052 0.021630257257924255 -0.09768459878851898 0.040135105557039766 -0.021495818321988346 0.05642409880201552 0.1832987323003009 0.07834034481687988 -0.04095609131423004 0.2757275600102774 -0.19159299951834866 -0.0692035232556707 0.16953595446444347 -0.2113050321893016 0.06994752012918265 -0.006938103088412155 -0.026469029093376357 0.008377684943405397 0.07955288980338233 -0.002685859411011883 -0.10095171718782443 0.0373108649082209 -0.11674447103514989 -0.06265911910672838 0.06793194201988308 -0.013965221041683807 -0.1029808679466107 0.06341443353915743 -0.04571381560845013 0.00635644889470979 0.13070332327047343 0.3197572817649904 -0.02255873330511144 -0.16325124118210782 -0.0012148123562285519 0.014181320519568847 -0.09490734996775542 -0.19568757178270804 0.059681368293724 0.14552236453994524 -0.07991107440351054 -0.07876287130298613 0.06756613401419513 -0.06119393767409172 7.275817308641382E-4 -0.09884565281809078 0.06688321156467465 0.04764921058355952 0.0343319765950716 -0.11590384651095377 0.0023246504690786337 -0.09150921293440133 0.00724767822980537 0.04334158851032664 0.09856589749560943 0.12265240761740108 0.400711765754599 0.05837585056248881 0.12203163246305929 -0.4232642118262065 -0.32317673518085493 0.10442830655546403 -0.1806433577072856 -0.042018215969234496 0.002899710397663459 0.021294615999330704 0.038889011787032905 0.08060999463238046 0.0681041274137515 -0.08546986138743697 -0.04065335916851963 -0.05899820358881401 0.07639943165171505 -0.0038957985055196502 0.008155546603974285 -0.018712311075155683 -0.005891772145742666 -0.060348097266011244 0.0781429782039835 0.19780454446141935 0.13308608585501852 0.215410358859698 0.013262644459037633 -0.06816020465766037 -0.006851688293902608 -0.08747715503888695 -0.08323801067347891 0.13969219592713045 0.06046728425264801 0.2159543334588935 0.03017550508381534 0.09035030115568218 -0.07987994199779172 0.07530590488632187 -0.028975066317530856 -0.08230885740386763 -0.08248600631136598 -0.01708823452963578 -0.0034943152416467534 0.07999308168634149 -0.02947446741474026 0.07811363552546648 0.06963702185392877 0.046976313901155545 0.14473759628367766 0.16505998610666217 0.0906335471015679 -0.011505115281004069 -0.215149902812634 -0.04470520319229324 -0.2127886577126357 -0.17262147847565473 0.00197907663925706 0.016769941251875354 0.14808105919973358 0.22784804625565597 0.1265350651892444 0.05303258980702693 -0.04068344939830777 -0.09592276196334477 -0.08037516599688928 0.01184197479686753 0.07266909415383806 -0.08625337685783226 -0.025796239068000805 -0.039586813804056584 -0.043068176535428826 0.08532890266632608 -0.08312664248492568 0.05232489373668914 -0.009034956672156954 0.033395778774712864 -0.2173264956516449 -0.05594114572427777 -0.3850209293996509 -0.24923912653294644 -0.02028204998401563 -0.0995839247371874 -0.039258698446718754 -0.11620588769771407 0.07981164428984866 0.1365331782612611 -0.009760194625752375 0.021889279306571287 -0.026818061115566352 0.023595550939536532 0.06196285732356485 -0.11684003455135324 -0.016620639370148547 -0.02626672288510898 -0.06892489563703776 -0.060764647108284234 -0.02232617411354932 -0.053300388471645116 -0.014706098205336719 0.016648601712683935 -0.015971616315449147 -0.11075625987169972 -0.15053903011048286 0.011987713342047413 0.030305487049534275 -0.07963937239786366 -0.12907973922895438 0.05262478654530521 0.013609014296695499 0.0027686689580952335 0.005947319822243497 0.004865502932262223 -0.07336962732703396 -0.06547813311599958 -0.0378446184187034 -0.009668456955470953 -0.08136614114304995 -0.02453051207975738 0.059781989318682366 -0.05088534708302396 -0.07090403691037016 -0.034504730969168604 -0.09713644713399362 -0.06787380105253892 0.03995492268335994 -0.1259056181154893 -0.056026854112058225 -0.07758486591071975 0.01753099433881298 -0.05344486814660682 -0.11446595938948223 0.028312125613458947 0.00891350374987542 0.0019206313133212588 0.012836887089539744 0.03776310452308827 0.07031129994848358 0.0328475821320683 -0.10731583656243128 -0.09572618459954586 -0.0048564941250076495 0.04245745251152641 -0.06816881012643496 -0.06825980703646524 0.030880526015074596 -0.048459268049277554 0.01608487639489143 0.030638578241528054 -0.04736088122141709 -0.02567132561523995 -0.037798350857051174 -0.05043852780119533 0.03799898791729808 0.0024478779192473633 -0.11893542961678101 0.01700019819200592 -0.10083709851547489 0.049206813970183796 0.038820777314529445 0.010132548761570192 0.039613519350640766 0.07745648459708089 -0.056993089961732996 0.016587053885597024 -0.1066704374015842 0.048238318440605 0.026666681191640368 -0.054755410260916 -0.05143054624205373 -0.05830977548818707 5.35023648588934E-4 0.034520933556261055 -0.041574197397196616 0.022189619553390084 -0.10331638396644834 -0.09479327333326608 -0.003200659424459097 -0.05353002749599843 0.036592897446340186 0.009824047740684816 0.031136403943321643 0.046455236966054386 0.022435901037736218 -0.05840840541215141 -0.04778080626574699 0.05781438903841925 -0.02757032020981493 -0.016526561241494424 0.026493455022640437 -0.08925391511630458 -5.696561473810385E-4 -0.08072193172936624 -0.06427727148907937 -0.030879555637753634 -0.015622796744308798 -0.06635683786604295 -0.018560827979101302 -0.06290159865337912 0.061997525722076126 0.03891723726279981 -0.09935042588524064 -0.0083499412576144 -0.041703152940628464 -0.01573963007121789 -0.03562164750683428 0.04482934612270304 0.09760807155043265 0.07599088282351484 0.06214678996148303 0.04149199013258698 0.08161502101682176 -0.08195551361701904 0.06313975181640215 0.0061085375085747455 0.08354309854410295 0.067559683180288 -0.011229094529606591 0.06659629946732208 -0.0022055648228865798 -0.04987326006362113 -0.011306419658037968 0.06074274088982096 -0.004233847514116819 0.05287040269996366 -0.05625031532258356 -0.0674493811896122 0.023160467626384275 -0.006580658134584069 -0.09295559810469979 -0.06615698040255448 -0.08508414937005544 -0.05105187844459013 -0.06172023303869802 0.060724251559045365 9.5868732160296E-4 -0.07813971942761817 -0.013324526466137866 -0.02499967750048475 -0.07070476370294208 0.01731395518484634 -0.06574944495811234 0.08742059814528359 -0.05746608105396519 -0.08732572790628017 -0.07606500206752638 -0.08738997550604115 0.009748406877666925 0.010109525802373216 0.06592558205476791 0.044819103368813985 0.037662171928941036 -0.019068946537486864 -0.059104507739254054 -0.05087336719914897 0.06345554255264378 -0.06609060766114484 1.1273628304704541E-4 0.014488041450871302 0.06606662538693579 0.06968228379138501 2.1756160879341977E-4 -0.026970073658016416 0.023677678363404543 0.0195027413048192 0.004354412927838943 0.05424930067064938 0.0921489836789879 -0.09104167237221487 0.03154933894026823 -0.08671626038407819 0.08248241101631802 -0.06407443865412495 -0.057330997209361405 0.04945920599199408 -0.023519920956861878 -0.09518836305042422 0.007221639010849372 -0.09274660477185452 0.018666485814396953 -0.06739128982040779 0.06395900967565363 -0.016886184975369936 0.07109804822374724 -0.01695850004152989 0.010398225330584277 0.04284155114285897 0.061655089090684866 0.07887525132554808 -0.06647195422880488 0.012254033854432122 -0.006829699314749431 -0.06994711072882247 0.08940788506405282 -0.059397177240094294 0.0479493175817949 0.0969979210311981 -0.013479823154897692 0.046585131537310705 0.014210653464090577 0.05233010360878498 -0.05093666540908645 -0.023812122198760017 -0.08326106124804175 -0.04575976552119011 0.04547720503714548 0.051814988388253574 -0.014322773677340712 0.013528826113388532 0.07961567301432837 -0.04875529058786375 -0.09388511183415135 -0.08606523577073584 0.08838636352456362 0.0426140405124917 -0.08760501049405169 0.09584589079578097 -0.06666163004175045 0.045122412408515784 0.09379058517530749 0.020163246541427624 0.01034034543684016 0.040862174112049295 -0.026838358051157758 0.009549524399945037 0.04884124514158856 -0.04726495232502516 0.011567403290015784 0.08868605454040444 0.06080129948811254 -0.0166973952627349 0.02907873336680234 0.015373686293236422 0.040358373316135246 -0.03569870086387766 -0.057824463835862365 0.09235650886013778 0.07887419328208921 0.03361375998660373 -0.048492031819205535 0.025385870892012947 0.03092470442026167 0.02632903583876412 -0.01575079055006289 0.07762921064754517 -0.013003362016361921 0.003843645618231177 0.021539377116652818 0.009813700040177913 0.07096049381137662 0.1797768252981394 0.1605694522456371 -0.046262405458308085 0.04584819102600323 -0.009666049386071305 -0.0513295919177666 0.018750178285749704 -0.045072128161358506 -0.037427829549416716 -0.05817627522128594 0.027249137204407876 0.10431820613670964 -0.06003791202408556 -0.027110838990976542 -0.051743545528346264 0.09447902221985165 0.0032039375293046964 0.0018994492223886718 -0.027242036384408072 -0.011735063882028744 0.0627183231918427 -0.06369097500037894 0.0848944068806264 0.06864719304036425 0.043817734876314095 0.18246687835502415 0.07896580721494191 0.029973559303999225 0.016602133951238707 0.003976329119908088 -0.034226250780842245 -0.13486449431788522 3.8053596156726775E-4 0.07994466647099205 0.04023876739320096 0.03277752919442282 -0.04063262109564535 -0.03465140496884283 0.0016625044730381022 -0.026970114872225462 -0.037271742389753025 -0.08121202724462005 -0.07972445217300474 0.017841252713751095 -0.009997060554430127 -0.0833065114647415 0.08832047244231692 0.06590026634055006 0.0687697180414608 0.04493837116660468 0.16985899849904665 -0.02311025103448519 -0.25431075556550636 -0.14762844562362237 -0.16385627477545758 -0.12012500825442413 -0.09375883693911777 -0.05435879070482973 -0.308010243310109 0.1362325551476904 0.036548826025106465 0.07510067850411337 0.012895656899940088 -0.0842010206604321 -0.08007608143639473 -0.09563731274223979 0.032550019836032375 0.01596808219313157 -0.010650366209576266 0.061326869570876255 0.03621543827541773 -0.0512974786253343 0.07642491612002306 0.10805793122160028 0.10462479181200512 0.0706468698658121 -0.13790134416923502 -0.2659247352689514 0.04141372539713191 -0.10020115642588974 0.05056667853546664 0.07506808538518879 0.07527674266064786 -0.07423660622404671 -0.16789680684960542 -0.04732430658354093 -0.055754211927228355 -0.08450160189066437 -0.02592346910083239 -0.04581117104314548 0.043378061366833344 0.00713862956816671 0.09163531976657364 -0.06071995142342964 -0.08507887540491844 0.0925719475595292 0.02724119303788054 -0.005648671332467886 0.08068140695598056 0.03858075848251641 -0.07057919855046199 -0.14449264645236562 -0.13831585581147368 -0.01727420853202238 -0.009167472206737255 0.10264167261344413 0.01874038870436641 0.014450607319614192 -0.15903130718822187 -0.06581208622459722 -0.032695147197912916 0.08749913404496144 -0.010512092650441453 0.06689789845042472 0.07152617981888555 -0.0707976316540168 -0.04905351926559532 0.08416701148533058 -0.09082759552426208 -0.03942913854856089 0.03909144706647936 0.027257578228442676 -0.051855110426783646 0.03580376575821077 -0.04944026281864154 -0.05650415624574018 0.04950302860571235 -0.06403467370552286 -0.009416146979248164 0.15197667323308622 0.1739981216496324 0.08198813969419767 0.12223988630705167 0.04725694968319151 -0.021688341793427806 0.002008320375946062 0.11019377053884515 0.041172150442487246 -0.058413170889280074 -0.09049762661074605 -0.05940588270463614 0.04023102525958392 0.07002271359695937 -0.07589209903922732 -0.046669703433679384 0.027908014475197876 0.02685854947957331 0.04961776196147788 0.12704227279254302 -0.11584090176776593 -0.05087325984170164 0.057522609362061904 0.11208528869167073 -0.07406072754125277 0.0789379428880724 7.537487707127389E-4 0.039404642561022794 -0.019131026968438596 0.0437118426075031 -0.07284739615374916 0.06702005484494823 0.04724571343530219 0.02206872350700849 -0.0553206162401035 -0.07891690379541115 -0.007925267780354484 0.025367648035347308 0.06364926466770877 -0.009342802956909186 -0.04723296499469113 0.007484839705463512 -0.09249084735809882 0.0644844970446509 0.07818057096358955 -0.0673228230695163 -0.0846923343318916 0.011514307749603417 -0.0020190157237269172 0.03160568494895644 -0.06861188300016041 -0.07411236356119223 -0.14134524980059318 -0.15954983765341174 -0.02011568806401882 0.05815390154219245 0.09916847150262224 0.053388543295318946 -0.004871992147282213 0.028642659062271487 0.08875593167966482 0.0947761010264324 -0.060218422784282154 0.05903016388175369 -0.06786730255039135 -0.006053624838247309 0.014673071211847221 0.0557604153026623 0.07809347304437869 -0.043941833755980195 -0.004596006229418118 -0.005516172365092706 -0.030299962569670408 -0.14219563327387622 -0.12397418868320619 -0.1361025911183005 0.006295712798651451 -0.05722428455990885 0.00528678023023066 0.06484088732132873 0.11096257221437458 -0.055244958350548413 -0.0035264195965425 0.08854862295665013 -0.0438797327532103 -0.05359081140110216 0.08008854578922885 0.03243376514090902 0.03968660309570885 2.699866012525048E-4 0.019147214583649416 -0.07538684928151719 0.04166235024312793 0.029723493637081214 0.06933207481019645 -0.07127369908676769 -0.08510676665174598 -0.09844863882261891 -0.1295991340453744 -0.0859957761997031 -0.17666212400006923 -0.036661113578588235 0.017301216351666236 -0.03143057364487903 0.05079665868649125 -0.021684620450443556 -0.01839297577468311 -0.0324035702898415 -0.051568221500729906 -0.008116821298569693 -0.020914041533249134 -0.022454012208038297 -0.054219676903960796 -0.015422192460087211 0.04159261502369047 -0.08348693253597848 -0.07750966287359272 0.006251523569983378 -0.03498430248971276 0.06098948449053163 0.08617899927259105 0.08177745669499506 0.017137353889305915 -0.057796598118755135 0.0872137714463047 0.005090570818398299 0.0049567374955230645 -0.1710869780225195 0.02120296737862354 0.05962401778063806 -0.02557772886781297 -0.12442194310456016 -0.027891693183771892 -0.03563276527591957 0.04908892806281644 -0.09477806374079932 0.021566522502579538 -0.04135478096494415 -0.04272917979825245 -0.09079955459304394 0.056819101153549594 0.028946969557852198 -0.05977520732116364 0.06719258101640112 -0.012850695661883545 0.09978512997318256 0.14143402907575492 0.010249143795413872 0.1397635494962438 0.0011895855171451814 0.061224669787246194 0.042585800100281575 -0.0997573208811875 -0.07371355566132527 0.10041903427938303 0.042406627233711976 -0.07400424689028344 -0.03164983333731877 0.011052263420561795 0.08042942943559815 0.007497740485263948 -0.06279129779037353 -0.09850122712036542 -0.054914355013258885 -0.0908437279076371 -0.03479099132745967 1.7495395318382995E-4 0.04120142256125666 0.023519017605996773 0.12417162723548661 0.034886904209342894 0.06464754844840946 -0.012781580687642473 0.1509589930265895 0.24225268991184776 0.22382147852783263 0.24079759760448388 0.18431277096933504 0.15711950310498973 0.14778505886719637 -0.06651331528751087 0.008706988431150852 0.07077203635808338 -0.027814812307482166 0.023577855190295004 -0.05177663553713326 0.0059668316341908445 -0.07951206633986825 0.0782504072676846 0.06063022554472946 -0.05629965846241355 0.030050103324527302 0.08920052594036958 0.0594330916034225 -0.030688447784472897 0.03554824123048065 -0.0403556970181104 0.02372938661050561 -0.07279589116933519 0.15420686864042576 0.14209728376059466 0.025242975745581566 0.06888426058971207 0.08077344473367806 -0.09306724851634822 -0.010345921695107922 0.013922521752014975 0.006959363626066036 -0.04496748105913959 -0.024794888521252716 0.03086978749639651 0.01476202566772549 -0.07893049754123725 0.034230945302648565 -0.06169431359987244 0.08109459802829334 -0.01681455367016432 0.0807895776381955 0.035742660782689895 0.09985206322959815 -0.03432120697723982 -0.1140166047798704 -0.12781076822141813 -0.06870655640996545 -0.037656374818903146 -0.08227779298958728 -0.05123614645663752 0.034765447002893024 -0.09462753149458507 -0.11321573762023916 -0.11785632706108133 -0.08842951893736746 0.02041946084936612 -0.04782283510014023 0.007735791527729489 -0.08036785507149592 -0.07190699972050164 0.031798093543062705 0.05315099055042239 -0.011990694257103867 0.008556979569805999 -0.053448087284748265 0.03044114807662817 -0.06206991999679015 0.05068055087324762 -0.07384087870795146 0.07296311097126536 -0.13705990438805096 -0.03197282274600332 -0.09646572177816852 0.040552941858260486 -0.0766436539245004 0.03358212401654393 -0.0822930720453782 6.57363446763319E-5 -0.05217698726052247 -0.06084422244310237 -0.005462999483526812 0.056807035427235385 -0.022672623489447485 0.05398711581362641 0.07560199070110242 -0.04566774660914779 0.0975145030798346 -0.08287068064371776 0.03106801266009733 0.06884700226206637 0.04534250686026004 -0.05205195776026258 -0.022050057805627625 0.06734663217360354 -0.10091235694723441 -0.047749020334967286 0.0077743040009013945 -0.0023405611505436393 -0.12286137007552402 -0.06603582778791549 -0.09762002756454626 0.010194805640841029 0.07582784882341974 0.06883954549425697 -0.003651909107479969 -4.0804090981978275E-4 -0.013887983752939684 0.05600719233342188 -0.09329659439901215 0.05327834568492474 -0.012837169345575472 0.09771979766279605 -0.058381230715959916 0.053322245002728925 0.0900858068346216 -0.09832836400788873 -0.100129776125973 -0.08284848671383381 0.07597817774809458 -0.09723198837676515 -0.07037081396487978 0.045438467852165355 0.03611351649003345 0.04141894333013616 -0.06846774047019129 -0.08709204720207132 0.012931638821318396 0.03907402002836292 -0.003378999554029953 0.015258276645655803 0.08180469437660233 -0.05752913077911597 -0.03405525479156465 0.048226474668544246 0.09751149400532282 -0.08492995172103933 -0.0578939135042486 0.013774773868131368 0.01860956110601504 -0.07378034967081125 0.05041133276454291 -0.07642970097385328 0.018402635131873707 -0.08308688889621664 -0.07907886724657955 -0.09862447386369054 0.0929587446273948 0.0055740546247618206 0.04257920530193835 -0.026337840153507458 -0.015357843749217864 -0.061877645838918374 -0.07326996258298597 0.08170657439490726 -0.046119965069202275 0.08364582111363798 -0.0902809443052587 0.048620063215059746 0.05239261234505619 0.03032235444903453 0.022901784670560144 -0.0075632584085549015 0.07909747347620111 0.047031624742494504 0.0644951724413122 -0.019491086944388697 -0.07566178366636916 -0.06665238530960207 0.010269068909403906 0.015109402156967877 -0.0269500790932925 -0.07162210435259862 0.04316287419873813 0.02249529568505182 -0.05985883551339784 0.08439549033820534 0.06270484745944224 -0.05802688248539492 -0.09402943899469794 -0.011380245151011922 -0.09216538073197339 -0.07650330185110657 0.052099481529534725 -0.0183810795443152 -0.06284174278847268 -0.05515779838173114 -0.029671705278085367 -0.023554764364168188 -0.03838410471005767 0.00837630964875162 -0.012692539664428251 -0.015289997555511678 -0.02804910201461429 0.0838785983916453 -0.07622744475426349 -0.08462390702874018 0.05825227949666134 -0.07342524894831429 0.09046004426852988 -0.07213417193203316 -0.020025095366747722 0.01848226519715848 -0.08798138980439947 -0.006847535470089247 0.012224839341405877 -0.04363407152630534 -0.034261595113167065 -0.055176225287113745 -0.03226999062966662 0.041045334939317224 0.023678698131775172 -0.013323393764160668 0.0737991486250403 0.010492324147443804 0.09478192698359797 -0.03577849655389341 0.06970483555093962 0.003101299037542221 0.07782019403368653 -0.09545305453141484 0.08230918175069013 -0.06228912967569758 0.056527889857231506 -0.01768711196633521 -0.06361632453693292 -0.04659956065253162 0.09503208854010844 -0.020786253487367845 -0.039042710122139494 -0.03521922973721757 0.024700045044987046 0.07007120414288709 0.06416001738019231 -0.04255718763941801 -0.04721899013099447 -0.009212429678081599 0.06641157972164466 -0.02657556261456806 0.06872739282488693 -0.07828929098234404 0.00543805209131816 0.017999973528051355 -0.024161946157940428 -0.04546814553273844 -0.04351813550417245 -0.043207168280344745 0.033874391991129904 0.001657995981754562 0.04720341967768779 0.0661567375880302 0.0625576613618771 0.05407079086801156 -0.010844475863246966 0.04996645262136412 0.026363799410143607 -0.0029957563704001433 -0.003655553871286979 0.04240419999519571 -0.002210207624368854 -0.04765619517594673 0.016274430895714523 -0.020976788237364458 -0.020726496497494695 -0.06753028425291813 -0.03999488880597531 -0.06268471000017373 0.05320665802487698 0.062337874044232494 0.08513426998615678 0.023204446872396506 0.02498846918173589 -0.04508829516248987 0.05925102239616584 -0.08866592697539982 0.02582525256471402 0.009628903270476358 -0.08871252455155805 0.034710364286304946 0.04998914796437781 0.044407175457603976 0.06432961126886083 0.06321009523816218 -0.08449307857994029 -0.031236545711557387 -0.06416900084024141 -0.08934392308246907 0.05775755869921259 -0.04105862972601393 -0.010194192626128223 0.06660898350329078 0.09221526805696864 0.005512048414085188 0.030460227029242448 -0.038280425121560116 0.015582271930623046 -0.03026636644500029 -0.06214550592177331 -0.05556943471349299 0.05381355110014363 0.00702529505337024 -0.036429765026086594 0.07201282069685577 -0.08895639979849562 -0.005768337145755226 -0.0720091041534142 -0.09963424402037172 -0.07481704664927338 0.031924118558827264 -0.009314329596708665 -0.005292757718087571 -0.006039806961942909 -0.016194495304586318 -0.09847974979563723 -0.022776505388615115 0.09944282794191636 -0.037644694312269716 -0.017499501998104974 -0.022055108420905967 0.029578316570125163 0.07317248266308093 -0.06101205458119437 -0.038441115497479555 0.07205432265800998 -0.00995636752545101 -0.04619114767588098 -0.034433548827611335 0.03878505974277996 0.04858432751542752 -0.021088613843429124 0.004133943522130923 -0.03141152277639701 -0.08162816396416779 -0.09339175357849411 0.06718744170977517 0.051126703859444955 -0.058192202438666185 -0.023925105175134312 0.0757420355620449 -0.08305981584226806 -0.0874803501129716 -0.04934358074995613 0.04215377813729651 0.046413540625630134 0.00692996504050683 0.08766877227389266 0.027927374475955002 0.06476917207468702 -0.020306812339085004 -0.08523698703702157 -0.008092018575659707 -0.08930766181933225 -0.012980505998021766 -0.07444605671315477 0.07813078385881189 0.09294927834664121 -0.08852409278181342 -0.08790259394986451 -0.0947026706340539 0.08236776561849202 0.027675083929523198 -0.03706675055957216 -0.011207019766447585 -0.07419269438960961 0.07033239384627374 -0.0272061497841226 -0.048644936099986616 0.01425395611334579 0.04449243590177482 0.033710795390638704 0.05994661517473826 -0.011067352923036108 0.05229624073054226 -0.09286471386947902 0.06408607412579656 0.027337538522965443 0.0014808544408229374 -0.08717951283728814 -0.09517165457370769 0.015338985557213025 -0.09212674801709995 0.012596969556061904 0.013788200773766995 -0.01796671370731133 0.007460846307421207 0.0158051074051955 0.02804216803302534 0.05075928543480804 0.053191218099754495 0.08803124572813134 0.009440395048714106 0.042713765687101335 -0.012526082686558221 -0.09407292040189236 0.07580528507279188 -0.04114468455547496 0.053427571090734066 0.06827467353048691 -0.0733109212381593 0.06129410088022855 -0.0637641565269175 -0.05290775021612992 0.07780772159792251 -0.02287698463543042 -0.08945395154928788 0.04245874644688086 -0.09403613136173239 -0.04434682018364211 0.010664601172189064 0.09086790486618557 0.05021698074428174 -0.07572512853487189 -0.06262625674799634 0.0693055206050836 -0.0847460434185936 -0.09132744304670062 -0.03148567940595204 0.03587626514847703 -0.020641050814214995 -0.09011937276706079 -0.04995027235619851 0.0526892970601259 -0.07792363608508864 0.0636742561007641 -0.08985361699398042 0.04784472529134981 0.05560634136307277 0.04704750464488866 -0.03912351750554049 -0.009254267293468704 -0.030832631165749677 0.04203875777787219 -0.06953098428544605 -0.02140590820849171 0.07700590311475586 -0.0810787330192314 0.0036054411630948857 -0.03819049538514035 0.09842831167756025 0.05878442645653656 -0.061923409770421795 0.07224604198775639 -0.007824371132740746 -2.106911209821538E-4 -0.026812145195857062 0.06046187387012733 -0.08234295702484327 0.06188958313857873 -0.05138014623384044 -0.0030689219715129556 0.00200326516574241 0.0815670524715188 0.012022220136111053 -0.053030638375723776 0.05459628296235608 -0.028861466232380464 0.009438384561051866 -0.009721794723361349 0.08967731744922056 0.00644890235649434 0.02472956797524875 -0.0766052402393809 -0.007169903579781575 -0.05772724554674751 -0.037513482476692686 0.05696765478012322 0.0985818403029457 0.05650498311128324 -0.0465121718665938 0.09966178872021322 0.03405979176200605 0.032228509735872046 -0.09741604529936126 0.006627755604066393 -0.07241377041871214 0.0010049463767078104 0.0959564900046441 0.06285461147704463 -0.018709550279919246 0.09124215106326444 0.0380223294324559 -0.029642635430285155 0.06326130110452338 0.052250063764232385 -0.0021770780386373145 -0.08696657170487532 -0.012540655642564458 -0.04239566554557026 -0.08944100321420999 0.08415502327134489 -0.08144711822664841 0.030694882186813377 -0.09799857863698246 -0.02115250612528488 0.06403751987311265 0.08084440601185972 -0.018170721088104885 0.0775360696119767 0.09744417545280532 0.09013968021638122 -0.013483550804727337 -0.023773321297228783 -0.005864242386503141 -0.0508737595486608 0.043208406627300966 -0.044380984709740015 -0.044861872020740434 0.0037749528950226374 0.07310112263277474 0.023432968368883575 0.04464616248606587 -0.05336329170519425 -0.04384558285045453 0.012962417969450968 0.07329109685557186 0.061859245559190784 -0.06145769221530948 -0.024247002670165968 -0.07804929995486609 -0.0832518641285096 0.08006326568263863 0.06743346866376376 -0.08017099024507653 0.08181147022669585 0.010803584101634775 -0.006886987625837573 0.06572782254908735 -0.04326412732188785 -0.005332596668095421 0.05238959310847355 0.012877301007117106 0.08149908620056423 0.08195722451768675 -0.09610258259584399 0.025388516748764384 0.01983232875323393 -0.025990961189880535 -0.044545746623616746 -0.04166411381617701 0.016503303771493644 -0.08004343437586517 -0.021747816972050818 -0.08632700633713537 -0.04960132440729337 -0.08098062633250572 -0.05783171424006468 -0.019369632901019035 0.032142571973586 -0.08872007166007466 -0.025845624602842038 -0.018060731836578817 0.027995461502599683 -0.09426496106176696 -0.04720206415039494 0.01617079737630793 -0.06896434022318643 -0.08352263646232581 -0.030470961391095425 0.011674891840588938 -0.05386657716660368 -0.04381700239575821 -0.08941908360295517 0.08904919941000225 0.006985494813352755 -0.029348472368518563 -0.056305286580137094 0.06676305567734325 0.0014857047389488232 0.08896513927860253 -0.07030833769533906 -0.06149291014509515 0.04596508541251815 -0.08909617599539166 -0.07858120768149038 0.0010343811376386791 -0.08065723454660878 -0.04342615209933527 -0.03879288123909528 -0.08229570165047612 -0.055013281646362544 0.0627771882989468 -0.05713599884620788 -0.03436443893567398 -0.008908787997824533 0.0264697524540915 -0.03464576164692386 0.03332028147388619 0.049635723838929 -0.03227335400624008 -0.02729275240046662 0.010746164520028662 0.049497783225900094 -0.08704703316831315 -0.05167952599691046 0.045519227076435576 -0.03894995371067729 -0.0163509871549566 -0.08828794040244047 -0.07382514511587233 0.057579807009251555 -0.08314098455270394 0.051908504652760507 -0.002189826676317369 0.013126833489131351 0.040502877043799096 -0.0759640580242786 -0.08463379430104584 -0.0631567075405692 0.08011071346570303 -0.06568352690651705 -0.003666620507702348 0.07073737357959636 0.08305019939189942 -0.05644624035514581 -0.052650530623417006 -0.08933004736605316 -0.08784273171372664 -0.06967507928720856 -0.09189576008742312 -0.05026846270708112 -0.017249283452565572 0.07247858136909172 0.0811604251447974 0.08863443330109141 -0.004668160141170413 -0.0708282433327938 0.09774595275099898 0.009513056416916174 -0.04915956255538026 0.035561052280443456 -0.09273231034417483 0.06753292561380217 -0.07384122568655767 -0.04160356715718914 -0.027757781350474714 -0.0810331668651829 -0.06537449116275923 -0.0968513021603872 -0.09946539081416471 -0.025095518606403466 0.09964185130063627 -0.08806539600156818 -0.04675879673889738 0.04651955907627253 -0.07097743129264214 -0.053613717451739 -0.07075189358201726 0.030826261059348603 0.09356467160684398 -0.0892554318674928 -0.05355798663295255 -0.024885129983466522 -0.01462295024723774 -0.06216143199983348 0.014745614148035463 -0.04623607588088723 0.05983457163520545 0.03424663384817936 0.027594945947744753 0.09288432847091677 -0.05040953026147859 0.06081669341426427 0.0861714465536294 -0.013741522803613626 -0.02009881613403304 0.010856791714085864 -0.08535322073614993 0.06029542882907371 0.0115881008906457 0.04068937869575101 -0.07510621045998211 -0.03376921496133288 0.0912809956139051 -0.09410418893659134 0.04556228336304105 0.004557930687226097 -0.001841782460127936 -0.03853973593467535 -0.05688639731116803 -0.08031500161506455 0.042219092252255536 0.09515511687691475 -0.0686466870531774 -0.057930286467231466 -0.008805842268595737 0.08089262951611081 0.09119665157562137 -0.09940781390369502 -0.018480632814884948 0.062400647168701945 -0.09615338916139936 -0.02031655199141058 -0.096629514074544 0.007462705320332691 0.03825995255188 0.05373535837124582 0.04057443987209239 0.009095942702371435 0.02772167455671473 0.09557533502603752 0.09328447611315974 0.05242283621678695 0.02054383236604798 -0.07370281217886705 -0.08537347902619104 -0.08537428435005988 -0.0036501395727551733 -0.04950289784435762 -0.04790580795812585 0.020255783516871337 0.0021009189918650695 -0.09602834751957193 -0.09970949682507176 -0.06469882564681192 0.08096604048737979 0.030192587540669835 0.04368436450294391 -0.049198606512443815 0.04233324368682556 0.09738084643248576 -0.0036295234798205123 0.0804283403689422 0.05270399108451046 0.06976012907482662 0.03039140347070529 -0.023663156766644364 0.014908766178761385 0.05457822831889189 -0.07499900102588118 -0.04627943209723482 0.04702683289218379 -0.03925804353113858 0.06631868395103055 -0.09310820772652931 0.07258851641434833 -0.0745804629779511 -0.019855731113970765 -0.0016633983496688043 -0.009916273419945096 -0.008278054491592399 -0.009726522399124499 0.0070796108030247995 -0.09750433672255393 -0.04641736266166616 0.060474552422443956 -0.0661746690031067 0.056524085744444647 -0.07678713492741121 -0.09964335337461896 0.07772600240375105 0.0663576873197898 0.02201753834258939 0.09368103202020492 -0.0767414427773856 0.07830056647093611 0.04761449260701084 -0.057763523515658256 0.005576217525026017 -0.029747006756082356 0.02760783385022969 -0.09077960236989818 0.05883298679846288 0.07399206980364362 0.03502370328868698 -0.006862180951111491 -0.005637849831364991 0.05839312278957512 -0.08917516699030639 0.06655035127435191 0.004222715266380989 -0.08182197903706401 0.015677913046867803 -0.026422191998742697 -0.05948948441172 0.07547190227336406 0.016155611060018588 -0.0041246399009889495 0.08196346694249129 0.02039515413566706 -1.869373662902324E-4 -0.031120576083264503 0.0667734327296535 0.0921127048043868 -0.09091378896663514 0.05843583887538947 -0.05585022701933798 -0.0667919020278665 -0.015806154530282474 -0.009029423171875755 -0.02446096092858601 0.03642156445288733 0.023897766555179376 -0.018151499841203893 0.013202916994972641 0.0574013787398866 -0.044761267772350455 0.07164129285715298 -0.05575526204432382 -0.06468129991466842 -0.02280198883862796 -0.013329578191323504 -0.05986796736461712 0.07296550799883952 0.016667797382550954 -0.0035630605468852682 -0.09667897056729777 0.08732642308052169 1.1623486697447404E-4 -0.06163520788508928 -0.054283491340268594 -0.057444976413437335 -0.027074380949512068 0.09168984484602744 0.04041825498821891 0.09181567519679318 0.04541390752735805 -0.03782935768348804 0.01336184001804629 0.03742086019644261 0.09630719922914538 0.0738671941004948 -0.028655850936429812 0.056389228919412684 -0.07756101646711266 -0.044945480693118586 -0.10094301636524627 -0.06750506825140021 0.08770948720626218 0.052407830077996806 -0.09986515783928299 -0.013925915840231517 0.09484643372262419 -0.08908332196794605 0.0058557582551608586 -0.10070041354240927 0.08026624909401153 0.016555646479433174 0.030016974484935233 -0.002669247610261895 0.015342677812277241 0.014559461754746376 0.00963996407279745 -0.03531043802218631 -0.013352594881881029 -0.0117792181383438 -0.06145785151642007 0.05141067975958724 -0.07676475055592655 -0.08855084753375542 -0.025554496977416845 0.05495767019572177 -0.05919574196091973 0.07289994645636436 0.08017501196920332 -0.04840692062584735 0.08056881213462447 0.01030252678935695 -0.054367254392896 -0.005164420926285133 0.0349417030418529 0.09068700872867991 0.029616213596519062 -0.0011676070168087512 0.07262891932330895 -0.07447061077632292 0.059182361065973854 -0.019079202564851322 0.0024987724359024134 -0.08059475944101022 -0.07508180997529777 -0.043485049100739956 0.05721063649799002 0.046687452971016716 0.06867603387184507 0.012339335686115761 -0.03883989229584432 -0.0548662720019651 0.07052386827679526 -0.007029045009037381 0.04209318919565383 0.04149510671252321 -0.05848568673221678 -0.09894428285407932 0.06981728556622584 -0.04053040897707551 0.053819246833391995 -0.04521543793172482 0.04963546622365478 -0.0906715306135909 -0.05203181738892973 -0.08271205017838411 -0.014584037447818221 -0.020094073735417807 -0.16298810272629705 -0.1063385775881279 -0.06590403503589695 0.024423841486382117 0.006875758115105817 0.13894520952845674 0.005153935479653132 0.07283731007837661 -0.0036824735417444457 -3.8327745793698386E-4 -0.13756428705651863 0.038054246634138506 -0.02776956829423565 -0.012436240275583755 -0.08922380647893209 0.07453230890501894 0.01521502010555429 -0.04137890458468245 0.09214495177801404 -0.08728354004219954 0.024444668282971614 0.03963596067067618 -0.06680578160382718 -0.09082830183559268 -0.024971261465444136 0.04900048340472901 -0.049857541979133495 0.1951038212352983 -0.010074674061310036 -0.014563213347237626 0.08282935967928252 0.07675047016005235 0.1947721234108582 -0.06522978670287241 0.0590467140896009 -0.04576615378882235 0.13286832349277655 -0.015446294858922373 -0.09788767472314254 -0.017477161669555246 -0.018763330414024407 -0.02418279905735616 -0.013008999945019386 -0.04792064198340469 0.009735830585796829 0.03344303871663884 -0.021042196413584277 -0.09208172911864798 -0.1227512329334442 0.054031223396994885 -0.05883785455738889 -0.06227666190042833 0.008702443670472636 0.14327286291837577 0.15314645978442204 0.1899989587761073 -0.0038735370574490987 0.18858072761485714 0.25000832815934637 -0.05395499554905085 0.06835846417245273 0.07598368967578438 0.04960349802831494 -0.0072890287045038055 0.09160237826759036 -0.09207984693047709 -0.06908745405063837 -0.0897758997803719 0.05551962250173506 0.0676790792616768 0.016540673847314884 -0.0743650701214481 -0.01845323894890625 -0.13161080074446999 -0.08762342895682611 -0.08573458503986746 0.10607526928377398 0.12040392899273164 0.158692321967027 -0.004356919706840332 0.17846258565353496 0.17058140498068897 0.2169391197961761 0.1517790371289992 0.23057626981884363 0.28286370082467766 0.1021182007800766 -0.01136486230291455 0.039480389524000785 -0.06305387835249164 -0.09888455686276613 0.0701971873720676 -0.029332695173368485 0.07810176215229708 -0.035604080220915144 -0.09871809063502515 -0.0738932852411642 -0.1057011588866633 -0.12606932568608817 -7.665652100147466E-4 -0.17070960758743528 -0.014642581380766208 0.19992592261026895 0.17734012216238065 -0.022474573031066945 0.06140190299421479 0.018955497757282332 0.16717530226547678 0.04000893313737359 -0.08263047043713032 0.12899377199664114 0.0047932185186996 0.027551047588710666 0.08009347716625902 0.015133599160293422 -0.12194654522782446 -0.012261230013790168 -0.10058422453694962 -0.06673609011195805 0.009195786430109498 0.0010406804347010564 0.04357124873427007 -0.07045997302977114 -0.09277214505874311 0.09593142762551361 -0.10628817578700982 -0.05157897130886296 0.061288710769114595 0.006611101960183115 -0.005404925900290692 0.044555250340285256 0.15366480327912138 0.178345242847315 0.15578686364225477 -0.03801749444224181 -0.10342935326818355 0.015003717756303448 -0.21551952724632037 -0.019390172059826252 -0.044395149758076374 0.07975131833998207 -0.09372167851865804 -0.07390042796963153 0.032174718794769325 -0.03630004972554375 0.023578766468237478 -0.008789175606588574 -0.06574899880445345 -0.08590085175743435 -0.03924053090086037 -0.0325094137924747 -0.11085957609937865 -0.0021417201884030273 -0.06986526115931557 -0.010298452414055689 -0.020371695878346568 -0.11770512793433305 -0.0573839974803154 0.05633761245122288 -0.0816856829635395 -0.14854060562236318 0.013008656196087823 0.07837130964635919 0.09645925675025081 -0.051517242335942265 0.039441379528186424 -0.04061355119840701 0.07551853283646989 0.037439491341385106 0.07271433616506978 0.04519829128821082 -0.028730336824651072 0.017778952627277918 -1.476426094315672E-4 -0.07204037199775859 -0.0944180520684179 1.0023847798370687E-5 -0.0047120829350220435 -0.2014508128036186 0.08655687367612874 -0.06657278707720898 -0.015493162424874014 -0.11730706468391586 -0.14279706533568712 -0.2905896413678314 -0.25094851592171835 -0.08589654674812859 -0.17360083383225394 -0.024775426499298602 0.0052254733586191305 0.07142506506996414 -0.0779917622794119 -0.04829783852563045 -0.09680974067138953 0.0251047398099246 -0.05517178373832281 -0.05294817273758161 -0.08676140419263825 -0.04273210011504304 0.0763687346747687 -0.1578964091232985 0.013821602265093347 0.0439459753228217 -0.18904614161983532 -0.23306599953283824 -0.028697455300524796 0.0640904975096986 0.037536269311186435 -0.021472199191014733 0.03667729396440021 -0.04102662219174894 0.04809203353482136 -0.08861333451120655 0.026862074541609965 0.0302599983978016 0.035539197270630596 -0.04107700493374955 -0.029922315920171007 0.09640769704738505 0.0071182225564235 0.07215867475502977 0.041815392332887696 0.006211619342478629 -0.028209030015144444 0.041920266278085344 -0.14777717736667473 -0.08050347657440599 -0.0943001459529786 -0.192284779742305 -0.24848375876106926 -0.18596314182842852 0.07346466124015602 0.15185592347521115 0.15013200217785244 0.16862961444541597 0.04395134102083606 0.06573852497586831 -0.16758953248716324 -0.005620096033232027 -0.08413484372115879 -0.06270585486831273 0.0743909666221994 0.08200395527330703 -0.010851287624835459 0.04085118337471841 0.027373714718026507 0.03599792957305448 0.096820708299099 -0.07665559060330034 0.032239412121569486 0.003633525145840939 -0.044070162146920215 0.04822022082582585 -0.2562321142252666 -0.17508384187909984 -0.022177363189078036 0.2115928330417218 0.22444223016085504 0.13802712596888914 0.07886681302639947 0.14004332191155003 0.023981264943764843 -0.06359349344749814 0.05011379324634986 -0.023076288954032805 0.055077989882217765 -0.06343069437694296 -0.018333504497642976 -0.07918342792586333 -0.012289819319421802 -0.008654395353660829 0.0010556533137095043 0.09252340164279926 0.04695953422500085 -0.06295537924555679 -0.09581488115558916 0.02786456752567301 -0.03082140388629694 -0.04346906565960494 -0.11541958041017633 0.08556138599855355 0.14843062742835894 0.4170095906296934 0.18218536016986708 0.030352382147599843 0.032466503469888136 0.20532679218271369 -0.12014022356248019 0.14722235575623077 -0.004897210544521526 0.004843678348411906 -0.01467999808515964 0.0863145312596047 0.024988251782583362 0.09814003335794005 -0.07904880912638798 0.026812929127891183 0.08609367250400449 0.002978952280871606 0.002152923498544072 -0.1145857257203624 -0.012137770562908434 0.010484451368310152 -0.16746521214336924 -0.0633672819714467 0.09782277627776795 0.056375010221101904 0.10417975728315251 -0.06258020270009922 0.029812625410460564 -0.16330415449413982 -0.004501700210267722 -0.04189368498534676 0.1060192988269638 0.06101512523089675 -0.08445062757227477 -0.02954865811844109 0.03629942015307461 -0.01578563679257937 -0.02273356156756961 0.056066772004612075 -0.029196322682432906 0.05881358240477999 -0.06932718363099304 0.022346270031284202 -0.014540240265886472 0.01530955803394286 -0.002520494040061892 0.023515440309359942 0.16440442420179463 0.05509875874222876 0.021010915809041186 0.0951241978463464 0.18770341857565034 -0.1376829130531708 0.02786056988809438 0.17837863427379663 0.16866790722246466 0.08313343715198644 -0.09687387737709965 0.050012291100558895 0.012224878437597349 -0.05380420572112424 0.0956241835059895 -0.09820183030224353 -0.06170879528941603 0.03625870003096429 -0.06540726637138711 0.009918139761921779 -0.0377073346060854 -0.05289235449401104 -0.09777777989130651 -0.14878808649730216 -0.05129471947775912 -0.0726369077243215 -0.040936577105896196 0.0022362023742608385 -0.16774135344404328 0.01837378675407255 -0.11430695830106012 0.1473128262509428 0.1440029201741278 0.10320098639245609 0.14385660226218644 -0.08586037468409614 0.034068746061255914 0.09624684090559635 0.07206164946063581 -0.04121835465802191 0.04713111061926942 0.046850629141946015 0.055099851111494555 -0.0011943948947430948 -0.08485546718893698 -0.017719824616655007 -0.0027162119145599964 -0.10110779706498245 -0.07238649721055433 -0.11785408915618295 -0.2066723136807318 -0.02838801710643698 0.022394212916649413 -0.10864220395017 0.09785918225215218 0.14344458005419414 0.04504592268352216 0.13689074680283456 -0.0710653051424544 -0.005060129776660877 0.07070379670469552 -0.006877244815712063 0.061152110198198745 -0.06086988221912337 0.03147917203806204 -0.04586553529731585 0.009592801927823615 0.06235389323080241 0.05243875264327266 -0.08770847845480328 -0.047077896730388744 -0.15122771847340183 0.039246623290317466 -0.1396106983002795 -0.07484917606610955 -0.02106984649423758 0.009448209926507778 0.029987414471757262 0.015021763374551541 0.052236579450931665 -0.02043129250872804 0.1378587524078366 -0.07006281031052132 0.052663118325759574 -0.005700414540661141 0.06512450425770908 0.03486839385538687 0.06364984518058009 0.061993401912256905 0.018824872125011903 0.051192476469734224 -0.09617295574739193 0.017144287913053675 0.09744837491848884 0.011614495174679093 -0.030419863197829515 0.006522388318840628 -0.12488314568371697 0.023516536475447217 -0.15621863005184192 -0.15179157999973328 0.028866485629775486 0.021930138018874647 0.12410894316288842 0.0667528445797268 0.0813312185442655 0.11567331967633883 0.033736666420723815 0.058592782669352056 -0.06812844413928923 0.03863189686038605 0.04656695657921503 0.04202142087754068 0.03822926814494243 -0.07855480309938961 -0.09087005219720615 0.006822412584566489 0.02034798223246677 -0.09659969769259491 0.08272860614019908 0.02106352551607933 0.002687462708723717 0.014158389853883662 -0.0708159969114334 -0.023701957756503706 0.08563962535072472 -0.09530666445525901 -0.05666215701444957 0.07490399517110301 -0.0069550716548797235 0.09528803523629781 0.028531983421386926 0.06472059384983761 0.022554112703689927 0.05652698259713175 -0.03028070434387841 -0.07110225398969122 0.0034566411258829133 -0.08816087810057546 0.07789136682518238 -0.03027075121054456 0.08127583926966292 0.0023063901353083155 0.02438809038648042 -0.06814775025852915 -0.09032205452690098 -0.024281848590704404 0.008357827060547461 -0.03988422163282024 -0.07351121992816612 0.07485908084650955 -0.07547030707218638 -0.023589464586766994 0.08678273452578542 0.03297493212822575 -0.033687077350608566 -0.02305768933497191 0.03400283976706939 -0.0537212903332642 -0.007692626724758999 0.0201946578219806 -0.04199422860684525 0.0014070393697560245 -0.0650578195579112 0.08649515923289308 0.07665899942757959 -0.030692663320827075 -0.05265752536857719 -0.08470510483347837 -0.07687492901263154 0.055356889254932706 -0.09184320614661115 0.007716050418227004 0.07272586754931365 0.030085137669111806 -0.06603932921267175 0.01961788878336051 0.001287428762883232 -0.04430915019570432 0.0849846899535002 -0.03562331627182008 0.031123879939039603 0.07061610223984896 0.09229812477440325 -0.005229564374206321 -0.008673410891491849 0.09775936238749944 0.0832120634878685 0.03980458849794585 0.09578278509823468 0.006727432591379067 -0.058204129637739556 0.040257328914811506 0.03060248765626509 0.039616326838789594 0.06580380259031259 -0.0910614092904571 0.09516082142828437 -0.007928798335896135 0.0588809558256956 0.027041666524399398 0.046660034846503516 0.08604639126941095 0.08690126402942806 0.03576244847681264 0.0162240465183882 -0.061093749693424355 0.09082239082796568 -0.04629415388979303 -0.04380442657535339 0.06413814598003169 -0.07561448777651215 -0.015645263002516716 0.08237397689602242 0.07274927316522818 0.014100788096847248 0.014801932370141366 -0.06783022716271754 0.09249203296284154 -0.06765514106147151 -0.04185621056733992 -0.01883769394945639 -0.06836697323847181 -0.020720320354267907 0.004629563291807638 0.0935550648907844 -0.02019887612156608 0.08043468528452748 -0.08439428061975328 0.021280744370948006 -0.03947971001565872 0.024177106568101563 -0.08051014928785673 -0.08798387324510691 0.028353181040809097 0.08692820948558617 -0.04954584501628103 -0.06187541568979557 -0.06184811046224399 0.02386580546970847 -0.09180630703100139 -0.0834481946577207 -0.09526754709578548 0.03898642700336382 -0.08890003873246115 -0.04604171763821873 -0.08163992774616043 0.0907832452287917 -0.034644265198265765 -0.07812030552757603 0.08475241629830267 -0.061571423085555424 0.07891222348163886 -0.05653562755281411 0.017878438379467038 0.08823282514416882 0.012005198481988468 0.056344657439458413 0.02965075290898353 0.06128431931411993 -0.025188246938349805 0.005456894928252809 0.03267971327635865 -0.029442611676193636 0.0580449003078125 -0.08486747125596218 0.10057772605788719 0.06940894039436273 0.013728402398348445 -0.008459333726175005 -0.08512737322229501 -0.08673362819550191 0.0463973873579187 0.06639424631972483 0.11031294459984879 -0.007188369119072661 -0.08429599540898834 -0.06825178243040704 -0.06886775057637577 -0.01465904089074931 -0.07001186199444204 -0.08293348400897202 -0.07829317956087913 0.004912268597301247 -0.05038247244781917 0.06786474949684317 0.09677659102026519 0.05439640158051184 -0.01885091058488121 0.09606372850066834 -0.040679430594446765 0.04114055489671555 -0.015071722139665455 0.07353944574788569 -0.06061957853504139 -0.2220141456373235 -0.1585401404618341 0.016565802407212844 0.0364850345327782 -0.12199046008334914 0.021955895366704625 0.024736746513177022 -0.13219199203726475 -0.016823675280123983 -0.027134946234607802 0.023604344514721643 -0.21063042253262781 -0.17545385050476614 -0.10567378178047147 -0.06274653351712635 -0.05044929082794522 0.10957600607136299 0.04509728547149341 0.100599829748636 0.04755019221756498 0.03560229842416467 -0.013157595723894248 -0.044694488986492 0.08268087359593862 -0.0414475542908393 -0.13065281239078178 0.04940335981272058 -0.1386779889794445 -0.10288217301038428 -0.3546975228636766 -0.10762785931583384 0.13020922053238185 0.08657260186645914 0.0184155032170407 -0.17807781078386126 -0.3711990250958668 -0.3526372323059507 -0.41089421237194607 -0.1983043207440584 0.009520136028261156 0.05184243379181168 -0.009670123802422728 -0.08658639946802955 0.04467012812601403 0.0031654085583098 0.10265476475939049 0.06665833661964006 -0.0812389279284677 0.06221533531008591 0.027544491118556343 0.04707586750448616 -0.48681246400545075 0.04115354640632641 -0.03971645013227409 -0.14832808183967064 0.009414486108572599 0.2830999600261583 -0.13735894948791919 -0.0024763120173839476 -0.08760860717625477 -0.3568024580139554 -0.20131895118606818 -0.14356148060123763 -0.17219083289590043 -0.047272921732361195 0.013083662910770129 0.03181760092119031 0.08903377451107693 0.014314617348485242 0.08676348464729074 -0.045466521274582374 0.07811439043663075 -0.06263109426718722 -0.08803897840250072 0.057361484886291975 -0.07346456896434098 -0.2631731551635317 0.02588673311312445 -0.11920067880598996 -0.038232066735900405 0.07851465764509467 0.3163011679647611 0.12382619398566884 -0.13141845074839997 -0.02809157165552242 0.06259134811703088 -0.148354770715518 -0.25425255545935 -0.2797401737493767 -0.10930605351759694 0.025583667737148628 0.07377042535702906 -0.021988865149347836 0.0021730898544015395 -0.08251755605616794 -0.034735517483170435 -0.01956144276440884 0.07586782083253228 0.023964007433516395 -0.05904365493307748 0.061645882169799486 -0.3703944632698438 -0.15981528129373124 0.11980273194351834 -0.19986886842147733 0.0965789736049063 -0.16814765308509783 -0.21602351798250305 -0.18395916163962453 0.014837060453510534 -0.27610378953225384 -0.13416854733323488 -0.10100007411673435 -0.18089933489475557 -0.12021827697269317 0.013145226774668995 0.13403605196579194 0.009949712434840722 -0.0929966161382124 -0.05056511022012073 0.029911052754563544 0.03527694853612876 0.05206646235228964 0.01578966875546647 9.081252773615156E-6 -0.03917505350812235 -0.0702642010398368 -0.2007999107862401 -0.0070708332717996205 0.21551606741395316 0.26927542465750526 0.13390191390192174 -0.28109494764784976 0.1782907882312394 0.3180581649528233 0.22639742276833222 -0.2071615227618039 -0.18360448555797315 -0.03462530029284978 0.033006334279000855 -0.03206784670752566 0.06318071219495072 -0.06783188587804852 0.10245393290847403 -0.023682301072699884 0.06372878143277026 -0.08058513269144942 0.03387415194735278 0.09629349384851059 0.10827852655026486 -0.06553845118395431 -0.010726916961021855 -0.024458301336277556 -0.2514497871090805 0.30977139904030193 0.40719929090854634 -0.13679569500295327 -0.44761711466080073 0.16512783329454708 0.10544479957467826 0.09775633090551536 0.0885606316796582 9.105552495490717E-4 0.08813971142328682 0.04294161277658943 -0.04261496946612733 0.1168981150444605 0.04144173322687885 -0.06839121860398838 0.07446675814599336 0.08018692674299875 -0.024033318376410748 0.07068782940444222 -0.057182266680252954 -0.005289931788601707 0.009769545168287153 -0.12300467483993857 0.004373149293145388 -0.2024009351195153 -5.627893892330567E-4 0.44276739584617486 -0.043526003880114066 -0.09429716985523433 -0.1889677646794116 -0.1559609370001047 -0.03754499190433284 0.12108384571447209 -0.08999894616750391 0.07304292070229054 0.09899456659367242 -0.16337723798251033 -0.02983973258538323 -0.011058867363152963 0.06491148330347755 0.029922981568458303 -0.07496591752422811 -0.00509051945094629 -0.028334146914688316 -0.08368018199479575 0.10729040592323 0.06826353851230986 0.007022909831376792 0.11981073931551042 -0.08570581194347385 -0.2030971506565461 -0.38173227951296224 -0.0994126316518838 -0.27778155357537854 -0.057744727518481725 -0.145102887193949 -0.14699587204197698 0.0046945491002552435 0.04317528132472746 0.16181763687145845 -0.07510051988965419 -0.04184343270738445 -0.04082827519845597 -1.645693015222473E-4 -0.024356410489788684 -0.07935093101864134 0.014683624886390807 0.05779411846104906 -0.0884915296441836 0.07091151212744061 0.03147259524661825 0.07258656327202735 0.00939412460242204 0.0506606705241481 -0.1589021859990089 0.06661345323301222 -0.4313906489632192 0.04151669521304773 0.0026778692527181266 0.13961391456369768 0.09937386293748375 0.2286076801722377 0.22471095914603764 0.5181168888611349 0.23635789807664284 0.14986335224211586 0.03954409216086469 -0.03451802609731783 0.09078784750619277 -0.023479091618896136 -0.03861270942593358 -0.02891505490596933 0.06809009022947456 0.06322993599343035 -0.08341783861935272 -0.03526379131717679 0.07748169796590276 0.18847298119977568 1.224350095150586E-4 0.17025012883492086 -0.07243919172749172 -0.1198319833143805 0.22828534513270546 -0.04875793654375591 0.19097540004950386 0.26690210063118724 0.28237641639817823 0.5032026819815313 0.4496420130695411 0.2583821418495953 0.15345975165635595 -0.020908741711435648 -0.0172227623777156 -0.09374260957907256 0.014735371276263873 -0.029411406043655296 0.08400916920174685 0.06019806194050396 0.02969799564034563 0.08061031807513382 0.01888994403890281 0.0875943432965442 -0.08533823991979093 0.20773966211141484 0.2836157309327629 0.4168202016359452 -0.01340414692800361 -0.04499811055624901 -0.135587896107162 0.43445413798750004 0.2338753594578199 0.3166005703612902 0.4231515592836266 0.4814658503932079 0.269687890580133 0.11588782463283868 0.0339867607986641 0.12630317168623634 0.10145369526817515 0.06822154588708833 -0.035554289869453436 -0.0693132805592981 0.05686171729132853 -0.08562783926692115 0.04980973103103422 0.09865894229338565 -0.05918215355802387 -0.10269893017389656 0.277205175893675 -0.098390949828925 0.14227303885334439 -0.11658380155066406 0.21764032236638675 0.14443138405909933 -0.07689105409429127 0.051319788550724506 0.2190419800436718 0.3166787197428995 0.4325942460174357 0.02119469079493885 -0.04236389132590314 0.06224558499061478 0.09271043932451582 -0.04844086308331761 0.06416199141129315 0.04906572541259848 0.09920301800698562 0.0032947526640871227 -0.0828955207422135 0.07013267722884055 -0.042354963872617044 -0.09223104305692534 -0.010942077395351529 0.06215437925497932 0.025087992394549098 0.6134415224055653 0.152687978849933 0.24049246481174275 0.1465961905612326 0.07541321262962945 -0.10039911401801693 0.17276575482490958 -0.11794185526274804 -0.07638204829547683 -0.17585080202844122 0.020842984084156056 0.12024709138222658 0.06524982223444768 0.024588091007122545 0.02814970775951233 -0.06798476198378113 -0.09263940528725008 -0.045301831268563596 -0.012781124008972612 -0.07859121410266405 -0.01412651678585285 0.16842513408594206 -0.047121672028950484 0.16758605495401005 0.029277621993148793 0.30082785943744406 0.05499017232732708 0.11951667801736487 -0.08606221989133785 0.2523234233217788 -0.029458230264389623 -0.12000894028818762 -0.23878808235924862 0.05224254452068657 -0.11004287382005411 -0.08411997190642566 -0.02449203107505262 0.09892359650912931 0.08330847321714908 -0.04109670671473745 0.00562428828972097 0.05024893725735779 -0.051654198279646145 0.034861099958095006 -0.058682178413016144 0.056395843449409386 0.06937579615285759 -0.030687033949311552 0.30792146434970413 -0.039988115660718374 -0.05414726578123239 0.24106597639445224 -0.07940081463544013 -0.11125741811648526 -0.2328724710577292 -0.20507359800315073 -0.25404523324810036 -0.2652613753217967 0.0797972185707608 -0.07369159662846339 0.03874769906080442 0.030372795885996232 0.06476934977026196 0.06555314267225633 -0.008088326503018366 0.07548233667631869 0.06940143651536894 -0.05462077989025859 -0.01780801542696641 -0.060951533871385126 -0.06662559513702611 -0.06355975443040514 0.006328128308066296 0.022513894993030494 -0.002516245723191548 0.09824411447568636 -0.05967078274601862 -0.31711668964937273 -0.1329668922658417 -0.2686851282946608 -0.0043267219470876925 -0.36131078460230365 -0.0030657452550532697 0.10652002885058964 -0.006463550828495381 0.11804553864097111 0.04399591050684569 0.10390030307952537 -0.04812121063796133 0.048380629262038365 -0.09083854242032983 0.023823628318311786 0.030255805967971585 0.02383836686710364 -0.09394869442990127 -0.04546802114664731 -0.06769304440164096 -0.0855256127383139 -0.10708687638912048 -0.07764604533521419 -0.025638183810740033 0.029039650747480123 0.12182562336612095 -0.11743249269478856 -0.19865248484201628 -0.015288614848313738 -0.15812212596842493 -0.023374447530479937 0.10341998299482384 0.04081310582769796 -0.0673911516622762 -0.11589383678436814 -0.03872551271233019 0.10300148834103796 0.03609125214863073 0.08289663607264654 0.09350675699472795 0.1034169847313109 -0.04944757631187146 0.03907468023707874 -0.037702926176398234 -0.0385242805081289 -0.09482155895907342 0.04053926481259754 -0.005570291660147625 0.08441336739189584 0.1221501486076586 0.13834972912741644 -0.013307483936575427 0.0660198763667022 -0.016296880306609526 0.0137179628758646 -0.055501283853817716 0.019208730249036098 0.015268414972328916 -0.0027147535634082006 -0.004749625403274552 5.198078608171362E-4 -0.04517188027078373 0.05220702918565178 -0.09554118105974628 -0.0871674440076818 0.07176668751024186 -0.04443737754364451 0.00397035991641652 0.07664580095542982 0.06806593139451071 -0.07182356409213718 0.08215463579165426 0.07002559979100133 0.0970291243198292 0.07966914741187518 0.04220140579510389 0.017853312619776823 0.04778535755210505 -0.03463298558405548 -0.06551767585307232 -0.026605871053960103 0.06293046365690061 0.03688142934302927 -0.011438094132501193 -0.03491355441313684 0.06968741508715263 -0.07790305930544929 0.018740818309860588 -0.09310200077750576 -0.0834643103077267 0.07988631057668381 0.07720984682722946 -0.008897430572065552 -0.03942067482514051 0.07350404627334785 0.08533816944830129 0.009088752643219976 0.0604937900517556 -0.08850732862923626 -0.013684988628916397 0.0788202824304595 0.09571205715068258 0.01606869244974623 -0.06869108173114959 0.09682501070091011 -0.04541939640992775 -0.003661809284146075 -0.06349570255090636 0.07809758230275647 0.012536326556102085 -0.0726753272088365 -0.07017981788872142 -9.413172471842054E-4 0.05592577158388499 0.06154693266703187 -0.06031632671631489 0.012593669894281342 -0.006219456087175267 0.0649116003295962 0.0010700642152942474 -0.002654515804752042 -0.02417273010227025 0.02438551318490137 0.01753449864317512 -0.012737862628497788 -0.048351587140714136 -0.03198355311681328 0.06887599233777289 0.048627416392449 0.009951177915951261 -0.05171700377873406 -0.027700636566754366 -0.08965923348797815 -0.09174861671126079 -0.012430516549555338 0.010568223093292372 0.02915247164799957 -0.03796802481097793 0.023050550040767434 0.08694342924239853 0.03817377979489067 -0.03813809864732232 -0.03396941997463353 -0.09772552432527412 0.03286747928486619 -0.024340762004905467 0.07066597228078123 0.037306474078913854 0.056731887668924424 -0.0658972948178109 -0.006868994999329402 0.06721090301453739 0.06314932780998736 -0.005733998566816572 0.014670895352945228 0.035543352903110864 -0.049622247691241426 0.0298697964158562 -0.09938146833528069 -0.028722920909564548 -0.006577802743305787 0.006116424959698772 -0.027665970121105207 0.045256293580434204 -0.07046965877852733 0.06289265114219189 -0.019840791632890667 0.03135848048796522 0.09331440806066393 0.052196329819199805 0.08286181756974256 -0.03714958608586122 -0.05699050910941695 0.0539628392897559 0.0626771656251163 0.055867766294955074 0.07113598500143156 0.029037764363997062 0.034937686889966346 -0.0903564339804239 -0.049158108879334236 0.05886238317569298 -0.052586356546627896 0.0870560628001297 0.03345835139115988 -0.03149104930238283 -0.09312882884346549 0.029261856445953652 -0.016690274667210625 -0.0669769206198651 0.01898649745001771 0.06462551385743856 0.012577262473504863 -0.07339922987312769 -0.01736187437269933 0.03485206900697441 0.062023247509477464 -0.01005199710150147 -0.0592685302602767 -0.019825635516827964 -0.037359670860715705 0.06324112446627245 0.0570933375021665 6.421971651979326E-4 -0.09120145852980793 -0.03957350626495767 -0.03739358374840694 0.04200580725497621 -0.024779671161362524 -0.05483166485012914 -0.006363280802554621 -0.05761858723069036 0.01812170890338874 -0.09042618640272286 0.031939804744552436 0.019831839708329274 -0.08488444206116413 -0.046198860600017023 -0.052479390036673644 -0.01872471925860946 -0.08084088314696958 0.018905208535437878 -0.05451692502370643 -0.010598670257681946 -0.07234355948589061 -0.06880295912663847 -0.08086001938894337 -0.06424075132485568 -0.09765591219050583 -0.010453738240699029 0.030131822221619156 -0.05656948764571535 -0.08518593056735561 0.041238178055680065 -0.054305311677448974 0.03458980824518565 -0.0634177410863814 0.07512057979697143 0.09201609899652266 -0.0035037164601243484 -0.05865146124323756 0.09050176237772867 -0.09306918576254669 -0.09878398269555612 -0.04284614972488434 0.0019904532117546946 0.023144613328644637 -0.056523878842109895 -0.04515137329396748 -0.028146366985603175 -0.06075034081593594 -0.006160238931276735 -0.061277562137610556 0.07819148559382426 0.09765261757531404 -0.006309520876323203 0.08471866511926335 -0.020397367033738487 -0.062060375265003444 -0.046827813419834406 0.0418607244818511 0.05579035812401792 0.05506292160656001 -0.04032082316139748 0.018566364028770918 -0.027362404036097104 0.05753011180543188 -0.0430515618066409 -0.0449017479188829 -0.04746713103824311 -0.09579424753674236 0.006248414109643501 1.3264962428588957E-4 0.013657292614325986 -0.037767645880860186 0.008985816781306437 9.586545772354524E-4 0.08000201320526211 0.0315861054945622 -0.06485642147808375 0.05292010091480346 -0.030662637541438005 0.05701045926216575 -0.022795619813015287 0.042325212390572436 0.0011127315742601562 0.06360282849507393 0.03207430876978193 0.08595513339672645 0.007900363638444746 -0.052751798364354646 0.00907529728496206 0.05833390640359573 -0.04025833138897813 -0.040810672163394776 -0.06865293888535015 -0.025185301976507916 -0.030217595288994988 0.053386114479195335 0.03212147535050253 -0.08177415784706411 -3.629245237235004E-4 0.07878622666976969 0.02808938047630302 -0.03170859523028015 0.042444833549542385 -0.06856794371995656 0.07219933583223413 -0.07188146946635689 0.023102630379045752 0.016295005816634553 0.009257583260814672 0.03232936829578964 0.03239762309679026 -0.07919212969984477 -0.00912932114599867 -0.025850149374023856 0.09803340343182804 0.028517520856197794 -0.09056203809161756 -0.03324063034076659 -0.04914365019014594 -0.015813540559409173 0.08902157012204931 -0.05458548677752008 -0.023517382991730163 -0.04291521264787176 -0.022696300969302644 0.005792210720198556 -0.0936185664964168 0.040841541389897526 0.0613742313390027 -0.04818675196706996 0.019829566985759463 -0.02553965709641659 0.06293622338642935 0.05516579165560359 -0.06424219158955757 -0.025191058341260356 0.05659944335452971 -0.08062935727064624 -0.003110468908096037 -0.05418441807392932 0.09540911470365951 -0.04673392559271448 0.046875848415921684 -0.0869805644296467 0.03179756576835506 -0.00875900109084734 0.06265331967136288 0.04801753531225375 0.07552782692154962 0.02109771881372929 0.013495070194446603 0.04752613110240059 0.0468488797657485 6.562489909116643E-5 0.0663540389987131 -0.07532496918261314 0.0473746241756712 -4.678784208258126E-4 -0.09363146267098867 -0.08219118534089184 -0.0037811890246769067 -0.050380866807151176 0.0023345640741992938 -0.0751659387734723 -0.027829280271450263 -0.08715587216571469 -0.02071470267829756 -0.09798723072480404 -0.08272490366399357 0.07110364005154353 0.06318504137004316 0.01181280949929083 0.0741622328772527 0.07631760723820662 0.006425578041054599 -0.05533691865223065 0.07231613575296927 0.08699510822833748 -0.007936137595166131 -0.026269147633345685 0.0718458440890955 0.08583713090054226 -8.142876554304322E-4 -0.018412912393844474 0.055564792257755624 -0.0437691285278409 -0.09661031800770582 0.03456068724715913 -0.02662500511274038 0.09655507678716335 0.07693393576935703 -0.033152402921202834 0.003884236735033436 0.02360725809493196 -0.03148662717350259 -0.006149014793796446 -0.049232847636883535 -0.05874160862526185 -0.06597034079366336 0.07290909322148956 0.07025189099721016 -0.048998433799115025 0.030524121694991843 0.09107235371689455 0.05850039788481886 0.08300077390430952 -0.021210358378214042 0.08002047069619664 -0.048039042297133704 0.06367289089679787 0.053228792494734334 0.029639732958165146 0.02611306957510852 0.062091230431683464 0.07890329456657452 0.004451592458469848 -0.09039770434910849 -0.030320709779023902 -0.041848814552593386 0.04652290783527757 -0.016693037033925637 -0.0668689649749476 0.09625461857397732 0.09721888939427498 -0.020785831550316256 -0.004199263350837594 0.06032078157950722 -0.028407587812863788 0.04648183099970762 0.040186256291675736 0.038037086409484104 -0.04033313981638552 -0.07457414799397083 0.011154386543891361 -0.03836027994187693 0.059575863533365386 -0.07083504321400726 -0.0627869795670049 -0.08824423858604022 -4.517966122655788E-4 -0.08529490302169912 0.05413422078442704 6.416346794625716E-4 0.035965634379663144 -3.5230108003408067E-4 -0.10026976029620588 0.017396826898375836 0.0910720073737015 -0.0254431712003709 0.05115329818281436 0.023755704679050884 0.04265314737917678 0.05553175200875259 -0.06832669322863959 0.04920095111019498 -0.05686036153108635 -0.08667220828945586 -0.047644481009346824 0.08622810083617771 0.027075163085516094 -0.06816531187383013 0.014889106317734973 0.05112340890476924 -0.05197346578800968 0.057287128695209355 0.04466784751157021 -0.0723223518626855 -0.04631319395011671 -0.0849626445475514 0.004585373572689424 0.0986949172032008 -0.0762086985782137 -8.900273678184193E-4 0.09177713137225915 -0.05771386366955199 0.08430303601363674 -0.019269497679662243 0.021865528283530934 0.045926997600055385 0.0043706863923719036 -0.006681830291873903 -0.045126790323878174 -2.9231515506267534E-4 0.016710859255894245 -0.07187037635069939 0.041248599851342105 -0.08599692091788097 0.002036970621371353 -0.09781343889886826 0.03282553894668214 -0.08935447321469064 0.0077789800095613365 -0.07689240000633094 0.026806753674175305 -0.04303822591858361 -0.0018490668301918607 0.03664599178050612 0.09706353300320669 0.01094811476500505 -0.01768455965502093 0.02688371294476707 0.01581491055179295 0.08675043004907303 -0.021177824799447558 0.07773724421245717 -0.06203510190242597 -0.03904671686401507 0.06500752172353824 -0.06887220220584657 0.0045220712628186565 -0.01347357001347831 -0.023249942969369927 -0.06787577909464604 -0.09248975736426739 -0.08163935556494167 -0.08935755933912982 -0.043375996688310506 -0.07131515408792577 0.09772066749520125 0.03424333726741963 0.016269335008884764 0.0841636204938435 0.09831306747182715 -0.012111044242639498 0.050500266349149656 0.09787373593368891 -0.09051621927473598 -0.051873168314282785 -0.09611572502745587 0.02553436838727781 -0.03483472187826967 -0.006630057236916776 -0.05762299450087126 0.08356506923763632 0.03914451356750573 0.017297373801553412 -0.05525580309781125 -0.052674971111086086 -0.023973175541293537 0.03930255484856579 0.08126678036229967 -0.09532490317232312 0.02507605981368428 0.04182549634826575 0.0880686454244535 -0.0017320626111500508 0.027031937674063967 -0.09662033515402951 0.02186116339186212 0.018069817611036407 0.021587591445916644 -0.09873633188036052 0.010636085967187682 -0.047153141437672144 0.005476576660480802 0.07295555868998818 -0.018498181724516602 0.06455791714686968 0.03157067750911993 0.07158401376338572 0.097824648369424 -0.09305368953254117 -0.08644124023624797 -0.01914556565580723 -0.06398364951392424 -0.032176141651918524 -0.05415099739413517 0.08651401300094154 0.05888352979276383 -0.0038840168007918067 0.06654420020539487 0.06670672032648974 0.07619922651514455 0.0382638660064266 -0.06656215301567636 0.013901649236029994 0.03510885035767983 0.009134946200910564 -0.08330380431725373 -0.0524286006313594 0.08886746609843221 -0.015524487037091642 -0.04017446639976861 0.0650663495325591 0.09209851352744164 0.03429359346886593 -0.07751404395576868 0.04510269420550772 -0.012414632823258293 -0.01931558941708135 0.06513769866592231 0.0836784908627776 0.031088644486254348 -0.09893401447058206 -0.09003178861914708 0.053242394864713126 0.0645337674305076 -0.00734489990081837 0.08564910541338627 -0.05381254610233545 -0.07232976345556216 0.04869568010232892 0.033520430001963857 0.07903969027907173 -0.02886848181823176 0.009920920661803539 -0.052272347420916916 -0.07641105220913633 0.03152783293650316 -0.09842135145371583 -0.09804604970128969 -0.0426352752795469 0.013171882666803313 0.09236847816023738 -0.07650367827719548 -0.07162880667582738 -0.06863865638033145 0.07020434941208739 0.06771875664448576 0.0676507401157069 -0.031390084808608866 -0.029437279241699518 0.0688489807529446 -0.0015312356615823958 -0.08175870814638735 -0.044536758075528295 -0.061452492331741826 0.041100097903615525 -0.0021354933567997543 0.009903502029841185 -0.06482608863269607 0.040374234106507284 -0.049124581644080276 -0.01617219877232423 0.020655757360170515 0.005703333513651083 0.07523418024482612 -0.010514482628483843 0.08681625961742384 0.09496108903544068 0.06731791469810883 -0.04848432493060076 0.05258484031388572 0.04777065623412163 0.0013762225166012137 -0.013138759521809432 -0.0026663771541887054 0.03023128523137804 -0.07096170594695651 -0.005530503776299909 0.027849706113088464 0.03102523820027079 -0.08118421297203747 -0.06876687580868565 -0.03445990637619269 0.0332588195914926 0.050417651978061445 -0.03152886974760237 -0.027962806436088145 -0.03682845009264209 -0.09602417789528114 0.018511315001191006 -0.06653922539032048 -0.08538952029399732 -0.09152432906474395 0.06544368259722069 -0.018614016158110605 -0.049452583617731756 0.0506041806275811 0.04134554285696537 -0.07135375482579662 0.07921554937898287 -0.03204065584990014 -0.06767771757972364 0.07093280059130883 0.019861792245372947 -0.0835130691211324 -0.06505724304848642 -0.07536362974852774 0.08827010043034289 -0.07235786386989067 0.029592303983257753 0.05011991219905329 -0.04383654448087869 0.05220612077063008 0.08901118824586898 -0.0558311712920703 -0.031524971084790715 -0.07461737890119746 -0.0017058883827421906 0.07618523406457045 -0.06138825922568044 -0.018254762975608796 0.026884229408120255 0.08976328755234558 0.08421640372348474 0.09880123520114023 0.0636029612522806 -0.0053971418426951735 0.014567307381685098 0.05438304014574888 -0.09748537167123136 0.03328910885449099 0.03563697153814646 -0.054226043995236346 -0.049567172579588654 0.02328584904358695 -0.10003533855560329 0.03741986781171591 -0.08386675114391208 -0.05343902203530407 0.09587996902463669 -0.02072591366045326 0.03684541035433356 -0.01241756332689534 0.04424762885012326 -0.030732262432195873 -6.463447641792023E-4 -0.09500643865479698 -0.04921339751498555 0.021093466294418536 -0.07895443337298895 -0.03690302164104996 -0.05185089124371064 0.04243547616878862 -0.029496308942131802 0.046346505725078035 -0.045671640739734364 -0.0710256812738206 0.027744404543177295 0.033366824711714926 -0.02740373826630671 -0.06405992019971071 0.01096540903208498 0.016591028450621062 -0.036944561901248354 0.0012722678543508872 -0.07073937432694441 -0.08098428950073222 -0.0733882031533915 0.06626493006435749 -0.03710616350141385 0.08451861755742762 0.06243184542228241 -0.043853941193562326 -0.09039444892114587 0.08787914856396478 -0.025043278844686354 0.07886028816773008 0.0015600379473783824 -0.040412627777554555 -0.04919737285346674 0.023644597731374863 -0.05882748845041493 -0.0030275794756996228 0.0476352989431489 -0.056443251602185274 0.07693922129062111 -0.01112341187362455 -0.01188609524572286 -0.046563317184232865 -0.09197401878735527 -0.018453357184711614 -0.0022424631071363285 0.0816370171231939 -0.016460841149994482 0.07339498469684774 -0.019118924567905513 -0.0234458662624555 -0.054588885533805934 -0.057896520557164176 -0.010120100699013231 -0.01206329116547786 -0.04691034658872121 0.07961326369934055 0.01052587626147222 0.018143746093516346 0.02372914862474265 0.03886400342572209 0.05956971218359462 0.06996959060517896 -0.07666149235950438 -0.019283580434405426 0.07082772847682883 -0.09465135833269728 -0.047650750801990785 0.05031230852530523 0.03206378197081046 0.073197838760101 0.08332453988192973 0.009196413862988027 -0.07264002720305326 -0.03514972944368619 0.02903801219161325 -0.09715496119401654 0.03830254394769041 -0.08802140158333231 -0.05409109866813625 -0.047183607748759016 0.06219220556175219 0.054602304040115776 0.01078790412831687 -0.071441861575052 -0.0833790867069374 -0.024281967001559577 0.0483459473472994 -0.024022210089116845 0.017139976815388546 -0.07571231238010157 -0.06817412048965524 0.05820206817040928 0.038377143443161635 0.0297641648164407 0.0316749074529928 -0.0014785424037465098 0.09884312116228464 0.04903004393755135 -0.055416583811633134 0.006336709190446406 -0.054199089174774465 0.0805697072298138 -0.10028639468425764 -0.0860058322914895 0.05895391846217059 -0.06910921111861992 0.009409233689645745 -0.04428274741427488 0.040341905355922206 0.024656193950911145 -0.09156450737915738 -0.02058833318590682 0.012716395423878547 -0.08731693136941955 -0.0911940635389516 0.09794224911463592 0.009800138299192377 -0.049089368661387876 -0.013488812975129218 -0.04145039430809544 -0.09065731427750646 -0.001241383594720088 -0.08790347408521276 0.03739517579862507 -0.06680867678281042 0.016417948295370244 0.038467958766660565 0.050793476081755065 -0.08328052043862154 0.026550401239432437 0.06555382952101262 -0.08439021925587564 0.0469240698220902 0.06132816208065636 -0.07278414811584659 0.08825104500265281 -0.06383067357281096 -0.014826064162003782 -0.06438094109956688 -0.037504181465571065 0.02468360783582221 -0.008301580227510706 -0.00386924516597373 -0.07154612153844303 -0.09608138083517749 -0.07630663156336137 0.0786757889578067 0.032968741453822614 0.03667849837616255 -0.008908722167065296 0.02222068742823438 0.0389316809615593 0.007368746969499852 -0.05628739063903324 -0.036039378105528236 -0.06665439727946018 -0.0566168681576456 0.07526395381087167 -0.04959101603455023 0.08209343851591248 -0.043448803824404386 0.025229681607810243 -0.07072872519457203 1.1540409670923613E-4 0.01950628308663743 -0.013189352024094563 0.020045419313665724 0.0026030206025981894 -0.05628768038043207 0.06597454568871436 -0.016838410954374817 0.025991793969231614 0.011742304023690201 0.005744994892420756 -0.07274273732737073 -0.05015500437541657 -0.045825225032529567 0.008182224152337535 -0.05105799177859919 -0.09164824116713235 0.061611257992243686 -0.014812694238549619 -0.08269009644591759 -0.008544113416633315 -0.08047988626670913 -0.09271996050518318 0.058441593270090714 0.012880150185984358 0.004834485301851864 -0.08106174464556432 -0.022629348489262364 0.08789696603580044 -0.09626728004911456 -0.07763716111292315 -0.023727647093915897 -0.09136442951012111 0.03643622725412102 -0.006110549259002917 -0.09073546890085152 -0.018115502742426785 -0.07566638216044198 0.006272012172064357 0.0903263399461951 -0.0026917390074471296 -0.0038258163585899643 -0.030154522657616877 -0.0608305163421427 -0.06055526974509737 0.06024353265447713 -0.06467838815614045 -0.07458057224059741 -0.025995684490270034 -0.05513909257150309 -0.053640746271242865 -0.01864013652610146 -0.06242063895447817 -0.016146663518841396 -0.00976754395921735 0.029777686819511425 -0.05944695986167346 -0.020957355470285103 0.03546086774657001 0.08243580942247332 -0.07649514336856318 0.06245425064075728 0.01839728127465861 0.08376802827357867 0.02242997200274833 0.07161472109844509 -0.08926561132952063 0.0565690489387652 0.007076355821067831 0.03850836572785737 0.07014281418722422 0.0755403695937581 -0.006759596678870369 -0.026970468729849578 0.05396036988348758 -0.031223454594638437 -0.036129125802695033 -0.02350488368388393 0.07464456070310557 0.02004834658858037 0.07946171055244569 0.06673627072674745 -0.03344778546234185 -0.03539280305011097 -0.012995856534727592 -0.03228324406235392 0.02015746291142858 -0.07185374075837286 -0.07329192064837771 -0.08766143815741835 0.06808248718445002 -0.014677829225277602 -0.062109973944556626 -0.05080143879866252 0.004856719386267105 0.021748273431053115 0.005524102710576681 0.06335030837284376 0.044057180845867516 -0.017896645138849882 -0.018232903241458227 0.08796187530670355 -0.05278223124438256 0.01783077405973021 -0.036846072376089556 0.012203814507906917 0.0799524775756835 0.0831819177177906 -0.06130134031949107 -0.04769636079669664 0.0017801557543226172 -0.058369708005232966 0.059418325394429164 -0.07433367624504253 0.026021817063971622 -0.0030699388475003047 -0.08144408670406467 0.0014795713568428732 -0.04359023672368638 0.011680746506874604 -0.08615443461134648 -0.07161756550081169 0.03004782607406769 0.01466865414896623 0.08644381340207996 -0.04060274636802724 -0.0034852274596893513 -0.031411768000797195 0.01853262313360469 -0.07332912874059631 0.010567735812353067 0.024066230763673032 0.04557923215448058 0.0886345718621277 -0.0127870951554153 0.07082435257725096 -0.09228094966932573 -0.015428170664482493 -0.026962121050167 -0.04645599197403858 -0.05533526192721493 0.006841338779708448 -0.05977482127775305 0.024828102621744105 -0.04144830733641339 -0.03202658382612656 0.04727631902393623 -0.024345353240511132 -0.08398122599040779 -0.01644379251916202 -0.040211163725478005 -0.0031223742007097117 0.02576437323820929 -0.012213821297083193 -0.020108208366744002 0.016003283732917022 0.07217765338963425 0.07216691761071578 0.0102523004953695 0.06532694022853396 -0.03437594945487161 0.017253731329730994 0.02155157766219467 -0.044627733102071604 -0.07010747970089053 0.08215657894645083 0.09123666833448675 -0.06281889377339962 -0.05700252193254387 -0.06545570168217117 0.052686724269129515 -0.01704903174949491 0.003853198460321277 0.06288990566847963 0.0760329840655205 0.01835566533186966 -0.08523103540361703 0.08420533683462397 0.011447539698200252 0.014006119287969269 -0.03883778318260885 0.019362574393258055 -0.09225737223740116 -0.043057753588954396 0.05427262414018767 0.0803906234721776 -0.05980714876321833 -0.09922762627049564 -0.0544193516966417 0.003185717340194368 0.08623930889794133 0.026967908249322946 -0.0015336076166987528 0.03891899789703242 0.012217512682904944 0.04758507751955846 -0.03126313849970757 0.006976593309187839 0.04958101115531481 -0.006892684794648661 0.021389068831885624 -0.09215703723852792 -0.01720898904789853 0.09015414490116627 -0.09419270663643624 -0.06928393542293801 -0.09932002800792988 -0.07928145774371402 0.09031121503945622 -0.060585348517473735 -0.09034581281717972 -0.07299028601383473 0.06284080051078525 -0.08558952348718808 -0.045251292575001545 0.06430796849278572 0.003727886712411756 0.0742443286656576 0.06400349036283948 0.04835216814998565 -0.04817424724447703 0.011481987657755838 0.06601706178665265 0.0032955823786097196 0.08058387711556061 0.014887057245138528 0.02879716323881609 -0.009777888334041642 -0.03374788430135321 0.02036367518456934 -0.06575923428140762 0.058830590900434784 -0.1006469518844292 0.028542144779849895 -0.03345612794690164 -0.06453898439797694 0.08061089004462682 -0.06314837808377635 0.015674050806702856 0.06102735705338373 0.04712320099665792 -0.035919358272101916 -0.051819626191961496 -0.030755388518067306 -0.05612397759796472 -0.08218244971543749 -0.05417215067025978 -0.00936064649017583 0.08408951674182916 0.02666933666733037 0.061071168040616394 -0.03526460262282921 0.031767915179860926 -0.042061113589840424 0.022379604148496626 0.08618837237626026 -0.016324518887985095 0.09469993365257084 0.06119508343548331 0.05725136452705827 -0.09543628697237858 0.06670414294156016 -0.06465303948646514 0.020257161006607977 -0.04812170446674497 0.019222748058812734 -0.011316205338597729 -0.007615075013768287 -0.0827697262401311 0.003983901930124174 -0.01710132342842645 0.032903487599260255 -0.02017347049318014 -0.007743572579830126 0.018328910828508013 0.03304525874577553 -0.018622938271342402 -0.08135685867918875 0.0864117130195296 -0.04753739506475731 -0.04822185905039315 -0.07690083467462887 0.06759326872390731 -0.017184301177217563 -0.027627558604158404 0.01656445311319438 -0.06411386619138724 0.07182088089042188 -0.05483744631348988 0.018128573128428433 -0.07692397682773167 -0.0816409167586905 0.09822970437314957 0.0904456259713759 0.0488404015895534 -0.09992185574058178 0.03872322281007753 -0.02091222576526059 -0.08663830009086032 0.08901789717264266 -0.054831945672216734 -0.012374315250231417 0.02729893053667978 0.08436437122028936 -0.006515713664943605 -0.05483403583455874 -0.007279449304527922 0.08472484983567885 -0.010321487381126872 0.09116361130997994 0.05386670682326718 0.012705667483260363 0.003966791983769136 0.08263546103329626 -0.0361756489304635 0.014771108986015314 1.3913944976100222E-4 0.01666326119493805 0.0136198001032813 0.06612722977458882 -0.02817472891619349 0.025358892789126713 -0.013147099277314974 -0.09277205980390812 0.019322085740193534 -0.08523375515909987 0.021483154444839 -0.01835210842896522 0.02732144717191062 0.007942049487513201 0.027844270159199182 -0.024302141959648128 0.05309250871642145 0.053165682764297575 -0.00833311869204313 -0.05025573643791796 0.03836507948162131 -0.023229581979470313 0.08842633075380094 0.0554662229428758 0.05669934702601524 -0.015925466773333896 -0.04187839912064308 0.017402651416984934 -0.08223461348989325 0.0059334736680404674 -0.05624484234733769 -0.04295547247079365 0.033162581531849866 0.0659542807825465 0.08011080669313864 -0.049569820264808884 -0.0025740330928473174 0.02474751831418989 -0.035111284047119024 -0.06204704348107334 -0.05539369120574439 -0.04721470099463175 -0.06536848007116744 -0.017658395251091186 -0.04260961760030291 0.08507812482333865 0.04292024348671557 -0.04297715017781808 -0.037052365080412514 -0.09126026103803393 -0.06703752703567108 -0.06859361536458689 0.08231524501495055 0.0536720272410532 0.07436531837295729 -0.016470054663538528 0.02998042940525666 0.06695859552051919 -0.0385077555998779 0.007421361707949145 0.04731527351833649 0.078199630251723 -0.058567679295542595 -0.05921374077849412 -0.02248032906663357 -0.00428587602904819 -0.008641423013371898 0.0853956626335372 0.08616924132756248 0.004047152692417179 -0.052244921642649565 0.07085833078235174 0.07692944598132123 -0.02038214312695336 0.04580901148884407 0.07172823942102835 0.055518223474225456 -0.011428684649726102 -0.06789693517669851 -0.029723422681827445 -0.045430369899259915 0.08598097887451858 -0.02336028423180642 0.03865937360138423 -0.05212848514366338 -0.0033187434472539985 -0.07082585584875205 0.0036704729366410244 0.05452035312717467 -0.07460741281982987 -0.0599720532962151 0.05277732669629405 0.061856769398788 -0.08256583583390024 0.0970010627654242 0.041894999852513645 0.08061561889197885 0.071202298347847 -0.0823053443591758 0.07336142214419797 0.08654480381987034 0.08972519147304406 0.0805029899994111 -0.07316506750232692 -0.10018282640885978 -0.049012262037838386 0.07772773154197371 -0.053657188184710936 0.006880430242196647 0.07535280221390822 0.030713278800794067 -0.08653260306998482 0.038960012753930975 0.07328811695746174 0.019597156486779673 -0.030335830928804184 -0.012749567708062738 -0.032259079701272717 -0.05078520237999683 -0.010036005936987448 -0.04309928217626532 -0.0971148234073858 -0.002106716655758027 -0.04418045489036192 0.040220041474140475 -0.025401004798018604 0.07731400940826694 0.026613716378196175 -0.07590016204967857 -0.05208722411546064 0.06931952367469399 -0.032644338157801336 -0.06253091937789086 0.06280136599792865 -0.1005149391785973 -0.04565207868958793 -0.008330356393505321 0.0720763036652862 -0.04252931600172823 -0.04888412642484487 0.06995909991616847 -0.0962329098174246 -0.019384836647380114 0.023648604379141177 -0.01808156664428826 0.09526322930271755 0.07992816547045145 -0.052991930748603366 0.014362700582001493 0.0076215084815135494 -0.09341753458393437 0.04462122482492524 0.0824226980318587 -0.004174003398660255 0.03220336493971261 -0.002922289729531473 0.012786325570288718 -0.015579209234176593 0.04769773137695878 -0.04098669552755409 0.07565834302929145 0.07781857045299556 0.07306040153072521 -0.06876631085922305 0.02338408112035127 -0.07871292971475864 -0.08489267320277279 -0.054473527964228226 0.08678858811266872 -0.08296589774188129 0.006315872540408079 0.05201016854966833 0.04549586586076173 -0.08966258236728587 -0.07370912907256569 -0.09419490058702652 -0.021758203559905695 -0.054272838890587455 -0.09975115939224527 0.0026406278223353604 0.08483600545374072 0.024182812307155716 0.05767965703547478 0.04037779158625739 -0.018394561370501786 -0.0022034734453606204 -0.05235276492318317 -0.06710115509306187 -0.045562958707351414 0.06595185733439547 0.09260058538010112 0.05400641244393616 -0.01245918756211307 -0.03361663821327037 -3.0461259853446803E-4 -0.05301708878321183 -0.02312509148770593 0.09061534861953315 0.042571740712197347 -2.812185194835117E-4 -0.015755209061381895 -0.004339116222696519 -0.02327115076134806 0.05582560580831852 0.09140867267666193 -0.06750499889122812 -0.04191707234912692 0.008908372696503094 -0.026908211694660192 0.06669878661060442 -0.0030102452042956016 -0.0898213274121627 -0.07636745449104744 0.027803937479810983 -0.0010412935833422202 0.008848510589615213 -0.05594643589776345 0.09125009116468198 -0.08151963583621175 0.04025232371409653 0.024671324855219973 0.07050014573997883 0.08383520021415884 -0.021597572989889485 -0.05707188851782372 0.07674152805375288 0.03844596542510361 -0.022308879744706397 -0.06304947299252738 0.0897341754412186 0.08828195524229922 -0.05728967117875292 -0.08759110369896213 -0.02425113750581888 -0.054981557783558094 0.08566755773788327 -0.006427489940516632 -0.012827677895525158 0.011100009885557224 -0.04236522095718405 0.039025634435284055 0.08323827843881955 -0.03444826628949183 -0.027125449140814495 0.00832978042525336 0.0224765740329418 -0.02167244907812746 -0.015254361723675747 -0.01201205863371529 0.09485513676483733 -0.09381957335759526 0.017198116688962303 0.06338676182186447 -0.014777492968272988 0.004484270087271743 0.007625781172909526 0.05796305472950091 -0.010458621658263093 0.027132770417676574 -0.025148515095382448 0.05166126802049691 0.04153645038722525 0.08058581820438905 -0.009721104162674502 -0.06218112402481686 -0.05023726969750722 0.048329293834553165 -0.0992481326700315 0.0809369571772325 0.09373311707433558 0.008721279020288299 -0.07131761026556482 -0.0026363981258477874 -0.01737290487701032 0.02979835468992141 0.05592115555537854 0.09673795093288938 -0.058764997826692845 0.05089223441051432 0.09443388146107036 0.09411318754496766 -0.04456291632241485 0.021701642389573787 -0.07230817787743299 -0.06900306367335501 -0.018945273926930226 -0.08285695180692919 0.02677092062125032 -0.07188209869476116 0.0071251867210796035 0.026668109479696236 -0.06150080280566233 0.03354798288652521 0.036121660715504676 0.05334952922978777 0.06484302906034484 0.02714102778920251 -0.04538688499713924 0.07446598579285672 0.06904146324776698 -0.006524697955567622 -0.050265965170978304 0.05736136689821155 0.07834846568130995 0.09264998822140161 -0.05335851499226097 0.044641923294933834 0.07158856802330078 0.007349206570764793 0.03441772676579632 0.08753105981489052 0.09731704508808008 0.09231681830698084 0.09118078153767627 -0.06101025508397147 -7.787045497127114E-4 -0.09861945663010017 -0.08652687582468534 -0.01500651915373428 -0.015511020759379693 -0.07235793395016009 0.01078936468220408 -0.05137137504275879 0.026768494057098382 -0.03548845366129741 -0.05652211444918771 0.07895214421960813 -0.04004007763259541 -0.042757836865504474 -0.0604587068315966 -0.09858731156353218 -0.010683305237798849 0.0995673509633107 0.05611992439314322 0.09459649482661221 0.02346807608136535 -0.08502323095242843 0.03168860985065882 -0.05350786190521502 -0.08620565973899204 0.049220429469997266 -0.09263719811467484 0.032902372178413235 -0.023341656767726204 -0.0021979465108444146 -0.011557299682482494 -0.03789333261414634 0.07012550174448967 -0.09574907659814495 0.07267663170250381 -0.05770125397562107 -0.0037052244176867177 -0.04279927528331049 -0.03376438297934646 0.031018949791541017 -0.08422203412074876 -0.0492378806003589 0.07624355358406397 -0.048640157805644436 -0.04116954220048437 0.07769801940280753 -0.013559904845467522 -0.01471818507631511 -0.036754362369198164 -0.036617749369026446 0.09241916533134835 -0.017946014908973712 -0.03288389637509679 -0.02376528956861229 -0.09712980387428556 0.05788073328685911 0.04292238894735817 -0.09788212784176759 0.008103135252164584 0.013452405023726707 -0.019599301075452644 -0.002517548358855197 0.042097033293876075 -0.06412413316265675 0.08567065637250043 0.017592025955878315 -0.016193237489723865 0.014977497679339999 0.09795358066763606 0.04375037110388876 0.08125894236774227 -0.03372776268356093 0.007825254261551512 0.027569083400724795 -0.09773012512024987 -0.08099914864957417 0.09736834204964061 -0.07820680627386169 -0.02133367156866807 -0.09780986246504977 -0.08229705080194466 0.06250984456688832 -0.057799178964123774 0.052229219709212536 0.07823672674118519 -0.06861027994056236 0.013071353363648732 0.03562012862532971 -0.08058759928699116 -0.05492246755377435 -0.03495148330789241 0.09533618311644644 -0.08801293143603019 0.08480558519468555 0.05196644871501684 0.01269199318839794 0.04636326394431308 0.009974773276218893 0.05721873146028544 0.09097880203853136 0.04866854201877898 -0.010828388312586932 0.012192960629551502 0.07800794643862698 0.0935756849289442 -0.08547472183553213 0.007697579826634923 0.06816797388126769 0.08146246003334039 0.06673950777491125 -0.08092833822348026 -0.0648398574556185 -0.024140702678005898 -0.045899233750951736 -0.03305252752803593 -0.09628165777214519 -0.08038499889962088 0.05211564372197396 0.0344058766315336 0.07504663268280641 0.08950641875541811 0.03897269846048137 -0.025252641673038992 0.09285976126485691 0.07118075813434256 -0.05149584904820612 -0.03336155153403062 0.0665168892669994 0.005020415623299162 -0.06706011124182439 0.08864086610158106 -0.0588286338520428 -0.015217573246099292 0.06764598064007372 -0.08063894081373035 -0.05320447693573958 0.059329249064032086 0.01910736459763795 -0.0916702115403147 -0.04536248769688418 0.05245560314190008 0.04448054013548585 0.09861964724543039 -0.08662218143349677 0.08042794084246922 0.09473467073439194 -0.06606467660279254 0.04679249346598951 -0.07336842447399486 -0.04721642723004394 -0.05798193704620947 -0.0383506515224574 -0.08004794978336222 -0.0463544017137753 0.03944914165565038 0.0258677530899806 0.04513426182013733 -0.09364097844631498 0.07628361872941808 -0.04385678010250278 -0.08715406798064713 -0.03656615804510106 0.008464793948629801 0.08852891764826905 -0.07822451388725415 -0.02465062991405248 -0.026726847516732613 0.08666363829289918 0.04660421775740655 0.09412379244265252 -0.08510751803995956 0.08937513055622846 0.0030445467355744867 -0.09480576734710391 -0.0822991749530796 -0.09619304413578476 0.0658679308122141 -0.094682362433022 -0.011321709018035942 -0.0012272369102588317 -0.06503723953737156 -0.03827512099357198 -0.05684175973361223 -0.02829910638977172 -0.018554280501527215 0.04948076450544245 0.05518115389721534 0.027363969976662485 -0.05204640362631576 0.09139849207410804 0.05641886239857984 0.03920374716118768 -0.08374785370413831 0.09620497310928881 0.08429724876337778 -0.06879683711302713 -0.08984906591876783 0.028703409962204093 -0.08669211161167825 0.07409489721945185 0.06394431842285016 -0.06002068788234783 0.043111488441336325 0.06879246252996758 0.04296745051886546 0.026055911724918973 -0.04729176258986041 -0.05190951144566259 -0.02065933283195048 0.08996952246588383 0.08182718937294262 0.029919418528020797 -0.041224548645070413 -0.055082826057443635 0.05869452129777427 0.02383314089578946 0.08302087054707356 0.0057168844489115375 -0.051865374535208744 -0.09636332591506434 -0.08592955081090604 0.09025469901598913 0.06407628382445964 -0.06133398035951572 -0.09383290470019424 0.08606669327644194 -0.03142118163208521 -0.089586698959757 0.036136934341928405 0.013141166945145851 0.05192106318477174 -0.0774532317070169 0.04426545915356878 -0.03906662001758794 -0.0222165752532551 -0.04054119838986468 -0.08478110655674824 -0.027313914020476296 0.07529775757770132 0.05179500846929509 0.05253163974207408 0.0018490647396800094 0.04272763434133114 -0.042369444119164726 0.019855771531682553 -0.018092824715898653 -0.04321827312711036 0.08301861132956546 -0.041158118923449075 0.002828313193451158 0.06485879141491811 -0.060265018499279434 0.03644421573041908 0.02681099406920988 0.07926309686958259 -0.0451466820172622 -0.08713207173151315 0.040675012451010496 1.548355913013193E-4 -0.06767057429989072 0.07638251939338882 0.08193533970070471 -0.06857362894414315 -0.09054206141995745 -0.045391840943017785 -0.030345303044284583 0.08515599169328329 -0.07052851849147238 -0.03950540720482699 0.011264158279718125 0.022314255640212596 0.026091503945541758 -0.07392274744763945 0.06315501723926699 -0.09275305672638566 -0.005551360959862376 0.026016255099458194 0.08682520154202293 0.031821243116683905 0.009842866518104542 5.375008917630486E-4 -0.04982900317943342 0.0077325743133518435 -0.04114773189290371 -0.04124211133759826 0.09957747721426559 -0.09985037623773557 -0.07003571777282781 -0.04670020193480833 0.061784300356224925 -0.0455957394529573 0.03826535143448744 9.629167609374888E-4 -0.09646478233428847 0.031000473393140902 0.05400029136042644 