0.0744522991749073 0.08373006954335187 -0.027621938061158712 0.06973227893374541 0.0504494951771561 0.07871080908897583 -0.05181935791157156 0.038029899531103604 0.03171856666090849 0.08452023860519449 -0.005184762121983707 -0.04424725823258003 -0.07354860972196461 -0.07244519049980554 -0.01652090037252332 -0.054850398864717084 0.037302454230486996 0.08452682446096706 0.05638983663488802 0.023897849675802458 -0.06787245462830424 -0.06151912973056429 -0.05187234907867481 0.01966185822555264 -0.020336038383758328 -0.09583374018121095 -0.05937660120475811 -0.04923665568104952 0.07354717606280896 0.06984179489900187 -0.08955885858101373 -0.028299731746632802 0.07762888988509782 -0.0925277947312672 0.03969920848238017 -0.08474139201587645 -0.008617998184201522 0.014408177421754842 0.030919055187974453 0.0022192436219608627 -0.043751885904043004 -0.03297506717428137 0.09128652978421838 0.03516996143221778 0.0021036463929215523 -0.009573046790509873 -0.06674446679785592 -0.05530962944746763 0.06759090694299398 0.07820935025477797 -0.02388077359866121 -0.08581459743860416 -0.08111927693846373 0.032399184160649346 0.027119425490960903 0.0739008140061262 -0.061496368943168844 0.036082833442318156 -0.02913998542579446 -0.07483800866422487 -0.04079309079573666 0.019858304018055304 0.0022355694664084147 0.03263503855659141 -0.022635015729581636 0.038134240458097345 -0.09921835222347337 -0.09458281150002228 0.09629120246198515 -0.06756984835968492 -0.03670135753912195 -0.02297894374959451 0.021869084229412892 -0.07378476864182161 0.08679619829634881 -0.01017463008131856 0.06124165261258371 0.069455933040959 -0.07474926242112097 0.09132248774002484 0.059867655630042364 0.030925239061364938 0.03136376250407393 -0.042499266835104396 0.0530737985682578 0.02245948323232654 0.03853218832540801 0.07303586985952573 0.005302521527622608 0.03173127346391185 0.03781181006328251 -0.08215207898589039 0.06357502869840122 0.038739967198152446 -0.03671051943798461 0.038527122792518735 0.06125968733069317 0.09610387879304601 0.0075964219271659325 0.011761550155834459 -0.02594379438040639 0.06437134185803135 0.06371357469268189 -0.048369598520088694 0.05217626213730422 0.010950398051880007 -0.08996334027180686 0.05375589974422398 0.031031807855784157 0.004899922417056573 -0.060608531599315445 -0.07662000391228076 -0.04264250307439373 0.06971520880218501 0.0690634737499048 0.09081619389189312 -0.04220073909251321 -0.008039391986592984 0.06532084714501467 -0.014489071254631745 -0.07304708283079872 -0.07219001861999838 0.06144355070881906 -0.09631818017659621 0.009090185842775274 0.09423461556921271 -0.039668647393028854 -0.010485768919388218 -0.08493037962106575 0.09150957440640163 0.0712217615497001 -0.0734448103314838 -0.07440360477786001 -0.03906307140915245 -0.04910012649598362 -0.07184648493480046 -0.09199239654920707 -0.04896377150355724 -0.006398878380592355 -0.09049607685775647 -0.005313694830749545 -0.06416535024138467 0.05305796315058075 0.03477887720924333 -0.01834841897258701 -0.07951982625128788 0.03985404613411125 -0.09219118661862155 0.08192777768830888 0.03082063065843443 -0.06099410511389388 0.0573211003408259 0.07404171452662443 -0.09284542627227067 0.017458077524515007 -5.254282211329767E-4 -0.08445713556314256 -0.00336096232760625 0.011799097076833766 -0.03796474544529725 -0.0034320765778685512 -0.043807167504554885 -0.03589338980742225 0.046692964234894295 0.02311112829923678 -0.021928817941639384 0.05203530963150165 -0.03746969990556068 0.07189883389665469 -0.0013641196977180112 -0.006966762361856097 -0.009014331646251223 0.09056798134524001 -0.09984832594272054 -0.0382736595442272 0.028864753646705394 0.03186763733557304 0.06530958750249279 -0.07507422821924292 0.06853176372326154 0.00507083584966384 -0.05164799162677828 -0.028197711425392746 0.07694292817914167 0.051818445792598915 -0.031885008191705935 0.07715118712332317 -0.013345297055827644 -0.08340589115813409 0.023764395546571525 -0.0680140329300803 0.08744005935343663 0.05823977285245852 -0.07733792247789495 0.06942531456084987 -0.0884837956320282 0.044482494700035895 0.021758878756164186 -0.03970267272286071 0.05500472373384548 0.08713288868906284 0.02690834642795122 -0.05849875709026601 0.018965355717221664 0.04123020120188813 0.08524889421916325 -0.049931027004063745 -0.07815831250866373 -0.06657980031705425 -0.049073034368563945 -0.08404560222875043 -0.03774093771863636 -0.004233666593403161 0.037925104918014985 -0.057533692381865495 0.09110673218454178 -0.037485744679783314 0.0417042187920066 -0.006172461110969002 0.08033192640820552 -0.06852120826223404 -0.0012629006115329247 -0.06736985348800069 -0.020410690810168535 0.022208511258422065 -0.03990961469302571 0.08726581916762598 0.08089336693206857 0.04324862654418276 -0.07800638601489403 0.04376364363829804 0.09151631372476754 0.04159199611650716 0.06969093658585898 0.07672604147797976 0.013058722504561662 -0.03760346687501911 -0.06949947691727718 -0.08654194713831442 -0.0021667302859473053 -0.061606087581923145 0.03164720802819003 0.025860800374072655 2.257293267453606E-4 -3.092290981655492E-4 0.07968704632130867 -0.08155935722136631 -0.02564395704590423 -0.08698424326455746 -0.03694987557644918 -0.052688188567485215 -0.042555096525900095 0.07374750842294543 0.009012260134111862 0.056744183218029313 0.014131137960481134 -0.09647735234257201 0.05180744360590296 0.0823874517942178 0.07911467081090165 -0.008097667433902514 0.08415444270165363 -0.09751613257086829 0.03290916571620421 -0.09323116666983897 -0.07998391553312044 0.08810387748267279 -0.08352624770290866 -0.017831302578624777 0.06363830679687467 0.019197613001317077 -0.09861657975637239 0.06292404538473752 -0.09786747926005501 -0.0033103299133124867 0.008958727733945814 -0.07217489192325359 0.023087793238538924 -0.040539407838227945 0.036151475182143726 -0.018732187680690317 0.089623942460754 0.02855224332301014 0.022729478323807218 -0.06968833334834296 -0.008526226971948318 0.08582038457689169 0.05620709414998167 -0.01843108413030386 -0.07210189837195334 -0.009734426933264347 -0.03484817495937858 0.04110259837041388 -0.030974175684008936 0.07716540643751175 -0.03831231213930312 -0.08687398182864207 -0.03873091527507055 0.047340025521770045 -0.07315751593467613 -0.03211476053129984 -0.07090848010340196 0.046540319497590875 0.012512223848498073 -0.09128010104783053 0.029872325929952138 -0.003174269499195892 0.005854807250246447 -0.07186893112343244 0.08286253058988063 0.03364632103103846 0.0959586174585244 0.023175470276650446 -0.03236629381584141 -0.019628977902207148 -0.06446165842291096 0.06273017678718469 -0.05922268570028448 0.07836324594484667 0.03855835453265737 0.031833329472206316 0.048847952079220124 -0.043145669875585754 -0.019313700324625354 0.08140611298234741 0.03389296579405692 0.0066237066423569125 -0.03878901911339042 0.00739427032026532 0.08481195927328573 -0.027262404502946685 0.011457958904259859 0.03511777677765982 0.010226459958063119 -0.05923834133744827 0.03193405787050969 0.08981322289094772 -0.02782340946905901 0.010190822683064676 0.07601600951483985 -0.041318331054567475 0.09958720295980386 -0.0027725246159831054 -0.005795061845019347 -0.0653629592786704 0.05811178083557144 -0.011092143891882365 -0.027775451100837397 -0.010985675618578335 0.003563210531841244 -0.03075893711774824 -0.009204263835876806 -0.01564420392542706 0.03164162370810555 -0.0375094486814194 0.03740814645974146 0.09240189144605082 -0.08182572580213958 0.03654763488795292 0.07135564759664005 -0.07892793180683651 0.011708392573552762 0.028594727509492695 -0.0813166598411131 -0.043412059245691074 -0.05582554500419524 0.03099004054437945 0.031414434579918146 -0.061480468992600734 0.027177268897899304 0.06520881920296699 0.07973948334925103 -0.019792221769465598 -0.03503456877233895 0.04359652512821335 -0.040711195902419395 -0.03553424180975747 0.09375881876107446 -0.08258038541675636 0.06701901858649707 0.0041082001040846135 -6.652194760925355E-4 0.010870430208452419 -0.08434126536880045 0.06567265826375313 -0.05978565984987095 0.05293203856032693 0.03525631523638283 -0.013337549300971568 0.0805311788265114 0.07753847722306148 0.060877406770000635 -0.0963438413441438 0.09493451973412084 -0.0011926308421638032 0.026500538464674723 0.004071299956095139 0.06282638774368203 -0.08589762601701605 -0.02683801418440916 0.059240782451696915 -0.05022480888929889 -0.09671302754127342 0.007407592104765214 0.029733358154988055 0.08562861965314882 -0.017648678636156535 0.021833282689139866 0.07234879258023251 -0.08879180151923476 0.004368012436221224 0.06537414517454802 0.029161590353716123 -0.01734889707604548 0.07622427425935943 -0.07545629636599308 -0.048100179239725045 -0.001860419914960791 0.0488506853654851 0.05691121426110605 0.09232863186718455 0.09338263082104255 -0.09249241082992932 0.08495677575394343 -0.07531122447253795 -0.03364903208866355 0.0040712854229413755 0.03133312630333578 0.03365430666610341 0.008273893099074774 -0.02433627532483899 0.060006701805276584 -0.08076551812049508 -0.10267302568205826 -0.08474014205812297 -0.0022390332367186864 -0.09333801397461851 0.07825996714549434 -0.041384961483183866 0.08834678278514525 -0.052703551219413516 -0.09038605494082837 -0.01466138914710477 0.0537574395482405 -0.05776077875174672 0.08569514660172635 -0.003535589761409779 -0.001856650181230139 0.010465721279290054 9.634757480212925E-4 -0.09993573537195297 0.004584166542382381 0.07212723976649048 -0.032427775275224745 -0.05611589355108327 -0.0235762296187406 -0.09390395289493579 0.025296702216148985 0.05898387551553473 -0.09534597765033932 0.03735944514304835 -0.03458886926212174 -0.05634259110164488 -0.07405745876838317 -0.09274788327804974 0.046389876680617614 -0.09380676640233344 -0.02008934799723205 -0.06406528065369936 -0.04796259306156663 0.05437661853908562 0.03781202829543436 0.05269694333591706 -0.029296514102686657 -0.08986038352726457 -0.06728627167007546 -0.057505627070617515 -0.02329823351778237 -0.0434379406505866 0.039285267880439005 -0.02731743240737194 -0.08073791371052755 0.0844864681122976 0.0784564502847806 -0.08473828891289063 -0.045952303448582754 0.03752370718626305 -0.027723535441513864 -0.002981755637744024 -0.009734692403181616 0.09519519869340697 0.07914198936124424 -0.07565970020780977 -0.023469801645947273 -0.07332663154975833 0.09595561649275086 0.0128067665521737 0.03319313625498257 -0.06196190540774636 0.010716410789562224 -0.0273822236073378 -0.09695597524281285 -0.09565693318361705 -0.08675357728466461 -0.04097434094266827 0.04254435050865716 -0.04317815557832616 0.03773063648694153 -0.03173730736276634 -0.0019181377565161116 -0.05327641460565593 -0.06939579795305692 0.04124665873554071 -0.0076387273468112495 0.05785550231283138 -0.08073472587565744 -0.045482159851679325 -0.03227672030731897 -0.06889617479664484 -0.0913145810211153 -0.08522165904834232 0.07571921977953962 0.012512430023016198 -0.09075891386896517 -0.022194055655505012 0.07740378286121803 0.06957313136447628 -0.10176522816829756 0.0014566693576961462 0.08233232677685783 -0.007440272699765112 0.009973233513641454 0.057146778836698775 -0.006317708262328968 -0.0070628716006366065 -0.08193110653992224 0.08821267612335217 -0.06333728747648137 -0.06808030174276884 0.010138413378272414 -0.03676871118064509 -0.05838498169593115 0.05924448709267291 0.07812313758760177 0.08271835463568919 0.058675495935170484 -0.038824145580694615 -0.01906693420004171 -0.0374232733515046 0.09230374736169074 -0.018398903938420096 0.07541668945560041 -0.05841981681164286 0.060939675485885594 0.007036716465666743 -0.04269186718412464 -0.06545561820281838 -0.08889097179820342 0.08760944695497215 0.005277973393426954 -0.0074837217144982735 -0.0551837514140182 -0.09651450336308295 -0.02057607116435636 -0.08203261239427857 0.055408655352387697 -0.01962061327474991 0.08972487701260563 -0.06783500209705813 0.009407896939424586 0.007898003470185787 -0.07950065925554359 -0.005399519894246956 0.06044762577014572 0.02093112431384771 -0.026332398857370733 0.034002270112717774 -0.06366089622212431 -0.033005077692885416 -0.023375705437116378 0.0662813911423266 -0.09858071689298262 -0.09861982509407398 0.08978616557210135 -0.05317223729122723 -0.03628126156324963 -0.07284760994660466 -0.0556124734498478 -0.0671041748114256 -0.029880438713735646 0.02849621592201067 0.04285372880846113 -0.0836117214996225 -0.08744372811181063 -0.06640807715528539 0.06209075028144299 -0.07183285797597924 0.05444546604344013 0.08715695996755436 0.014286931401964083 -0.0879084641124642 0.07891284413876008 -0.0870189758366517 0.04033050263309886 0.020302002226528244 -0.04098095597515753 0.003228272819421347 0.037704580413016324 -0.009158525678276509 0.055068449848234384 0.08397567652495984 -0.042271053605769424 -0.06547680258985554 0.05521809574150812 -0.0245981542603855 0.04627584731563102 0.08002644851778713 -0.007013526491928471 0.0902359474222972 -0.05240519037939451 -0.09547904356848348 -0.10110512547928394 0.09552160102141029 0.04263928648529199 0.01169145549070185 0.07205212030930898 -8.586824115543183E-4 0.049991049024978446 -0.09145077967020801 -0.09724073419683035 -0.07437458612888921 -0.009130825978937699 0.08862099633311145 -0.007805604763845087 -0.03143473276505243 0.06281884169765255 -0.09497344628313882 -0.09046382132916642 0.059061765629408375 0.08909879093976354 -0.07780782921241972 -0.06389820021096719 0.006669446968921326 0.04812815446849425 0.005101901044104308 -0.0653927178711965 -0.08435845038922063 -0.09598904741995654 -0.0955417374139222 -0.06009221247974189 -0.05465668701210753 0.045530848088286946 0.015311148741950104 0.042513090444012025 -0.08354897274867716 -0.05592834913033751 -0.027411239465743104 0.016056143315744894 -0.047750486976667283 -0.05107346277155765 -0.012215252147989892 -0.0739743730783059 -0.011713884389676214 0.052717100863003935 -0.07187397884101475 0.049455953860202434 -0.01616537574667084 -0.019849156624590084 0.09286598440237119 0.033901293696462775 0.02506767487371805 0.08010379472500777 0.05091828422188166 -0.0710973009757543 0.02253180803367077 0.03402257575988207 -0.030133500930556088 -0.06570950894000532 -0.025535691072788972 -0.067101875993872 -0.011544537289270013 0.02704670147250962 -0.0073134087275747535 0.020571112823877604 -0.03700976589979324 0.052085219526596394 0.06925395923210965 -0.04711318224804939 -0.04736092510010881 -0.0078098036212294 -0.100262946436522 -0.01977482299242854 -0.10054290649789391 -0.03151408651586187 -0.027044501523821696 0.025189382151289904 -0.09398253074106865 0.06519426301751342 -0.01282034774415265 -0.002255687388143273 -0.08314241164823326 -0.07893122609570438 0.059261602742461464 0.06685390102510903 0.0695176487058236 -0.015223142233795518 -0.04414805479726179 -0.009325736011144245 -0.10323036150916853 -0.00736514955029521 0.09478977957445416 -0.0034135215035396215 -0.06632594613085331 -0.005531123905061778 -0.05995088274655018 -0.10190680402058548 -0.08834547298966583 -0.07289227804893163 0.044783292290391435 -0.06338831115616933 0.005601605634748277 -0.08539008809500392 -0.014894033723179363 0.04553043632125453 -0.05783637747963849 -0.03913844127277333 -0.02900818141924501 0.04679710230381037 -0.026903834012053252 0.09236366801380937 0.02068115052709342 -0.08861136465971303 -0.028583930146258534 -0.09252695123935405 0.04178745255539456 0.04288146068414755 0.018945850775924533 0.09349729302364217 -0.025316492306754507 -0.027809503522387667 0.014954917793958281 -0.015429266156763951 -0.07659417023242852 -0.10150235446572968 0.06642323870563704 0.04897761597928196 -0.07766604749154796 -0.05116216415906849 0.08944635366010313 -0.0790515146135341 0.07250209854648605 0.08310332049669804 -0.010712357684652249 0.01914526100017405 0.013999632035729138 0.0350736694586344 -0.01697582803697338 -0.06806403781434321 -0.10036917704101561 -0.06550260892360779 0.06628091428025926 -0.009327977535879958 -0.02141826624727931 -0.07071837905204514 -0.07010274776801671 0.0010627008268592416 0.0189387760417149 0.015867494672373576 0.010913815083242578 -0.03659237926655365 0.04152731133444121 -0.055183421452565926 -0.05659279015391992 -0.04194537717152798 0.06745269414862214 -0.02814975046275298 -0.026931969706293652 0.05661098226481964 -0.03562651604579063 -0.06546219348558192 0.029495436973637035 0.08972289733506142 -0.009524240153344236 0.004350027556001221 -0.08451581192778138 -0.028229136343397795 -0.06768047944919511 -0.011387879569268284 -0.0855178910129555 0.07194911964927739 -0.01608643596327355 -0.003596588171375648 0.06486117910517006 0.04208847017431207 0.0935748483588447 -0.06000695429976356 0.007099545936738669 0.0555733356448434 -0.10075514979600193 -0.0623838724288039 0.0020919582223290012 -0.046359398506190086 0.014629874347597474 -0.028548310630679325 -0.029302219826381135 0.021626696279497468 0.0033413901809223375 -0.07960813670647048 0.08741866831107922 -0.009417538214388428 0.09723400171227847 0.006153458392122939 0.06335389295467393 0.09382410073158995 -0.034919844881072234 0.08486341645188078 -0.06150228203352665 0.015234200161709795 -0.054017376945748916 -0.10221541428340951 -0.04934576864225121 0.038926340310589225 0.0856054293365253 -0.09851433684286463 0.012531598567420922 0.027146368895307 0.08289080283763024 0.04121522352679213 0.08471156963750036 -0.00228893057457289 -0.0019461424385355968 0.07946426705149473 0.017681706860798684 0.0571281730048249 0.004126550418474987 0.04744991724082975 -0.0151562056724873 0.08176937502123643 0.031556440623833164 -0.0925684044475192 -0.08103274444119059 0.009554780721686694 -0.08622530844766645 0.045760639770450126 0.05835258990751608 0.04016910781341998 0.0536720087136183 0.08285726680715023 0.015298870454091335 -0.005788341001227962 -0.08794080461290509 -0.018998396769814806 -0.0014596432357814903 -0.06397989190014262 -0.09928583973284508 -0.004577685819687146 -0.03366210018265294 -0.06293130341463125 -0.06724217870688394 -0.09085369355001657 0.07197842384272236 -0.10034657046548551 0.03319114030551716 0.0602576088091389 0.021041559886241755 -0.07979164499639674 -0.0421943575563058 -0.019200595717591883 0.053977689465062095 0.03252564884600668 0.09043659930282219 0.0936452646539268 -0.055005319935016034 0.021819923181432967 -0.0024941425969351163 0.07362422051502414 0.020903105256931755 -5.90047186040471E-4 0.048661970048792885 0.005712703226399682 0.007098730016798488 -0.004797686110832139 -0.04799663255829121 -0.020273016135097712 0.050067457287093595 -0.0896364103998918 -0.024823781524388744 0.06285017226440956 -0.08674241120690242 -0.05709926322312888 -0.0708595103969859 0.010973368803231144 -0.07476465437300867 -0.09149762000541554 -0.02701797962530308 -0.06651470899970087 0.04392896318312636 -0.05973226444442266 -0.06715818215297543 -0.06912605720465946 0.05422941961230404 -0.009786364641352038 0.00892060730225243 0.0448966402335009 -0.03962296274622328 0.07733432286602882 -0.02267236379604614 0.08715161511801466 -0.07062425062239432 -0.05797039972889482 -0.07656927242399197 -0.014887192802675062 0.0142158373268742 0.05945655671109773 -0.06790796452962976 -0.08603172417758463 0.03242789416348373 0.01619448415488975 -0.0042862631402359914 -0.0558731713183044 -0.06643035280683825 0.016355696733661978 -0.03638691967926459 0.08996131430324221 -0.08682403639483822 0.014639601080234413 -0.07291541570874514 -0.09922839501707018 -0.040953594470754515 -0.002194551431591453 -0.0030333912705643572 -0.002968645519761192 -0.04651504682922505 -0.014830208165587852 0.020704732900104786 -0.0466694775194333 0.04028644158334958 -0.0030769150967071097 0.042633817889188415 -0.04156717204679007 0.022265748131049253 -0.0669803935979948 -0.04514793794296057 0.03396579304554059 -0.02464539617622603 -0.067534773361936 -0.011238559128958511 -0.09334930087991913 -0.0729513927692463 -0.062226592079385634 -0.0749873910394131 0.005773529394040855 0.008418280858684972 0.005620437052805821 0.07018482764826828 0.09233763619010929 -0.05719869821945985 0.08493477924219753 0.09840068663567737 -0.09357636501239817 -0.10069791365172401 0.021494668337525936 -0.03830472115619591 0.04179251763553823 -0.06466725406566108 0.0888807742962106 -0.09386824719284197 -0.07211569820790194 -0.023933122221528314 0.06720545202813195 -0.10029044181314115 -0.021319972688067863 -0.04653275065814132 3.171916275629674E-4 -0.08850820060141676 0.07532986225513232 -0.06320209799429002 0.08919576450357476 -0.08145895158567287 0.04267648216467581 -0.07601554508649046 -0.05354586227740967 -0.019478262952029413 0.0525496141409534 0.08443786238692719 -0.059661320529275724 -4.329116242358319E-5 -0.08140148563453313 -0.08648568595957101 -0.07104314059454388 -0.03658903380544384 0.04326733458497732 -0.06634668330975915 0.0266692479655369 -0.0033007012342945534 -0.01692567434832389 -0.019382961877444788 0.018153829750619684 0.02075297189133773 -0.04892156057052288 -0.008083112634410446 0.008856913253653191 0.01206521560754084 0.07340210761937475 -0.015991432067980843 0.0297362243387958 0.062043739038797015 -0.033294228380926355 -0.07079525972217232 -0.029008100570303393 -0.015578408095916924 0.06212379275194445 0.012044750072244686 -0.09176912695660419 0.06747070283329368 0.0827560073077116 -0.024738252111984618 0.014463218673114503 0.07409839762631198 0.06073202747223052 -0.05455581319344209 0.03582958942864942 -0.056326083162932375 0.057581905039166104 -0.015092580970556308 0.006172275774993502 0.0837366315394485 -0.06913291727420716 -0.09179987414372273 -0.03569640202553962 -0.04870786777103885 0.06496937677229438 0.04930641365532757 -0.0558543306387551 0.03774860112539296 0.025620366144359797 0.011850407909708807 -0.09524298447134859 0.043442381599845356 0.014243086845460927 -0.08468660667956757 0.09338497789607075 0.008382978286955275 -0.0664503040211245 0.044908804939435575 -0.04493669235522918 0.06651440533780763 -0.06887529900739897 -0.06580224434490066 -0.014464334610330516 0.06503702621024011 0.07101080552949939 0.041724400395743766 -0.062193781914039556 0.08041241677512434 0.0664761120592172 0.024122867043299474 0.05229217521685903 -0.08510195835925331 -0.03149651092632596 0.03885760653684894 0.07789419357844989 0.008452589623519595 0.003554212692651315 0.0445755875372263 0.04316048630167988 -0.05428138647606971 -0.01757753317172166 0.06866115328921459 -0.09091327621806472 -0.01795895081573341 -0.07081372890534031 0.011666089554661958 0.014127210310519495 0.08174053372467953 0.05778946168706381 0.04509130492330238 -0.007741852313019239 -0.03813948188580303 -0.09046785449117657 0.06744504971013085 0.07328440846560232 -0.05530087728116806 0.08531383145143868 0.008670739393616194 0.043905223940571225 -0.013435512186404082 -0.07015855055298942 0.07028676271133716 -0.06271222045012809 0.033997253464588505 -0.024145658710216265 -0.07034895111545635 0.005460548838114144 -0.012612853343809925 0.07919868469115154 0.04339640420297858 0.03633959901706463 -1.7966061081689687E-4 0.004362419596746436 0.0740535761701127 -0.007603390046242882 0.07607213457629101 0.029581427369427114 -0.0839584213676331 -0.06268891507805975 -0.03328779476905997 -0.06699747262900639 -0.04302223355331028 0.06334547693605218 0.02691363951756544 -0.06760297888691806 -0.018832096044989102 0.05272925403866262 0.06483025530967514 -0.014250021073132899 0.014266761480993791 -0.09491598783930855 0.03652017308083812 0.07468736306919752 0.06736112757919627 -0.05123662780670682 0.06130892330687823 -0.059335176065584236 -0.03943784226572093 0.08991700725073477 -0.0023603015561428197 -0.049876546142493094 -0.023802438788616768 -0.05514684673754151 -0.04245410343188946 0.06513122132818472 0.012168659076981702 0.050927660985902116 6.562800995794883E-4 0.0897649855432463 0.011460495210897937 -0.04069278515226138 -0.10162497446210463 0.05759440924171422 0.04898066964673163 -0.04001271676755863 0.05346365339834964 0.08013398360140654 -0.09957596946567485 0.031808581604830063 -4.432430215750701E-5 0.040953339022887114 0.022158546459110275 -0.0459028182685408 0.027123984800194484 8.800719671297353E-4 0.026519807307653267 -0.02482427196391317 -0.0712192711352621 0.07110414695345543 -0.03947875270702053 -0.006588449756042908 0.0934751691740452 -0.017753781046859443 -0.040264436855817695 0.0725289926763229 -0.06545050965405215 0.0892481464490488 -0.016796552882511327 0.0888808527070311 -0.01393395171794941 0.046604086143317555 -0.08280791712296516 -0.015844455962405874 0.07652562713422818 0.09491877432791336 -0.02285893096521591 0.08994070269172773 0.04286826099290958 0.020668061103141063 0.03412027278403873 0.07468260293322083 0.03897647085847547 -0.0367029720773278 0.045444327410640334 0.06916212418653357 0.056221980167323576 -0.022784111641203687 -0.021341039948433508 0.027395945856006996 -0.017328287826582207 -0.014277848605534755 0.08393444106323607 -0.007246735951068752 -0.00232090911300027 -0.09571221816173317 0.09197195862179348 0.05589735918393571 -0.07641695045403951 0.05595936982259897 0.09284886982481573 0.014926076782639025 -0.062305271358862324 -0.046611024337403675 0.08579923613075895 0.07795184965109979 -0.014552914867919818 0.0800214048653597 0.08074622041258035 -0.01550559827250536 -0.07047205390366283 0.06722126904366464 -0.020526610659136763 0.0644423548873015 -0.079987573366695 0.034631175113635365 0.06764211134135804 0.0019725668757949524 0.07695584007337396 0.037810042186117054 0.008432716682763979 0.02669902256697881 -0.060396363085955335 -0.04979153691734711 -0.05559274244666193 -0.08454431081357437 0.05532017469012476 0.09579583289003656 0.08626212064227966 -0.04449913522422806 -0.04346662766494076 -0.05583829190391004 -0.004540993617110434 0.09356298804455325 0.005437804745558549 -0.018328278602000512 0.05229309433459034 0.07503104650050284 -0.02610613327098148 0.0802662579153438 -0.0582224159583658 0.06372531601088303 -0.030093897163126677 -0.10025226696781304 -0.013205973508539344 0.025066993387590854 0.022259115384486963 0.07991029946297591 0.011278282751676654 0.05409821605767537 0.09133464809109453 0.0056235732204170386 -0.07421788652355228 0.03468664175067018 0.09160228413501605 -0.03423694656520979 -0.001655739413623579 -0.0678449641169964 0.04680781075882389 -0.06727571843180151 -0.03773855503823929 0.0055454437478098025 -0.07568058412039681 -0.06499368881959851 0.0909108961460275 0.049601230768497866 0.009469268116021803 0.08003981667396838 -0.06272166459323253 0.03936505840043277 0.08549125558246569 -0.09048886798685864 -0.006266393525557327 0.05349155933380347 -0.02163977309929432 -0.06654959934829834 0.07442570729867508 0.09451571183140146 0.009446990988747364 0.09327344761510621 -0.04059712427954871 0.006364103069160892 5.75216948927371E-4 -0.024048514861833372 -0.005639694675669922 -0.06049411769526513 -0.061238232642986855 0.08449050047666921 -0.04426161940144551 -0.024727136826827364 0.026867259569126476 -0.040839923148065456 -0.037035343787835996 -0.01173876168987606 0.02157894720688085 0.03941906660032909 -0.05204684820411234 -6.400470878318927E-4 0.09159341629841165 0.05824354466988876 -0.023455314548293384 -0.04816618003100805 -0.08343822720116466 0.06857009345695216 -0.04260748955991402 0.029022072554851067 -0.008694595557475149 -0.08417458111757199 -0.029132312835534437 -0.07540392778785528 0.10000570524625034 0.09102102420737308 0.0038788965071391143 0.07495243600850056 0.08151641509129072 0.0256495419296956 0.08607189997832727 -0.03179900391462457 -0.08035740430450918 0.022627068026450124 0.08869393925148718 0.05533944419781347 0.06117551144519901 -0.043216245167452615 -0.030521129022851232 -0.09341033259697006 0.08966806827237968 0.023912602605922362 0.02522899233567458 0.07950335030859253 0.06438075357574995 -0.030855645059045398 -0.051660060446123125 0.09532736377391236 -0.02847675510109973 -0.016575958311151818 -0.047066319070447796 -0.0624294423215802 0.010180749354413848 0.008417571081291271 -0.06083561767968094 -0.036834085738485046 0.019537039427729393 0.04690023126358906 -0.024019753608927927 -0.05018699602869358 -0.034572757441924805 0.022814859550825527 -0.06797050463996622 0.09276248146116282 -0.06010053019575311 -0.02398250115625287 -0.05778398903635224 -0.02040439831813019 -0.03472437179295284 0.016596248719481854 -0.08193708863955858 0.057239504132415374 -0.039970166907260886 -0.04208427631106785 0.013334888604306256 0.056753981456293845 -0.038289829802966205 0.11142610709402385 0.02046216140989584 0.04236626028600465 0.05234995028049025 0.04313000550977061 -0.05613633119500906 0.05255067330490791 0.0518069979139223 -0.08450283876792773 0.11565541572565434 0.043299584985111036 0.042272568666898366 -0.08182906364402821 0.07180662969348696 -0.07210942160965265 -0.008879023307364724 0.02241260478516272 -0.016324519227207176 0.06266145676283362 -0.0037703781884306305 -0.08666558024541228 -0.03299423979648636 -0.012626900279235947 -0.07524929644015017 0.1544296779052826 0.18162491237213615 -0.014296996841233338 0.27182146992865663 -0.09743626215412933 -0.10157255531176212 0.005451721746523859 0.025364959673631334 -0.004809991792975613 -0.03117503943675536 -0.06354141547983884 -0.03592912794034036 -0.07724845385686904 -0.06875941265576464 -0.07317777606275856 0.03417566796307494 0.08547991068677362 -0.02691731214573481 -0.05881083409169368 -0.08998510706563582 -0.06099494096177593 -0.07868604735518839 0.12663928909751393 -0.02792567309155662 0.06589970902929426 -0.07079007135437283 -0.0041473999958314915 -0.04917773155138091 -0.06405899418011603 -0.30067201345904027 0.029662885793192314 0.011887882420916495 -0.06662333289056344 0.06201666040583609 0.10769840461427846 -0.001189751018839708 0.024758028340181298 -0.02251734590409303 -0.08883091925482849 -0.017951684796123944 0.030502323681517573 0.0870021226050723 0.09382441074779811 -0.055260391805611465 -0.06149171741795772 0.015099738476270823 -0.02739966144637801 -0.0052114825522186214 -0.03315459863964066 -0.004641732118644441 0.11750135134868206 0.031153416186624466 -0.06692815769997953 0.1060355613276325 -0.07505273639316855 0.09840335825803209 0.13030183539597684 0.08753483786012127 0.06688520917258779 0.0026531766210317756 0.06417093380236404 -0.022254318104806114 3.0979691910460605E-4 0.08505701566142308 0.09780934377924715 0.036487403550844004 -0.015981891048129745 -0.06564946286776367 -0.022250695772381392 0.03260987514897481 -0.032178780605189305 -0.057096967996155754 0.11806681955032283 0.0727149174015122 -0.04225706617230101 -0.036453621984491404 -0.05648268820001476 -0.09257392263689268 -0.03388573517322961 -0.20226026256991436 -0.10858448675080493 0.06489666460246964 0.03621295766620563 -0.1564915267885178 -0.13964480961488343 -0.14564230214916746 0.012807370022284163 -0.008885388391178872 -0.05537078690974366 -0.028227575331629475 -0.0905779293470498 0.024139925203605018 -0.051684340644748035 0.05410170308573744 0.02620708095333975 0.05103670413588971 -0.019318735905402513 0.008596909217266574 -0.001562417640883059 -0.01176735332303025 0.07004762420003283 0.03451009251489521 0.055096723685892704 -0.01309765911091348 -0.004866562203807373 -0.06602355859989001 -0.0371110237392079 -0.15543221513916855 -0.15014924736911242 -0.0983844410058915 -0.03339030316019489 0.023707634890228153 -0.00926014961330789 -0.04099628405977278 0.037872839585044525 -0.029532633264403713 -0.04435444659531646 0.06853938804056071 -0.021129001187480286 0.011393877310805642 0.04704205956503839 0.0868530627249775 0.04518438253490974 0.13929567969917556 0.03161774429452585 0.033720899096904976 0.15242035950246252 -0.06968302121766896 0.013044877189550164 -0.058414795299361076 -0.17428330473895604 -0.13062082353969226 -0.09254451886891531 0.02037689479792281 -0.06438798029991462 0.03507139920591906 0.08075671105604347 -0.0191492891161952 -0.04027934009307514 0.04173234888407908 0.01026816331665957 0.003471822925496413 0.054281199869003614 -0.00895040041045633 -0.021686854205402683 0.005458933077592192 -0.013681295576481635 0.059090186569408565 0.14392827276353815 0.10500206660782148 0.14568619819817252 0.10686405917397021 0.06458162946873511 -0.06345896814445827 -0.1542069675181408 -0.017700226050253943 -0.0655977751491869 -0.20292579270786587 -0.020704764900892684 -0.07420548438905178 -0.03433473017755395 -0.017783909515770024 0.027659553388955947 0.017430231722924076 0.05620387913427235 0.009270281696736701 -0.07442242006977816 -0.004294991880009796 -0.01952908921182561 -0.08909825769995737 0.022903840751965502 0.05132209843503712 0.049054391968778685 0.1153039064611108 -2.8036388548593815E-4 0.18009506481178963 0.15042081852668174 0.17777834446199656 0.05544183407852971 -0.19068032485211706 -0.2513972251863404 -0.16201869244925926 -0.14786998821517724 -0.009625008931419246 0.09535160869833305 0.002521913135760139 0.13262635826730299 -0.00848564313434096 0.015457407754593911 -0.00942111560215651 0.021783025456349723 0.027656248266077658 -0.06067193627693907 0.059473073107334844 0.029201965215770603 -0.042223976277049886 0.09024739452672513 -0.03678797930933986 0.020097328747301198 -0.03966699605058521 0.021115177367429808 -0.012993380666744584 0.10808833561570932 0.02604482862823213 -0.04762469539613427 -0.0060154568012648875 -0.028473556313784693 0.004127473770397168 -0.008708240061926841 -0.01968261454592849 -0.04100407368732035 0.09211974945952234 0.006358506570462295 0.005908720855142064 0.0034539446592094223 0.09487141381373633 -0.024911921880196707 -0.004893011618205325 0.01587806117457329 -0.09538359332803666 0.07935331479165926 0.01201494370508167 -0.0037855510349917793 -0.003781448063440655 0.06546614975851851 -0.06665446448838479 0.06150457133438556 0.19441076209385819 0.02406890979158477 -0.12114355180400926 -0.12570750315902107 -0.045562756939828176 -0.03963247381944712 0.03331065388940899 -0.05489238515299448 0.0864787650050897 0.06308911312158098 0.04556358333497652 -0.08444338424162724 -0.016387755349151465 0.07930909559546255 0.09064161713122086 0.039607003723058 0.10128435703411774 -0.02242980275923589 0.011195492973833335 -0.007279131147056837 0.07929548189239415 0.004216799126526616 0.04915200515610254 -0.0935372092491984 0.15524446170213385 -0.028161114763742986 -0.031428588520816744 -0.07532719788080255 -0.0210114020100221 0.08982264823779965 -0.024012020865754193 -0.10350260046206722 -0.108014285926766 0.02652612251859673 -0.0024608986644932313 0.02150372249021515 -0.044355149973554164 -0.06126739658614266 0.051297197519161446 -0.025863807088900303 0.025311520851322312 0.031507015737810735 0.032582364329785334 -0.09014768560832066 -0.022226351795188202 0.04550254855561236 0.11966749312378777 -0.09954233060352752 0.16307508712048976 0.15687687947008783 0.15574021177225933 0.06570111206940041 0.014935088994598675 -0.004494628923944388 0.039445873560738885 -0.20012066690700203 0.010985587711079757 -0.016464469217446605 -0.0651786700710299 0.01376786504864409 0.016346221434515973 -0.09940436404410867 0.029006169955579895 4.734445386432202E-6 -0.07710309800363539 -0.09385241039752086 0.09310962560912346 -0.09527366558716481 -0.03372812369193751 -0.05803434979014339 -0.02908785737715521 0.019034084654978065 -0.04731936927128909 0.2320999040773033 0.13248209441424807 -9.219371238850456E-4 0.0299334120171384 0.040895856594632386 -0.14488444206696216 -0.03271395517994707 -0.09703303207859712 0.036808823936147886 0.028403167686103632 -0.03099612876239344 -0.039930717201783934 -0.08051665956933604 0.04590259065602384 -0.038928264781146284 -0.043221153737107894 -0.037437872390974604 -0.050341134958496854 -0.08177453820752408 0.053489884362167055 -0.05346215095350609 -0.008062410576850773 -0.07993143072203641 0.05958864821011578 -0.05084427569091211 0.10218532785967407 0.28024425518178525 0.12667698665679894 -0.08036757900738337 -0.10886827514426511 -0.19988875276497328 -0.025823626930187343 -0.01829001950186874 -0.10301394869670805 0.11710053618384823 -0.03050947098909555 0.07056209879215614 -0.09748243864960654 -0.02008910505152003 -0.0098456321560785 0.0029334290097918635 -0.007078483909496072 0.014226564508400666 -0.004569437211614801 -0.008757851686206651 -0.0017084144008869438 -0.06361707881652497 0.04280336297112047 0.07686600336273315 -0.10942204628399912 0.039089495952559165 0.0802969176807562 0.11318793781856144 -0.06640778962359391 -0.14149763866997417 -0.3218961189034528 0.024386460119032876 -0.09270517891614401 -0.06275376690993419 -0.04390075914988179 -0.11057887453459313 -0.08795003575510965 0.015207400089596004 0.042453100341648425 0.06539997683677641 -0.09573562193403491 -0.0748171060064207 0.07383270810584024 0.013013036852070184 0.09158976800891606 0.03609689772705806 0.016706770285171955 -0.08214668919588802 0.018127693821788162 0.013491401351964036 0.09186381321478297 -0.019743365426201365 -0.11396870226444358 0.0812874833479314 -0.09032843378930867 -0.0934254001939203 0.0786084104784868 0.0052717377223972265 -0.03564487843648314 -0.07259696131810357 0.0482891589898854 -0.1018832104376554 -0.0547041397584134 -0.1017268015471302 0.001962784351791634 -0.03645875186279935 0.022024959955194757 -0.04460015744639099 0.06899816605287208 0.03273842992805467 0.09628450272977322 0.03967547166286805 0.08343148329056106 0.08998231050017154 0.06354840461938012 0.03178943697351599 0.049480975085780664 0.022903668086710655 0.014784351157820008 -0.010779094075429468 0.0713477144338861 -0.1839333437280632 -0.09816856725406614 -0.09287243128085265 0.06225007061675467 0.026703430971763895 -1.364720526026278E-5 0.023840469918646332 0.05414519999569311 -0.08089109926809489 -0.09227184539636145 0.03595968343011199 0.028136094455652187 0.062294765779799845 0.015224883985552645 -0.0068081549777559616 -0.07081428649761652 -0.07903568921791547 0.027652619807097104 -0.03460625235941683 -0.004115013460785227 -0.03273340079726784 -0.087202435037312 0.10281146857221873 0.07168540200770385 0.02680533661961274 -0.08714645978279133 -0.0027859298747111515 0.07557308572347664 0.07241349651449154 0.06412055347517702 0.05204465758084786 -0.01420699566972767 0.013463948262819138 0.0366707343431328 0.08124337848517706 -0.0964162462787141 -0.019675932270036302 0.014210685262106563 0.07387181352882798 -0.023431519542033995 -0.06817254423226578 -0.017404819211789293 0.04264446187372655 -0.025713970826209503 0.04848368630739305 0.09207142222754296 -0.026380172850558183 0.001065872443351158 0.09779110110829946 0.05973873216447533 -0.097548755930307 -0.05796942346710301 -0.03175620712418258 -0.06434163169838243 -0.06547932800243976 -0.04286079688096176 0.03250288363141093 -0.00813913678809177 -0.013011120892994318 0.08240862819920376 -0.060261730199569284 -0.04948325117775434 0.0013032545601248467 7.700698597835388E-4 0.08577965110468373 -0.026018115330389332 -0.04853761843161176 -0.09541157699441939 -0.03540135754478318 0.0021238325671761467 -0.04365584351336078 0.08769224794297766 0.06577649953028471 -0.058718852964140415 -0.0063377259504430235 0.07683268926777083 -0.05000522344205972 0.08440262174046771 -0.09137651796334108 -0.05919019645499921 0.008219129666172512 -0.026640992497405255 0.012115998350592627 0.10007517197542219 -0.009870787204961061 -0.09788510178187788 -0.03020944072399838 0.09896328692941977 0.07200383968232055 0.0019172060574186717 -0.09201020391467483 0.010110910652594174 0.03698975148129641 -0.03981164264487572 0.051980391170442286 -0.03706506142323267 0.008306094245377843 0.0502485874144111 0.09038197460156067 0.049291145875733106 0.032501232390631685 0.013368675490631657 0.04101285687912598 -0.026424998216470222 0.06932964593336263 0.05191819170713943 0.06363952163400641 0.06760494387891067 -0.006791518438223537 -0.051421440210811145 -0.09971174005776454 -0.04138743359040305 -0.07549017700249289 -0.002300750176975813 0.07701173877264031 -0.08528901335014423 0.04030409460278728 0.07404736584350066 0.05901122217502194 0.08303311925817733 -0.049697006354490286 -0.04185384749396892 0.015272784152693869 0.08280172274481912 -0.03386705663846144 -0.01240669365534472 -0.08061613587953519 -0.08108637345042335 -0.059296915445214676 0.010195285185517516 -0.010045813709553417 -0.058809404122277864 0.009314446465973639 0.0774490999367907 -0.04292707328505783 -0.009730175156962395 -0.07471010884219427 -0.0641516239855685 -0.06950812468673467 -0.056822794665865754 -0.04971280885299392 -0.05131416224796712 -0.05926796485558059 -5.302115324909429E-5 0.03309034137522432 0.012469631389457489 -0.0739309672282939 0.03722149758029397 0.0905571771707725 -0.0802337963099698 0.04636043476370871 -0.004414643639489554 -0.009465993652242169 0.06422787436611715 -0.0810640334008787 -0.035541708161761096 -0.07106909025148814 -0.016241650835760013 0.0922793508824751 -0.01830837634317342 0.09178410477913887 -0.005785023367303396 -1.1662261436257149E-5 -0.025416604540547574 -0.001985380298646436 0.07874166119730364 -0.02949266641701985 -0.06515251245910787 -0.07027474579202408 0.06677177412403446 0.00738486006581196 -0.05785743134527491 -0.025739172682523445 -0.03806432160593314 3.15717021497422E-4 0.029086773984169978 0.025889175587699653 0.059552785251248574 -0.021014117915305747 -0.08474545774142624 0.02484356245159222 0.03208340112516178 -0.020254447111725596 -0.07152778258206707 -0.052400322491877455 0.05486092629878367 0.059393973513652665 -0.021200623601876772 0.00464338428852365 0.09462024001889463 -0.03913281526912185 0.05390320571582108 -0.04938189889418396 0.08978351167241991 -0.08762218651898523 -0.03589658410114252 -0.033376428564637475 -0.08584013153413446 0.024563788543128642 -0.018814261439530272 0.03557052368462588 -0.06533922919747315 -0.06053935201082133 -0.012847939738312442 0.09887864215525377 0.04882820386255435 -0.019379976027284918 -0.022604160247074748 -0.04356207257449558 -0.08058188276786077 0.05545452246809546 0.047361611494323774 0.051636505371831454 -0.08902318242903016 -0.031102793513681753 -0.06743232927091125 -0.03060937624360023 -0.022706540191332267 0.021721612212550492 -0.0310585123331429 0.06749546037188461 0.04880692828513866 -0.012623949031981496 -0.0062624037272823035 -0.039751837886878 -0.07450920998129583 -0.012056222452525356 0.016877977557686233 -0.02182267651646501 0.09343537265884705 0.02284841050085744 0.058375483961896485 0.0388459734287914 0.052291235546955556 -0.056818236626666456 -0.03042915040833094 -0.01892209885237875 0.0659336408301858 -0.08996081849326128 -0.06576555487486171 -0.061409994605004625 -0.06984703539950643 0.02700511480152984 0.08015404259069972 -0.041103889988686464 -0.011128651654429958 0.09493960974978874 0.022650261591126458 0.009480601322374757 0.02433103720203851 -0.09852581468150085 0.008531669582202722 -0.04437708869241119 -0.0031046352608805616 -0.07186671390246385 0.03232179392510856 0.04288683941063104 -0.08345144329897361 0.0347554567099308 0.05616063818166803 0.07217138846179683 -0.009124210033981159 -0.036103917063691496 0.08060361096560315 0.016352663231829684 0.013250365227673158 -0.0028486152388637748 0.08561107260111828 0.09492920820463754 -0.06984988333508091 -0.009148764801414536 -0.01065796646357986 0.09671594126083674 0.05797045007427032 -0.07967396384140334 -0.0430641755916446 0.02051464065081912 -0.09260322310142105 -0.03003913094722828 0.03228592006450595 0.0898218086085055 0.01734442244809946 -0.07949218445466838 -0.037119669895432694 0.09001748740119395 6.693204507236539E-4 -0.09436477755373562 0.041103397409427006 -0.02488852799518182 -0.039701756969219765 -0.06354952188033858 -0.0050359733507807924 -0.003993890481080453 -0.052877497695523856 -0.07425927206805749 0.027035791619312743 0.01336776711260576 -5.553808887619194E-5 0.08293365073408435 0.022464620252714673 -0.024418195400338294 -0.06703850491210234 0.0962883554509148 -0.07477995910477342 -0.03410130160711644 0.01771725014431884 0.07058422526696237 -0.08366357298366965 -0.04723816941536929 0.04414554434512902 -0.053416684533805193 -0.08128922455667216 0.01344021334952214 -0.06072258251116807 0.09279975334642085 -0.0999059445920644 -0.05652774747922123 -0.027622805498181954 -0.06938253799438843 0.04923338971016092 0.013059478627194254 -0.018281257252318467 0.03055515702532391 -0.04030735829757895 -0.013568058790612264 0.020908467458318175 -0.09951435945011183 0.07169931105194391 -0.018660130442817446 -0.05839322598743553 0.07587398432451128 -0.005564036490357055 -0.08679111048343767 -0.09530482914682502 -0.08239283017753188 -0.040485285662728826 -0.05787101914187667 0.0433814386485388 -0.07525452493067385 -0.059056406655024235 -0.07926980236139998 0.08943058829028333 -0.022466218606823102 -0.08228604045020815 -0.07286914630500574 -0.08234533348865772 -0.05973132363256742 -0.04779159008530048 -0.04047312329552502 0.06398982542978038 0.07412521956334298 0.01094897655830454 -0.03237631640994623 -0.07106574254342685 -0.06319516111971857 -0.03622432175485431 9.94787735736996E-4 -0.009183946194756626 0.07887379415202733 -0.0366341422704467 -0.034415710674341196 -0.07769471247010416 0.08591940625191308 0.029074970134228717 0.0969529324012881 0.028779883053890593 -0.03884094562168461 -0.06260008615639684 -0.01749943588069902 -0.09139970467168886 0.09489474987130192 0.055936161386261424 -0.005219639566726844 0.07304314961595368 -0.07478605052499016 -0.051479571344893296 -0.06584685102234697 0.057589463945499436 0.05859501050576213 0.026320763897635546 -0.07858704366485272 -0.09354168168275044 0.08958362187693655 0.02295638097138468 -0.07035238045457715 0.018722089165107758 0.035464188550807574 0.031299830544382234 -5.186908466044138E-4 0.0070348310847192785 -0.015141850554629799 0.05543435617958731 -0.05702161983779244 0.03895055676557074 0.04843883698340448 -0.09669028670906431 0.00887098009803175 -0.09399645890556665 -0.004539541432286048 -0.026040064534631105 -0.04459442418534579 -0.00283189977117404 0.06155649727389331 0.07771688415890801 0.05698634049091275 0.04101057405241221 -0.0787293514019824 0.0686737801849937 -0.04307377089183531 -0.07520843381313769 -0.06695874828497139 -0.03427690797538199 -0.02900068282126189 0.09897183388391492 0.08486801355246165 -0.008186328678900387 0.045120857811155324 0.032020463368810786 -0.004352483967864321 -0.029357897862914414 0.07536422832058379 0.09311939171353265 0.06017197917365 -0.014186232322362602 -0.09034314092773746 -0.09069649400876212 -0.03495658555960586 -0.0704207220858114 0.06787997963161344 0.06877102160534021 -0.05173678703436757 -0.0534276855679942 0.04072983986758366 0.02354397056771966 -0.07298503914897268 0.012545229556952212 -0.04241911405079608 -0.017645849742351977 -0.023833834453365094 -0.021080959632074167 0.04972421703124652 0.07857501598559502 0.0042722676930021936 -0.03896520350975137 0.07773734796999282 -0.05178458293361754 0.044374284530141334 -0.04868644263653859 -0.05962570228116442 0.05943633201957618 -0.04636092689275606 -0.0018973715969878568 0.037247641573503826 0.09774714900454004 0.0988991637516532 0.00680590956064675 0.01870710554244033 0.029983243778372998 -0.005593184569449711 -0.008033420257816976 -0.07629791912670365 -0.05463801303512133 0.053624840739564694 0.037290643905655535 -0.019951829322566783 0.0033596536452867864 0.01863449357214564 -0.09482980713570155 -0.07859921888114307 0.005846894997601465 0.038748560381776015 -0.02191448776693021 -0.038628428468514664 0.05486594671881356 -0.015824387764481987 0.011335510030917886 -0.04239370698000849 0.05762780846170579 0.001089177453346954 0.02986621383608659 -0.0027245015700089192 0.096753192140381 -0.05878660752605014 0.011537479020987812 0.04031234206751669 0.09647618381419193 -0.06795548255306982 -0.03501173663575395 -0.032135517632853716 -0.015525124906264537 -0.00691445197749814 0.032331179135289045 8.099548528217315E-4 0.07418870754591966 0.048978875821866386 -0.07477261446006156 -0.02318031406327828 0.07392735030207212 -0.05782013399061037 -0.06253687508450978 0.004332153806035827 -0.03322861622505978 -0.09417802637643519 -0.03203043525135872 -0.05206161093903705 -7.896125920087427E-4 0.021681834374983763 0.035297920546550454 0.04205856941059699 -0.033340752424721454 0.05866059578265101 0.06788209287961564 0.07842397275434321 0.09043890816529054 -0.036044431987581935 -0.0860085209483723 0.06776112598198361 0.04350301444907684 -0.037895905555061615 -0.0689032192750848 0.037207636358612795 -0.09886268884034916 -0.09366071659138304 -0.013557916281416227 0.09237209493410847 -0.03194614509445402 0.022205166925988465 0.02893668078378625 0.046583138074826225 -0.03525247279940805 0.08513658721077233 -0.02294947476124773 -2.4421065969056077E-4 -0.056322453559893584 -0.01828304495925101 -0.0917825534528237 0.035435712272404024 -0.05021791363718467 -0.08141519981512575 0.032320566665086425 0.09696509089442507 0.040029297675410275 0.06346790967470564 0.08515473124372627 -0.09765348252409628 0.03315349330127029 -0.07041840459762916 -0.012668987116279617 0.06226409947016562 0.0734204477837942 -0.052364492419827685 0.07990871684929307 -0.023146164435217442 -0.03878890205925487 0.008951161690749165 -0.02988942140846776 0.004198151518565202 0.02840832850227354 -0.09129979981083812 -0.001202834089435223 0.01715219876300758 -0.08198328206881544 -0.02996878858275258 -0.024053131273354206 -0.005007551672107091 -0.03485949770955901 0.08786075444215252 -0.07879189364367507 -0.06748916666308236 -0.029609673370594947 -0.0046379965916448496 0.09366067279503937 0.09156055975731836 0.006984650531334943 -0.07330770759149825 -0.0017564328210984137 0.06869251760203876 -0.09074303683937078 0.026258662821408874 -0.08412315617316878 -0.09259600172488994 0.0529753595983109 0.03782822695072616 0.020125423005294116 -0.05534576131309182 -0.043173796347514705 -0.003951901588958057 -0.08467697848006056 0.04868421682951274 -0.09039093770329519 0.03844740169851518 0.05939477885155828 -0.021189211132022656 0.059135354665240836 0.05775165148530059 0.01918741219015585 -0.022251820810517464 -0.01348165176934965 -0.07765235102402622 0.04693600523400637 -0.006857363250184073 -0.06651227271757357 0.006994858950571323 0.06356693723939677 -0.08261120183110265 -0.04944306512349042 -0.0036129871467976277 -0.012143256827905222 -0.06657073672148024 0.09031711265248349 -0.0490745129081267 0.060036922528035164 0.05912150809059516 -0.017173470695442977 0.057073906100004373 -0.02574483938009127 0.09388926060964195 0.09900984277756525 -0.07607889625128009 0.05637365675435377 -0.011241829953690968 -0.06682315300159816 -0.066912541356357 0.0019055846559050266 -0.015491611711102499 0.017215564790706447 8.674870941345753E-4 0.023461004638069022 0.09255961952221989 -0.08329000463795329 -0.030490755647948925 0.047893911667228894 0.029336877316381432 -0.04682194261680566 -0.09121094923982652 0.050412365758062294 -0.04275194654392067 -0.053179456501635386 0.07954774656242777 -0.08376605778999319 -0.06596274745152836 -0.019382643795845242 -0.01238740307141413 -0.020060794925596093 0.027160555864810393 0.04930244263552436 0.03953669702256157 0.008495928042990375 0.010963846288983572 0.07569430678781386 8.455935212417359E-4 0.06599745045515434 0.03182495463819096 -0.0479458797247377 -0.04701137368692803 0.0264785718932688 5.534355920570888E-5 -0.004411019786429077 -0.053049714381158866 0.08574290426187375 -0.05276068391189248 0.09491296161336316 0.05948480661150887 0.06395575404038009 -0.026178484492894685 0.06822406558399352 0.07219480893032923 -0.012172938828127783 -0.09586368991788037 -0.045849565748978166 -0.08581709450500821 -0.005470828856758286 -0.03529449322269239 -0.08733549087701789 -0.06423732644394045 0.009064453959158031 -0.09348635940788613 -0.0738408929996478 0.013723545053374586 -0.08738173876598901 0.003102799029467057 -0.04027526101325103 0.027901706890975292 0.04150286427781927 0.07371191604781868 0.064862808371902 -0.005682964164215626 0.03461847662365844 -0.09568180890534012 0.09231457720673691 0.09189390884747003 0.08192759020525417 -0.030678948492053104 0.01738119193871672 -0.022208456022486223 -0.08274062449908855 -0.007257970283874565 -0.02494474018649022 -0.04937274987033085 0.04583106735585046 0.030196596410246912 -0.04752005924623264 0.09138392973767748 -0.09980640752076429 0.0015269017238834087 0.09269664122876559 0.08855083842658676 0.0778790666149671 -0.04113285601177781 -0.07366214135622545 0.03705451728472753 -0.06486328617406056 0.04133475237568631 -0.027844348685864544 0.09508327960713814 -0.05380662311933839 -0.0020972199910725196 -0.014549215479713577 0.04139569918126131 -0.02314274107771539 -0.05529637296404571 0.07597513007090381 0.08852350801591766 -0.07924975821022182 0.017793796688224194 -0.08052845402823419 -0.06981636933196894 0.07237807847073888 0.05364538107470076 0.016064428924264997 5.75340785946665E-4 0.09725582406424513 -0.08904901425441777 -0.062152734553118906 0.032684291387693666 -0.05035300319070626 -0.017017878635633685 0.0014795204563689997 0.06649365905847099 -0.007243458398875378 0.04933529372043629 0.00901185812338987 0.085721777577665 -0.05796200456219739 -0.07296718186612325 0.06910403085385655 0.10096347251618662 0.07434558321495738 -0.0016717347292138298 0.03599501242111763 -0.05737989613714956 0.023982231692611572 0.016199150241163265 -0.0149696560942393 0.07876112344731628 0.02126487300903817 0.018392366200135797 -0.018753088854002183 0.031067793589833574 0.020048705216806254 -0.08297934858549108 -0.00853926681825333 0.026267533419524897 0.007722303846106685 -0.026908803978901316 -0.05950140486664481 -0.009024896960385944 0.09450593646452013 -0.08601969725268555 0.01865975941047164 0.07461476543921783 -0.061544385039682105 -0.09324917935068344 0.010189202312345854 -0.03189478017787024 0.0783958165866698 -0.03865809775003468 0.031489194664544536 -0.02475287842719151 0.019074060019206515 0.005043447625609796 0.04299138142352948 0.08926058576617196 0.04115090799981793 0.043300379095094786 0.03005671186199517 0.028678056355975236 0.09320917064197251 0.10177473853484806 0.03596607009814872 0.09480568013773333 -0.03621349749289606 0.0307263967711294 0.06332446551102548 -0.0010147679513887258 -0.0013272527195832386 -0.08095813940570164 -0.06719427049462678 -0.05876474882196307 0.013469875717508469 0.06555767951313474 -0.056961434601941245 0.055531084807612784 0.06939561076524214 0.06928851972713276 -0.04994486232949289 -0.06751907207779582 0.018505106892795463 0.011719354321240343 -0.04811408732130849 0.09843636187994273 0.03730946361911187 -0.09298162587686892 0.03035782765473409 0.075467688896072 0.043208883006496265 -0.04093379991278286 0.1201375682013274 0.06747693709891989 -0.15965467084457446 -0.11099662335487427 0.06458266385520535 0.02160624067674209 0.10061164760975791 0.01613744589902928 -0.05973962038165569 0.07666289577000482 -0.057473665559094146 -0.14955611715386288 -0.03924116919753036 -0.08693833702542854 0.026314117946530102 3.4237036552995953E-4 -0.054370101672167104 0.08144898707658385 -0.017417944085230737 -0.06747531199515922 0.09431338814680718 -0.07659379902273261 -0.04944925651700029 0.05420489148349122 0.0013347283817705955 -0.025514982407173103 0.11426277356531107 0.17234144454257386 0.007281224883645338 -0.08480673087725754 0.03868276370928094 0.06165765646076266 0.24980185351023917 0.15821928290525203 0.005215270548470744 -0.03911143249037012 0.049206036640824936 0.10606333079488145 -0.09737116553673772 0.016512906916841538 0.046434057673399094 0.07550918918162891 -0.049290398396138684 0.0056362186984795 0.06764814075364159 0.0060383862664266374 0.08616768665907396 0.06330355646640413 -0.0675898840357307 -0.06419002229691968 0.093401559016632 -0.12156612135171804 0.01104927762901397 0.07319992890281328 0.027385690167238595 0.11641262215681583 0.2152741548775051 0.26984602592993756 -0.07011086254954094 -0.002351212918221798 0.11269814307598007 -0.05981504352241052 -0.08764784142295104 -0.0760377629953552 0.024011084046752056 -0.07099482659952751 0.02566409193075045 -0.02647320304216791 0.009349346458072711 -0.03381854976597933 -0.0401065273936009 0.08867854920676363 -0.06875915689593055 0.05080568380162631 -0.047144405417454925 0.06012279595897833 -0.22939722147761982 0.03330585687746505 0.08540596549779222 0.01165748244631322 0.012051382553186806 0.18002093612074332 -0.020247752809987876 -0.01925186462710895 -0.2398345263231774 0.09141291241411885 -0.11233144404640755 -0.09065214497912039 -0.0853686480847705 0.04987472845221283 0.03842354938376572 0.06010825811528726 -0.04606802905341032 -0.06913740740589763 -0.0712767323946682 -0.019686758064846273 0.09284424570065306 -0.08455488260893648 -0.06664637304706274 -0.008931049478191252 -0.0960882096992325 -0.08779844899740402 -0.09489560662031765 0.0110791635516489 -0.14485314589758105 -0.07245653849459573 -0.01103383959940071 0.09425404160741496 0.06760659121726814 0.002208178890459209 -0.09655324172335791 0.17232750523314913 -0.11751955934274676 -0.11473360773953094 -0.08169884313702377 -0.025789479916815433 0.013998175567837902 0.04821981158832513 0.08521180021678457 0.040035888221913694 0.006565412083332318 -0.06076178157892367 0.02383667745049043 0.058513676298606175 -0.05220120433855927 -0.08368970661960012 -0.12081788231936104 0.13822794110397443 0.02629145810750842 0.0063544400126839505 -0.2662512423085844 -0.003352464265541268 -0.18835400136601885 0.04656942748942295 0.11746315032825778 0.011652963502827832 0.049173383908581426 -0.13413512679126807 0.036499675589090994 0.045439053228588246 0.011851687989111796 -0.025284384583049303 0.0754746236346156 0.03699794305487938 -0.012237645469914125 0.025528298015239606 0.0409128696341244 -0.0741220728817838 0.0524922559919273 -0.0091577865096102 0.1025763481199155 -0.035542807243254024 0.07849733953016913 -0.09387649366568915 -0.04473796929538155 -0.008850963816379976 -0.22909019182735654 -0.0976513753925414 0.017022472803493602 -0.01200280801650013 0.006110389291955384 0.07549817504630767 -0.06629479042695653 -0.17820933317531157 -0.10691098338327273 -0.09482484568323098 -0.014258872107205283 0.06246727609206251 -0.04086122932245335 0.08485669732517795 -0.05607797636040441 0.09578672198406696 0.07292024701768177 -0.02721929607690683 -0.11997609478522883 0.07932968182197157 -0.050215139279769186 0.15844298879697657 0.06925456581468933 -0.07331469761399001 -0.1274407391118163 -0.048636918908400044 -0.01659820276922348 0.10795670596535802 -0.04630332947137138 0.11158326957683073 0.045651033846933003 0.057418305023845276 -0.1908836710721863 -0.05105921537799248 0.017088277087553633 0.058432844697718415 -0.01612022059783929 -0.0716785019391103 -0.04936564823726889 0.01415815438341828 0.0722958501624337 0.04315788213955673 0.02368791942711196 -0.05811805829589336 0.055663602498144824 -0.08118123083721024 0.09081398716434654 0.04087880447046056 0.11618728809169132 -0.02246406110294886 -0.1279609567325387 -0.10754811683921375 0.20349711418887073 0.16499669002689527 0.0954484278747471 0.14937823585881393 0.04983829321204179 -0.1679630583927384 -0.1417063697369265 0.029370765328094926 0.05314181919163199 -0.07066576294967059 -0.089312476277427 -0.05290110380110224 -0.04224643329177224 0.0077600254266582055 -0.04209842566043493 0.028701596934051755 -0.097417155084475 0.11956946627839898 -0.13305914305511599 0.06272526458981544 0.10775621009066971 0.028646923771869948 0.0902713262302855 -0.07336776183962858 -0.038236439936105635 0.0857911005528818 -0.12833144405742686 0.07162507572110352 -0.03947025491265078 0.047346959799492674 -0.03715487123217629 -0.04149516389726388 -0.00843283423216239 0.05079330591275124 -0.07503767403511477 -0.05877949442654539 -0.07269665693636068 -0.0786871070885935 0.09925392051027546 -0.028866376648800256 0.05752238237017374 -0.09594625878385075 0.14873716122706832 -0.08324451946690274 0.08392779238132328 -0.034562323146637736 0.03780361996403058 -0.19736799608981115 -0.13678043434636483 -0.1389887204133931 0.03778540081343386 -0.07343780737923532 0.018855047502127815 0.10725477689226406 -0.043579699655518805 -0.16654955254518522 -0.05420311151903165 0.08887102863083514 -0.059203449422060135 0.06980959135542583 0.03674105826151971 -0.038019053062121035 -0.0757911343594832 0.0782855232992041 0.09310827751009745 0.06406484092460085 -0.032151577139346556 0.05657277875011142 -0.10068141235509946 -0.07064814373314614 -0.08088223321040833 -0.0629742231253982 -0.1922783007036857 -0.19422931508849442 -0.08679719857013815 -0.10290795783435776 -0.09493318520344926 -0.06638222070331992 0.05855169466229416 -0.04524257876748934 -0.0847483842180221 0.0401177337801512 -0.08101169144958127 -6.585394235284289E-4 -0.041517568465832384 -0.08147882178582083 0.012450299310503935 -0.007685501145289843 0.10291313787350995 0.019005804283610178 0.06584035717641454 0.10501543338491469 -0.025992025423029246 0.012661367025360266 -0.05848794805296538 0.071703258228115 -0.028234979499469227 -0.042882456251468054 -0.09127815897882807 -0.013522641794267971 -0.11408843792494516 -0.07306028070956631 -0.14980591241711613 -0.12443134171022541 -0.14976386974206324 -0.1241379520141601 0.0678894134182777 -0.03500980223733716 0.01863175139218968 -0.021502189108215275 0.03364987611370474 -0.00313384654709243 -0.04626685140297663 -0.037154346847570054 -0.09181701638450745 0.04824767531291483 0.06649450758516716 0.12550841882936403 -0.0282667496197421 0.054824507704671586 0.1261372863978399 0.09922017839300122 -0.012975037958139148 0.24264992877777833 0.08862131577613656 -1.9493199731692804E-4 0.015291054155999403 -0.030658517965127904 -0.15844512207840913 -0.06777257611441552 -0.10117798489233092 -0.05581413587170269 0.04353536849846041 0.0960013542647721 -0.08118995572901444 0.0409134731674752 -0.010077243450170572 0.030348920785029966 0.1022337703695039 0.09693901907537442 0.07441234363738408 0.04997237134233427 0.03923711988657504 -0.036459449835102874 -0.017298477440394512 -0.05242724729313584 0.05230004188549834 0.08494901326561123 0.021223691393380963 0.08752487677339468 -0.09320235730243927 0.1003957311022049 0.14211160591216035 0.05482453096964385 -0.21484545612619663 -0.08713948354932087 0.03329439974928943 0.06387196601181437 0.03816227510859096 0.03750312936703246 -0.019043570910604345 0.031218184680561242 -0.026382864180081983 -0.014395687437179833 0.08003295149684325 -0.0051963024147539845 0.008078015799718709 -0.021301014853875252 0.002830595418464654 -0.12979692904545045 -0.05689202115339739 -0.03554500682034481 0.12787464744324462 -0.016240745715695948 0.08014027888524866 0.046640936866632565 -0.03324754244779867 -0.09305696063773898 -0.10913528450151833 -0.25270356619017503 -0.14110887608463812 -0.08829771453996071 0.05437030437499198 -0.04686102205469562 -0.07152579588647087 0.015171431408654887 -0.033854906146710696 -0.017099748139146963 -0.05400263990764601 -0.020552183385733308 -0.01649658364635305 0.002663660942765676 -0.07333899053092438 -0.06939988494619222 -0.0466535594200454 0.19578191883661913 0.06739769633966498 -0.051608026557570894 0.0032727664911097994 0.04709603038580959 -0.033531015907067925 -0.1510357064658915 -0.15146683580310236 -0.12559336712142086 -0.14595263472230413 0.002918501268850703 0.023417905632732033 0.05030266472710563 0.08632774755370295 0.0946476657165379 -0.056046493593247766 -0.05227980581556877 0.030404703110115755 0.09765673209392495 0.057461438315146655 0.09808351790873884 -0.00451367106133966 -0.007601583919505898 -0.048480829723975286 0.0995451383251423 0.007302368180628953 -0.01824116358053911 0.06528196137186804 0.024502580815180062 -0.04137377546011533 -0.11887148075962878 0.12693538479259767 -0.019969276776959 0.028850109254568 -0.015325672609976507 0.029110379796702165 -0.036007289554213014 0.008470626854040387 0.07240761594278255 -0.052712730510493765 0.08827469554537157 -0.0011466437036615857 -0.013094143820554587 0.0648735935415532 -7.837496652920412E-4 0.009884504931693296 -0.07357536978080681 0.01363763500237943 0.0028609652499018315 0.0018742436427425417 -0.04324252811944219 -0.036555163290887746 -0.0618105266405163 -0.06531615838998 -0.07659336016664148 0.040544982621870354 -0.08650326685358173 0.08894461540890727 -0.044170172867867966 0.08170703750968315 -0.0926098454682048 0.08953658125118175 0.08262316558537894 0.09585628588859663 0.005777988176274413 0.040502368827161093 0.0944323596954236 0.07842927440704511 -0.012945998722784376 0.0339219963795526 0.03805098514040086 0.05745402386409781 0.026685085841139863 0.03412232073079526 0.03743705052857973 0.08009655236283872 0.017156331203740167 -0.0615037495203427 -0.0737022885556669 -0.014487949814012436 -0.09047480251669765 -0.08088844932067576 -0.027042166504482303 0.01713626631783361 0.007475072241545111 -0.08705046534756938 0.10404928764837718 -0.007893989596757781 0.010412310803090819 -0.08702288324254367 -0.05100033085421713 0.10120349314781224 0.002683130662263704 0.06870085674170495 -0.04594296803148045 0.022289662006019 0.09086963428294192 -0.08245299586046767 -0.052404965672970906 0.09601186552224791 0.0022569653418658465 -0.06264318378506764 0.07770069540866911 0.03464163234512072 0.07494648294223244 0.03548185534662563 -0.011445281109425566 0.013218477720735656 0.09372260427308393 -0.02859092022682206 0.0538723127804794 0.026746252869103607 -0.04433620853664024 0.04754108819491545 0.04368003192172986 0.0880084717483049 -0.028591923125165432 0.08248908118086783 -0.049250742645413396 -0.026573119148003248 0.049856583998948246 0.0309217926781213 -0.026995137525085255 -0.07280228023450476 -0.03573934137642592 -0.07801169457438066 -0.07348507210782744 -0.10495987372227104 -0.05002800723709972 0.048478876045220116 0.04412598370171925 0.07216211772918148 0.04781712027831956 -0.039617636271032465 0.006615271690461694 0.02466921517520783 0.07291080794302725 -0.009835356404632203 -0.05279017625029501 -0.02956847329431509 0.06286575479853428 -0.030952389006220216 0.07258982975606566 -0.009494844505493722 0.053451462047231925 -0.004523535669717442 -0.03428562647302339 -0.10276278243636662 -0.08411180905772826 0.06090835872722045 0.05006550028921109 0.08225383996052836 -0.017655537486514813 0.03825076710050455 -0.08458556168094868 -0.07914910723911782 0.08483965233002354 -0.005276721012067198 0.03197142538590817 0.0188776674830307 0.037635828923482 0.0036117649812305065 0.012788660889163486 -0.04597624160161271 -0.09566410743620067 -0.001670702159583355 0.02354346344680261 -0.01451005322548006 0.008287889461766056 -0.0626066546859406 -0.01566326727009511 0.08434409682953921 -0.03147185608912449 0.030374276431030897 0.05989945907367939 -0.028566618778264698 0.07337868956563272 0.012565333004545598 -0.0073919839497125495 0.04054451556361647 0.03994731051830653 0.05006969509867013 -0.10303344721821807 -0.10842608307975536 0.050161263475905306 0.00719543673839915 0.0047228713531462675 -0.09820984674468901 -0.09740136511091645 -0.08550537477650953 -0.07345821149757904 0.022841144139377698 -0.025735976875921968 -0.061521969428045394 0.0791678729538917 0.006979130277543559 0.047588114779672154 -0.027017791302954966 -0.0041408495940085735 -0.08704335410432275 -0.1030826282830855 -0.06555070890891475 -0.11360047922218335 0.060839686160137484 -0.07633716730767827 0.0722208422981113 0.020377369763807086 -0.03591302410397007 0.06477495928800635 -0.026378922780577026 -0.1000287608016137 -0.040529281040645036 -0.02387172611346662 -0.017105235318797984 -0.0035341232261028406 0.0810316314208958 0.07469242322701743 0.0486881176941407 -0.05566226054106093 0.07369482429377087 0.03506248750721057 -0.036487882290752525 0.09526408264035195 0.10055377940626647 -0.04178382848827691 -0.0010350105421836917 -0.06522150868976227 -0.0498997910429128 0.03347552977931866 0.024862588438716145 0.07841572771867727 0.05434302221173937 0.07070665003300879 -0.08689404649648358 0.01126309675996956 -0.007107385000412778 -0.00620882804509305 0.03064172076652344 -0.07887175524263716 -0.05696293001197155 0.05153440753675476 -0.014359075136841502 -0.09413374949580315 -0.06633292796714939 -0.08447240110087398 0.04645391901161892 -0.03570953400537941 0.08987057852696406 -0.037205098633548955 0.12778688406562827 -0.011476634296534232 -0.012872371088922268 0.18967846497524504 -0.16316125330163667 -0.12200321403782748 0.09106410457282953 0.05573877826763032 0.1056884878705941 0.09551910130127154 0.1274198570134713 0.0634688634124497 -0.04768135670361689 0.0877283200799422 0.055598959584589214 -0.05240030466347103 -0.0032689488827197955 0.06500496127185552 -0.08046843110853376 -0.011082856288303418 -0.020310646227965273 0.03255257234016059 0.07259147628677831 0.09706871191356149 0.03412378272891685 0.10992976272812993 0.02178658559225946 -0.16124213052116756 -0.13908687801089528 -0.20106031245387335 -0.005744879108443756 0.11548538031669899 -0.064219935463222 0.15298878113067993 -0.0018858718908935574 0.04152724263982805 0.027063564189672686 -0.11293551666843352 0.03804045390671536 0.06180518827050464 0.023701586197244343 0.08045808442280418 0.02905720410388315 -0.04359523160881496 -0.06829609401445773 0.052210525146332336 -0.06501385004714462 -0.07853232795758486 0.051713834801959596 -0.019685883922883243 0.21610193575054573 0.012281109151607001 -0.03502102068874075 -0.00830155184844216 -0.11368490297870845 0.02073531880030287 0.06786979421782276 0.07840511290659828 0.2825777951750239 0.11154471660147075 0.10347009415030829 -0.05473999685124069 -0.1170942569997843 -0.036279095129170824 -0.04048735016387698 -0.07692333560277893 0.0038117282883415177 0.021224682560060694 0.020024323881319722 -0.074261289312868 0.07212063861486623 -0.04364308075242285 -0.04926293470974558 0.0686757718535098 0.047410810573439634 0.09225944616737396 -0.011709583753191165 -0.0027750808645745015 -0.0470085116478721 -0.19442470239767898 -3.0270773415899444E-4 0.07722040901798094 0.05173356999059582 0.1952965038316895 -0.014262108260859102 0.07417058593420098 0.10525343165876137 0.07967623140586157 0.034716516540781416 -0.013380356286150526 -0.096323513072035 -0.0928884788018788 -0.05267029143099775 -0.039225047959057534 -0.10787197059294111 -1.5961571907899185E-4 0.020990856633158937 0.04897886493252626 0.056690992459542414 -0.0457913166375258 0.14381887375144345 -0.10162770410753107 -0.10274435408988783 -0.13956869709778005 -0.10330577183144543 -0.0959780599390134 -0.11209619584540116 -0.16713981204406153 0.031362926737621526 -0.04728386976572119 0.09274088501605483 -0.04910908476908546 0.043687985399661934 -0.016264805206550825 -0.06928366713464311 0.07557088440444858 -0.06136271017735422 -0.09973188876545432 0.03679225825770655 -0.009474589854801738 -0.03798977944910078 -0.010723127353692113 -0.06177596422841214 -0.04794095774122714 0.053904529141268545 0.04194252065907111 -0.03084074893529263 -0.16614830559842905 -0.038300607409852444 0.026289818830767118 -0.12282078470587342 -0.029581646275853794 0.06708851494876372 0.1019743994544021 0.01516381870532185 0.08421199869017557 0.06104012927904099 -0.05948788775923627 0.07157052268527375 -0.06864829668877749 -0.0687854950711163 -0.04658815217467736 -0.036823825271968556 -0.015833250841772055 0.019152186683754978 -0.05691887195036765 -0.09843905969201769 0.09154912938540441 0.04205910924578008 0.10568950685608428 0.10124447944295151 0.003056345190545518 -0.17582669693674363 -0.09165739200857197 0.05603700943204974 0.05620017352986123 0.009038471383413762 -0.13522821419446568 0.004450060179960181 -0.05211461447071339 -0.05919336134598241 -0.0770100518564701 0.0218219197301725 -0.11367450251291705 0.03551855230462934 -0.0010702902041478046 -0.10380830258838518 0.0201795961375046 -0.06420093467782005 0.08097403048531236 0.04436605834415847 -0.0014525674432848154 -0.017854098363631124 0.12550435150150296 0.051460374397840854 0.07429528592786136 -0.018133411709407785 -0.01719380107959784 -0.025012063258924595 0.193935865277006 0.13271158188198287 -0.009892798612753408 -0.06314380941775313 -3.514543644294883E-5 0.0026612017546843556 -0.025687879843501016 -0.0398312259063611 0.032616947473652846 -0.01851505612464595 0.02056154795601435 -0.0020436388257079148 0.009843304227720215 0.0684006453500773 0.059990206928401575 -0.10312916699336054 0.031039770819011242 0.04731996316018803 0.013334690359122102 -9.447906780933747E-4 0.1394159407042871 0.07010462328597433 -0.13424003725798592 -0.1416820178974607 -0.00885372833726522 -0.027134746346279864 -0.10012669833937993 -0.021268725754470124 -0.029592306085423622 -0.07652099574519994 0.04726911570235263 0.09287423396015285 -0.07445606206623233 -0.04507946834387702 0.07604336942515093 -0.024285301163197208 0.046677740292636584 0.013121112442406244 -0.09144252096959622 0.006807115594067867 0.0554107867198859 0.06951207029449812 0.03584076802828776 -0.02393490843167647 -0.04506886787740627 0.05486706877151111 0.020416404980401766 -0.04908314643197642 -0.07899345463787164 -0.2500264658684411 -0.1963681837203324 0.03783196447879742 -0.07390246502454335 -0.09215798879756147 -0.16619820523209689 -0.0903295614452774 -0.029645989011092732 -0.04207100534594353 0.004707007155238699 -0.02737489712988045 0.04084021779670519 0.07367216759969329 -0.011993349226903493 -0.0181933147477418 0.06411027128353845 0.05742060271253157 0.0352334766554161 -0.010294028362327429 0.06519466991008867 0.0987602724234192 -0.009566127361792723 0.07840528847852693 0.23354541076107738 -0.03340955505216823 -0.0998304955145625 -0.2286742636615757 -0.10129271715234049 -0.02249951753657101 0.15684581686527604 -0.10934181059724647 0.03141703537943361 -0.012619881882763416 -0.047887056665417635 0.08410717985057889 0.017344882452174727 -0.09652786594176489 -0.05347894501822003 -0.03975717568402563 -0.10062794805059537 -0.059396771566401906 0.06882149108260095 0.05537649314152935 -0.029483337053107406 -0.005853101326869275 0.041674331648370255 0.03948588851094277 0.07611969573660661 0.18813034500107326 0.07535279050123508 -0.0281176019642724 -0.018827101020651747 -0.041649179984613025 0.0860134066998853 0.12530336732446756 0.12402053020395401 -0.06957213534365904 -0.058974878214645296 -0.05341581455578557 -0.0900797674218195 -0.09413426702185405 -0.007565746276857429 -0.050422246293507174 -0.05579806938906846 -0.02035795811668783 0.004185005854959784 0.06849092169089972 0.08844588788476719 -0.06029381422524816 0.041072841078108914 0.016706025713207603 0.022914583063029532 0.09805430093803234 0.18666668575276052 0.12813079271203573 0.05741208430241669 0.05896995988698613 -0.026271789899309273 0.1744316635264196 0.1146285478907976 0.24766057865310437 -0.15195337023199806 -0.01910359146593796 0.044582605401137614 0.06797034946091188 0.0643579696639676 -0.0951410141599925 -0.08482081379542582 -0.022850478657872417 -0.06741111325681114 0.05137314221099636 -0.05118476880001186 -0.02631036451217074 -0.04264925647202505 0.06370002633788364 0.058436217261409164 -0.14622327534067636 0.1717626184115221 0.03686167001994764 0.048937056122660826 0.22053796981874163 -0.08869209507127368 0.03489582587619672 0.016040932210504174 -0.0638007902720927 0.07288644819485848 -0.0677100889755816 0.17963964649753897 0.04283066220922473 -0.03867200497551309 0.06859674765325864 -0.07676101441654944 0.06295129401131995 0.08708550661481275 -0.047235499667195265 -0.06026317217887087 -0.10686393760451317 0.025583460091401285 -0.02468984993524459 -0.08593558760567138 0.04690013565051682 -0.07756129570086451 -0.050667965804809735 0.1314425699004563 0.34734876879367327 0.0160596284752136 -0.007042800500333799 -0.23482183192373463 -0.07150370038633919 0.0022340791526501 0.20307901341691748 0.04847584808496006 0.13723530760676572 0.04259391129372112 -0.032378132741214 0.01741790622548061 0.0633631413721787 -0.03427910318600654 -0.0017750971849601188 -0.016069303600586594 -0.013019822786159069 -0.044921401950551824 -0.09082747352848976 -0.05135608150967441 -0.077744070262044 0.033736581395492765 -0.05217140289571681 0.059595855126384746 0.009948769712365331 0.04819153730831159 0.12728449272509235 0.0751016496919792 -0.04319231728947319 -0.01597343652157413 -0.08442863061571532 -0.003334285398734462 3.3087802328433545E-4 0.07836568000957388 -0.09783148584087954 -0.06364008580470241 -0.08670565936582618 0.07447962292619491 0.038313022945030646 0.04457079773850337 -0.08296608366359116 0.06863725720646062 0.010253635852914729 -0.08065299498989796 -0.017939188074560145 0.013311221913348617 0.06901857453726479 -0.10525299458472041 -0.12626477854412615 -0.006756663948993746 -0.08316761818552507 0.046778170195343007 -0.026422428611909934 -0.06482711902804258 -0.06449926796805469 -0.18805140335179685 -0.04238888322598877 -0.027258445501210406 -0.02341978426709039 0.0037262909648460288 0.08414102568399805 -0.05143774606098656 0.0529310387006603 0.00404229797135962 0.01177043153907047 0.05433937966416016 -0.09102086075671205 0.002004954357956705 -0.05105215787604383 -0.08476596971868498 0.04788040457083854 0.06592372144539606 0.0396234575122242 -0.0022751005908201033 0.029823887702340436 0.03389843267629667 0.03345044693911425 -0.046638529891923464 -0.0709842474049725 0.0670131172763173 0.059042674500654056 -0.0819130739491732 -0.07765783706900926 0.04287397274433314 -0.04362952806014118 -0.03941097664537501 0.014177699203407501 -0.03267951764902136 -0.02899241508454315 -0.04732659802729524 0.07429783988063242 -0.0355404907931316 -0.03331218683053223 0.014610202637565038 0.030536665219050754 0.041518724871109504 0.03415513400519158 -0.031230224521850942 0.019243260028664076 -0.10331344012598913 0.015551084023291152 0.061716121516712595 0.01339659287441039 -0.09578943776537151 0.07985187959367708 0.030651865792270118 -0.0640357352416877 -0.04705516875570424 0.08925996945517924 0.07432357361681817 -0.03994658559032071 0.08606490386795947 0.07695131695772127 -0.012915102511564091 0.024717374573853798 0.06324534740592293 0.08779592495797818 0.01657291118487913 -0.020148168511518724 0.0464779637338387 -0.07863569541415115 -0.08653928229994078 0.014434715395370099 -0.003158614648200448 -0.03952202255348591 -0.0439926691699977 -0.08056577345276976 0.061915759830494146 0.06875731976280496 0.052633544893896635 0.09002981219380297 0.032168831336328925 -0.10293447031215196 -0.04748958629953503 -0.018638837919635665 0.04952270034004142 0.05144259669981686 -0.07284533495031063 -0.0021593963996235496 -0.037556684919055165 0.06214622594509041 0.04336082977948054 -0.06378776765025883 0.057355067201185064 -0.00793103372561594 -0.03323516520170165 -0.04568158894124898 -0.006727140039656376 0.08387479867874316 -0.033279975091283914 0.051733292601471845 0.07605540887148453 -0.04982066303253653 -0.08153961813654785 0.10652896099135307 0.012102018093922877 -0.06224247985799505 0.09549751148908069 0.0922244819417976 0.05641224511310973 -0.03267066459105225 -0.06392253531338589 -0.07734025015565 -0.061067997672826946 0.08346232141456515 0.07082393576497749 -0.04135065823342016 0.03453543198290074 0.09374730802922342 0.06362476733163532 0.10801421968082751 0.08504705189793128 -0.004650742154119903 0.10707644876408089 0.02265953381252618 -0.050908411629297406 -0.037769739657781354 -0.09069088907954946 -0.07531294644179552 -0.07080845175735824 0.0977871692259241 0.01077233361236237 0.07810103986275445 0.005415652475464268 -0.05465839807787362 -0.0224300578576627 0.06348671002290092 -0.008986206757360312 0.09286534145410609 -0.067810327754224 0.010110770017283275 0.01785722551234631 0.10851955637098627 0.1029815194837672 -0.006786172527346837 0.05813530576160937 0.1000314633501017 0.10049632737462615 -0.08616532557158775 -0.00635690284293157 0.003627475159219856 0.061803982510283614 -0.05567307106500763 0.055126833167592884 0.07718709550998064 0.04316845967689832 0.04479873726814408 0.0715370886987539 -0.0025227437764886217 0.08696465120902504 -0.06597350205262899 0.09267236468495758 0.04277190163824236 0.04047987544806014 0.03296403574403496 -0.021421476529017443 0.07985720902257835 0.06225068856943537 0.0897888098938933 0.08520238350296132 0.06836789651176937 0.01584337550999225 0.01708926319675105 -0.025909396118498018 -0.08129571356968256 0.03815811681798064 0.0016328250461887465 -0.001470322607363483 0.08575475658215255 -0.06281478891701386 0.027434065132562573 0.07101668891077735 -0.02071082732330774 0.009850912895119227 0.05154810238575189 0.02584790303696956 -0.020007453216275933 0.05933549575405479 -0.061759840484139766 -0.005052532995951538 -0.05146012559490794 -0.036277855744034665 -0.06372093946968115 0.10871939152921167 -0.009490356171479633 0.06426322630236346 0.06158098683237188 0.010949451615972253 0.016833277297021436 0.020923630678329325 0.005897945895720015 0.011495140017298285 -0.049952266437612046 0.08902559996726271 -0.04698533975453917 -0.011786139593751802 0.1071513637856083 0.0026075747829142583 -0.014577662902088557 -0.10044814057425454 0.06455238377775788 -0.0020272240110192556 0.10524726803887574 -0.010995996057263932 -0.07076181229325353 0.06801152791406288 0.07814013755726774 -0.07966251205537443 -0.060638755681804324 0.029964913678721318 -0.06418621631247069 0.027875719165176668 0.02682766501031402 -0.08843324420633285 -0.07903886714420578 -0.09003098727881222 -0.2106439066382507 -0.15156585023164748 -0.11701086938576295 -0.09499370568957224 0.021230850873962863 0.2077181776117013 0.1972234308114504 0.008726902375882369 0.05282127088168759 -0.04090988206403771 -0.09589604368173961 0.025644347019695035 -0.0643559252578463 0.04623488010230113 -0.08682920565016904 0.024770964399793552 0.102626773574731 8.95103692702841E-4 -0.025175864111998167 0.03652815584951059 0.029107424140829157 -0.07580590062325439 -0.011435600876117044 -0.16050283214083585 -0.1153630239706133 -0.06263110374805665 -0.06189771618021237 -0.0844979945605568 -0.15047237315476458 -0.10529792175289317 -0.08386312599382006 0.04897239409242295 0.08150996564945392 0.011402121457570448 -0.05293620771198877 -0.12129373100586467 0.09399214255409065 -0.08549979999616443 -0.0885356089505945 0.010821318055711461 -0.03477936290896591 0.09389047003166744 0.07945731353338298 -0.07698871798397734 -0.088262919128981 -0.10772561190133921 -0.010657328535495092 0.021902201003103104 -0.0398538489469762 0.02911571208994456 0.008424535670071473 0.04927436375933843 0.07665502952354249 -0.06318364830835052 0.036434194334355186 0.20574048761084127 0.1312819351973904 -0.036128007162305825 -0.02384893790888212 -0.10436725779485023 0.0014997037105808643 -0.03569038379011445 -0.06277197528746008 -9.01819003938579E-4 0.09703915832060099 -0.00261062196759955 0.08184109994668799 0.09905905171410898 0.0944351514445002 0.0181511546724609 -0.047952410034357774 0.059888713513787516 0.24242954509643116 0.0799856830760627 0.0169584541522291 -0.13117959120457293 -0.08148341340030137 0.05924845132231847 -0.08314359864916697 -0.08446212344811822 0.03769446123846292 0.16297296934067396 0.09825452057047106 -0.08111988256940567 0.0872250794312298 -0.06614327795221343 0.04981307634195127 -0.01154638635992346 -0.02983075252934566 0.04739950920389484 0.05062791105793847 0.09677243690647387 -0.021788651369082798 -0.08818669106332772 -0.03196377778994836 -0.07919130795802236 -0.018703644821055545 0.03571839357618512 -0.19071427578142938 -0.12109745156125842 0.09205527589017479 -0.02528804314075681 -0.01744432662845584 0.09579657975366396 -0.06234625232452739 0.06351911702225974 0.03942227794623614 -0.0022114964221851435 0.014554301324673368 0.023628665446039712 -0.028995650799883334 -0.02808410044737708 0.10508443193477833 0.06614289615227721 0.08798561439278095 0.008811971229313877 0.07172936827693911 -0.08915268952568434 0.005576612408550193 -0.01149732940367785 -0.09333117358336912 -0.029445871604342554 0.0543888831647981 -0.11904365897652118 -0.21056714296642845 -0.145990906199796 -0.022109698140131244 -0.12158198556652111 0.13230582892965673 -0.005970574980804377 -0.20439037569907953 -0.07220062424927942 0.006816541011965036 -0.13567524218295096 -0.022102500926552138 -0.09703599824754003 -0.017622066669805515 -0.08646236455212282 0.021043414207676997 0.05738528026441832 -0.08604013126799358 -0.03337534300338005 0.10222831430642774 0.009415310979280077 0.07960860617967584 0.009197347943285682 0.02091034901539131 0.08804652343917081 -0.1555691596195055 0.07436147353957143 -0.11584220196027678 0.010179464977986098 -0.05648999023703604 0.014636193530093737 -0.20353514682968976 -0.07876493019611404 0.016004624042325277 0.07046253141347193 0.047721665154941334 -0.07871016937851394 0.025061868127998346 0.0020910212959399355 -0.004088427151237712 -0.03680892716701435 -0.01477480353064828 0.016254990514438704 -0.028882848161348403 -0.05411677893835311 -0.09363237173464634 0.023622454001880556 0.08956845467862765 0.01699877115371085 0.06991817857251818 -0.09491263807885844 -0.01724225018836053 -0.03680676409067825 -0.015559183022084082 0.05723161459966918 0.09510450147111174 -0.03595716958661904 -0.19092256204635644 0.016229808463303817 0.0161906926847483 -0.13733859127253573 -0.07993479890802976 -0.11260651061636534 0.013154132326678026 -0.015058469205190649 -0.062025145904485435 0.0600588640528994 -0.032867804907618856 0.09422259001862358 -0.01890041908220387 0.09082580398124177 -0.05527336577097221 0.10242889101815277 -0.09923575781768451 0.07750026879361337 -0.07744241573482039 -0.07134239870929511 0.0627637731962924 -0.1783764465531077 -0.005098375817858819 0.0986009750979466 -0.028204654200124073 -0.1308562887595174 0.020776118737527462 0.04476669792367954 -0.1647816254764738 -0.0471747518282792 -0.11846189037691199 -0.06976368337623536 -0.02148314509614809 0.04728265128588392 0.011640110156055419 0.027770041891322518 -0.08767909064910111 -0.00931241563466983 0.07768492413982901 0.03313206719660917 0.019138967706311762 -0.10415244692553469 0.07742300073606388 -0.08133598031344966 0.017565484910594596 0.14294791340818455 -0.05099509658543865 -0.024728373315098993 -0.029084672885619618 -0.05085271169342891 -0.16203946218089127 0.016613951125203735 0.07698686193968447 -0.1101639587155173 -0.05562350009156304 -0.08844210783398121 -0.03338909743664789 0.09466088977811506 0.05073768074816408 0.040640435158283805 -0.07661104534968192 0.09099565325378785 -0.061893226995359374 0.0847960209531879 0.0016181692084263977 -0.06404620317607378 0.009984397148062001 0.08602505341642235 -0.057928123165784884 -0.03861563705721538 0.009222674960719095 0.13161733770534595 -0.03163497322192943 -0.0617728463008751 0.03294735416053538 -0.013683457627525696 -0.05787950902644468 0.011889621402229548 -0.11080659014752063 0.05354475552144167 0.04817117278766706 0.0113863580908349 0.10044738017683479 -0.0023303891494766576 -0.029340374264052484 0.06644422050130326 0.08073855252137745 0.052196100583235996 -0.051189425068092896 -0.010048137139940263 -0.10488210064684056 -0.052580583416209435 -0.034669037088008364 0.011174867502406725 -0.08190189095335068 0.09784134435706204 -0.09000118670901279 0.02140944616080452 -0.17438473813218625 0.026032042250912234 -0.030717731766243272 -0.02452270191579686 -0.007708850120051519 -0.01372697649388936 0.08237370929112768 -0.06029072513830145 0.015655628866398534 -0.04513520914158743 0.05098476284912791 0.024934867207023197 -0.02329712021275391 0.0638806888786664 -0.06443224579435246 0.02369953276848654 -0.0845576973758468 0.0021092406171773492 0.0029273873008164586 0.06593087964391814 -0.053878150051317394 -0.058639326565140835 0.1515589994485739 0.15566530050613372 0.012249160033476146 -0.11047123049020904 -0.024438154820350493 0.06522611981081929 0.045313969481482023 0.10947363945457736 -0.12629870459649975 -0.03378937202511649 -0.06701899415663629 -0.02482030765327818 0.04237585020515623 0.08356600112642328 0.07616911096081282 0.07600741795850983 -0.04679485772126596 0.033410580419747454 -0.016638152947414803 0.035687279545466084 -0.06822471409035452 -0.02601078142329315 0.09845716769470193 -0.016455782483822384 -0.049244973499131574 -0.017739012978129985 -0.12198520465050397 -0.0310487736859823 -0.01465731098599868 -0.08790731329586512 -0.2558096789024186 -0.009265844709341758 -0.018913026983326243 -0.024458573464949396 0.022131169225910543 -0.016448381990674246 -0.05014428554300297 -0.03656676450784342 -0.04937962993675303 -0.034593265706463316 0.011649442707941117 0.021495197047080083 0.06775719514303828 -3.148107757728922E-5 -0.05405797165416997 0.008556327791761017 -0.07516855924181472 0.09031061961247058 0.015011717905998818 -0.08619487654710718 0.04159434765515021 0.08431829540599667 0.0851587371217641 -0.06470972136744071 -0.13029637928893376 -0.08185099294151066 0.008241958104410531 0.11847437287206689 -0.1289939798474043 -0.04783498223090715 0.04418549803831671 0.06901229985680064 0.048272506144816055 -0.07960520423887406 -0.004585552736727446 -0.022098430548004762 0.05122699110256608 -0.00946752504795534 0.049971983602917436 -0.07512977829361314 -0.1170671521988878 0.02861852472830095 0.0705610794065742 0.03693423741824612 0.09702829262833564 -0.011840100699257216 -0.1197239837472167 -0.09891839327775445 -0.12439892185405498 -0.057136303156286754 -0.12710139689780822 -0.013069159746901 -0.14077654317329133 -0.14399156260846624 0.049835024455453826 -0.06643828878939906 0.06425138069843915 -0.03680472142710885 -0.07865347734627841 0.07406702941525391 0.035091933326705 0.02540604624844954 0.09944558880746777 0.08316278120268768 0.08999470429381039 -0.09419475786422561 -0.10069533533720547 0.02775289757386166 -0.06605283030239371 0.08267407264990095 -0.0741515023762733 0.08993491331007675 -0.10440891977472008 0.01670466628936669 -0.029253860166850713 -0.07847904020041395 -0.09691686070360776 -0.048036655177383855 -0.051478141289588976 -0.023797427690246675 -0.02212783165369895 0.0993265796820486 0.0554296731888443 -0.04800255774272061 0.05103339544124473 0.020427776661584233 0.05044733793806598 0.06339545578827964 0.09291235990422174 -0.08231654596723569 0.01799210915284514 0.016030500045676147 0.004463991202611147 0.0183265623332317 0.04641852324064383 0.054102008782605446 -0.028487490589331418 0.05414571921290043 -0.018681487642011118 -0.04682849675439976 -0.031323586694880313 -0.013987482926795814 -0.11035663807216745 0.026867310672004555 0.05936449166156815 0.04004804731273322 0.03204423961252975 -0.05132424580748257 -0.08662067061259286 0.062010389245031 3.8565609324426995E-4 -0.07633512080165004 0.013920675786839571 0.028739991479270602 0.02070321501255877 0.10782076653344298 0.10681116873546385 0.018231513694237297 0.06405844708578938 -0.022679964494940252 -0.04701503192327984 0.08813693336141622 -0.032477796973182954 0.049362249772763 0.08754277442100374 0.09484197233774876 -0.08958960993091565 -0.012111101172689697 -0.001612910457102101 0.0939590577718893 -0.034477056228668354 -0.007056346804213438 0.008770030670793802 0.06775073513366807 -0.08002777961182987 0.04584791164199682 0.10765627418836503 -0.02011982450541447 0.022882312560345612 0.06537358658314012 -0.012375953067206484 -0.08098155577040085 -0.0638139148238193 -0.0806472859760088 0.02209733252940012 -0.03977922694148926 -0.06005792651605171 -0.0683284343844341 0.04202287830572084 -0.05338290711227901 -0.024961379041660854 0.026354401153076197 -0.04332421811093071 0.07384470976679021 -0.006151930009485087 -0.04154985280082697 0.1040978794684128 -0.05421599662365707 -0.06666098093652952 -0.01519234369262376 -0.09714188519752529 0.05165552463549986 0.014464820437313551 -0.07547044610227205 0.006340914323513416 0.08936605046410115 -0.09571179337865288 0.057063203248125104 -0.05825033184229176 0.03628493069836073 -0.03859196419121202 0.019877233239237263 0.06281467722572989 0.06074664725057708 0.03518148935445293 0.025947764601459353 -0.013716698621672125 -0.09602341860313227 -0.06655173116030375 0.09537557612804679 0.08917953563894729 0.014358696144420634 0.08349801925602732 0.07101685105761524 0.00219415566166472 -0.030349456414422132 -0.027479053373002563 -0.043096929618459436 -0.06372795409069534 -0.030231189748599355 0.05861223083215742 0.08248359928588123 0.02653375771292616 -0.07484844557859302 0.0935960779240187 -0.03376787594644207 0.08098844918031844 -0.08566400542768493 0.0053806015490269745 -0.07108389753016228 -0.01893408430187435 -0.060726354446442636 0.05025003608736004 0.0898360311338508 0.09681554637172182 -0.03196271711692427 0.06444607673359551 -0.031400700505568965 0.05169041766113567 0.021957113660066988 -0.08041452644321775 -0.08949891208696109 1.5507161824994395E-4 -0.06214365303156801 -0.0820936939224712 -0.04465734457264075 0.06592582250991619 0.015939084315872057 0.051030667845128726 -0.022474845877062853 -0.07052728691494375 0.050016365799822333 -0.01012312264502417 -0.06048509755491662 -0.04951739836042921 0.02913896460593396 -0.026450519448900534 -0.07871611483834459 0.0643031602992028 -0.10166164939424757 0.021480832057657454 0.015087069375609335 9.57845301284629E-4 -0.028939984922953646 -0.09420679894012668 0.0079458833196715 -0.05885769841813305 0.09700625663854395 0.08979568581082886 0.013465085399618807 -0.05431719480410637 -0.08949649333145525 -0.030149526542288013 0.06401477436219698 -0.028723714782447066 -0.02989729148869942 -0.01562808907772648 0.09303553763309554 0.03389689557653885 -0.01209313281115377 0.00838916291571353 -0.07904872127504844 0.03355964410067087 -0.08475468395028607 -0.04220686724028599 0.04372696285469387 0.04328272506345588 -0.0070507921667658955 -0.05861425862922796 0.07524496647471016 -0.007207702083505982 -0.09805067740000695 -0.0968855370955982 0.07592691961089108 -0.05966362273274958 0.14019162591781614 0.10451007317350812 0.019174845797351472 0.05410604636294123 -0.02384446395235981 -0.03788000905267033 -0.0016833006218832565 -0.035840712539137586 0.03517398539730013 0.0024211774264943572 0.07651110469341242 -0.0060325556555384605 -0.0579673058996383 -0.0635065762549336 0.03250447582539493 -0.09842319377286875 -0.052312548992375724 -0.015255404725979244 0.05001309934402862 0.0907204893223856 0.007772172847395773 0.018994239920614886 0.09547321764549539 0.025417698296512296 0.007727143925217027 0.07586578712247774 0.16369410161462625 0.04436250108845651 0.20977886646130528 0.14404504531304796 0.07698362311149747 0.08475232398464795 0.06868167957950233 0.04338221428682995 0.13687332870424573 0.026191356734112693 0.035985089050354406 0.11484389546437074 0.008128476704126286 -0.08960918766216662 -0.08737211734977116 0.057175173089557475 0.09185493653080154 0.042367547944022456 -0.09747411853273472 0.0947282070196673 -0.06371541604677664 -0.048948033776302406 0.0171719465958365 0.015091160621202802 0.11587944328344643 0.03573195730089127 0.15730906316293408 0.0776262413011584 -0.08757642546214242 -0.0723489752685514 -0.05664468851426077 0.01725756798858635 0.059189811473017016 0.169469888807279 0.07671672571195441 0.09893335304749423 -0.06435430270428485 0.011729828004075257 0.03474624430112747 0.09108381909397362 -0.02149792525431534 0.03222910460216697 -0.05546571647255102 0.04848792866206523 0.09396552621186771 0.012572358495006203 -0.05198829575006445 0.022356094588640834 0.11598374506152286 0.10882156774999638 0.05397189641749038 0.05495841148581541 0.25106170068016886 0.0951428793737808 0.13287471279660168 0.06350505742057684 0.09402682473747033 0.07188034349398789 0.029110793579301058 0.2127365632203794 0.019277283379124606 -0.00565904409650999 0.08756399163231349 0.07884821521865305 -0.0660412284790016 0.08989071899960249 0.0754957437230922 0.05650300346561204 0.02470536687503269 -0.06496790812729056 0.07912501218716028 0.04310298768758642 0.01884312193120867 -0.01678729186778806 -0.05995309932135667 7.768416776701018E-4 -0.01805158419204967 0.13365566157548742 0.1643052682572065 -0.021557285377080824 0.17160472761100945 0.07303637144755816 0.07982174755978769 0.17425534194465245 0.29037760160702847 -0.089171642076302 0.044193090370158186 -0.07000983432348118 4.679573347824932E-4 -0.0060377027081583165 -0.06952788315342551 0.07748752361635505 0.030555018675664777 0.07984550969699133 -0.07461013695512539 -0.07479235971308759 -0.07443048546464266 0.049404387887468384 -0.01151388950026991 -0.00576799801788724 0.03712637077504332 0.011557548301844979 0.11602603096747795 -0.03134054149959391 -0.04097233290024927 0.002137164045176798 -0.23551789290140532 -0.2714680605125107 0.03099740031488196 0.01991991312292981 0.10900004822928314 -0.007166840192322978 -0.014778568108393933 -0.043078802535031775 -0.08635751129672763 0.04251032370625344 0.05772108630255073 -0.04824819601999932 0.01538041316225231 0.022987111522856526 -0.09712680970657214 0.08610347912782862 -0.09217102846494601 -0.1115919068797058 -0.15939471237956143 0.08094478514578025 0.15617617282274804 0.059415289632067984 0.006321805031877407 -0.07745495391395076 -0.10186324680451148 -0.08690033565612186 -0.24031725682291805 -0.29104381491995807 -0.06723597410888368 0.18764415609670962 0.04633208363328407 0.09389051172766948 0.06245241625165714 -0.07325672353986797 0.01195947528854801 -0.07684653753560333 0.007279249913972749 0.04763963609032979 -0.07083930421869666 -0.02278412805015481 -0.058401978814408805 0.005768260021272258 0.013028278847800992 -0.1481575383237998 0.14675516210066902 0.082157354114606 0.09260274634439859 -0.032562877760738775 -0.08747415326757503 -0.019371901860250385 0.05359725116136041 -0.26725253198142773 -0.09932498145795864 -0.14742867144125013 -0.05612076489199481 0.03980808849583647 0.07597626172910389 -0.019443392575338357 -0.008599458989873148 0.061983954443205584 -0.031893311219725225 0.01152455856296398 -0.0673007036572692 0.012536862413699957 0.015248159774055818 0.0935430345854753 -0.009765808720412187 -0.01926084677387386 -0.08163384685531071 0.09776750367387055 0.13809715708283826 0.1472356888007686 0.012459488426676614 -0.05023550069185675 -0.15515718726741823 -0.16477788592360987 -0.013633124154707089 -0.11316140798741897 0.14655752934256552 -0.07456053197436631 0.15611045066172682 0.12665202524043834 -0.07636929847995647 0.021166724156286912 -0.08033444673566612 -0.00885221455639599 -0.09112400681543495 0.0011889184444828667 -0.052322194799641085 -0.06968014606196826 0.017072044781417772 -0.03900205888577923 -0.09551142927278475 -0.12026703030851385 0.11886524122144031 -0.028304771115066858 0.056612578917775574 0.037939609208026935 -0.09639009658016896 -0.06278207163346014 -0.05532846445520313 -0.04493061904070314 -0.06694284225942834 0.051469831950579775 -0.0747664495188091 0.13258435851839506 0.05819539816806061 -0.03514054917248177 -0.08546571512829854 -0.013467201110926344 -0.053864322329357346 0.016104533032311196 -0.081089485550042 -0.0923384297654106 -0.03376380512411304 -0.0030949093483647674 0.03164265817967493 0.004793848771970669 -0.08312383174561389 0.05341113158395142 0.1901707954465408 0.06418985177253839 0.08285737460192938 -0.25762610157248905 -0.17374654279378776 -0.12839618433395125 -0.22267865761623243 -0.0879557637446859 -0.21368113377948914 0.0022682438056204415 0.08505042140699393 0.05617820144623122 -0.09868107792602397 -0.007530729477472269 -0.001282683130420923 -0.05984899936460265 0.003987972280094588 -7.515272125008206E-4 0.04280649983595456 0.08191111063372256 -0.08168421685884505 0.0043892181860066 0.06913159753425584 -0.0759879864284791 -0.045943389990393435 0.04815177864018607 0.06166986876087538 -0.05918460992748051 -0.2264285079857459 0.023881310844279607 -0.013441831722639791 -0.027807459626122976 -0.09028292057982061 -0.09217405739995806 -0.11648418766303316 0.07485320076026188 0.06543096943693105 -0.02118070270167414 0.09753727063956993 -0.034645671525205736 0.00466305926104488 0.032871239384929064 -0.024549157527001972 -0.05181752962511859 -0.0852513694821341 0.025644689697984724 -0.007194960559066485 0.11320321584424514 -0.1490630764442319 -0.07085294146254041 -0.1969271540379684 0.03740292629995484 0.08789791727984726 0.012715026604770705 0.14920154065876592 -0.02241927263412028 0.007775797078290626 -0.11976926954534863 -0.10088150686723842 -0.14780096825990977 0.08625691642974116 -0.07164050720744876 0.09019867064289645 0.08232108927900095 0.05376140575111648 -0.08608062544898687 0.012424226781660963 0.09695242253528485 -0.07929299008212254 0.05531419385322419 -0.09614999120980564 -0.009651525766726904 0.12152950621999938 0.039688182301609844 0.038071092972055805 0.061637315853823725 -0.13387058098067517 -0.0612542307683924 -0.1827470190483789 -0.12653577117906625 -0.1773033519169701 0.03899287138564072 -0.10087692070942775 -0.05745650261132128 